
\data\
ngram 1=2797
ngram 2=10110
ngram 3=5838

\1-grams:
-3.933993	"sézèv"	-0.4763791
-3.933993	"trinidad	-0.4770707
-3.088895	-	-0.4361311
-3.933993	-aki	-0.4769696
-3.933993	-an	-0.468251
-3.933993	-ba	-0.4766997
-3.933993	-ou	-0.468251
-3.933993	-syèk	-0.4768178
-3.933993	0	-0.477037
-4.110085	18	-0.3009963
-3.933993	1853	-0.466683
-3.933993	1878	-0.4769696
-4.110085	18h	-0.2720407
-4.110085	18h45	-0.3009626
-3.933993	1920	-0.477037
-3.933993	1981	-0.4735677
-4.110085	2010	-0.2974764
-3.933993	28	-0.4726662
-3.933993	4latannyé	-0.4767166
-4.110085	8	-0.2957399
-1.189961	</s>
-99	<s>	-0.3309371
-1.596867	a	-0.3225485
-4.110085	a'w	-0.3009794
-3.297171	a'y	-0.4390844
-3.933993	a-i	-0.4605811
-3.933993	a-ou	-0.4714898
-3.933993	a-w	-0.4754496
-2.963956	a-y	-0.3902576
-4.110085	aa	-0.2720407
-3.933993	aaa	-0.477037
-4.110085	aba	-0.2905917
-4.110085	abitiyé	-0.2939792
-4.110085	abityèlman	-0.2933106
-3.933993	abityé	-0.476092
-3.632963	abiyé	-0.4100233
-3.456872	abo	-0.4731086
-4.110085	abon	-0.2868991
-3.933993	abîmes	-0.295279
-4.110085	accord	-0.3009963
-3.049387	achté	-0.3316316
-4.110085	actes	-0.3004228
-3.933993	action	-0.2719866
-4.110085	actions	-0.3004228
-3.712144	adad	-0.4590026
-2.346657	adan	-0.4416887
-4.110085	adanadan	-0.2720407
-3.933993	adans	-0.4715069
-3.809054	adapté	-0.2711209
-4.110085	adapté-y	-0.2899006
-4.110085	adaptés	-0.3009626
-4.110085	admettons	-0.3002372
-4.110085	adopté-y	-0.2905917
-4.110085	adoré	-0.3009963
-3.933993	adoumanman	-0.4754496
-3.933993	adyé	-0.4659919
-3.933993	adélya	-0.4653344
-3.632963	afrik	-0.3855709
-4.110085	afrikèn	-0.2905917
-4.110085	afè	-0.2899006
-3.933993	agrikilti	-0.2719686
-4.110085	agrikiltè	-0.2948689
-4.110085	agrèr	-0.2939792
-4.110085	aides	-0.3001359
-3.933993	aimer	-0.4770707
-3.933993	ajouté	-0.477037
-3.632963	aka	-0.3519465
-4.110085	ako	-0.2720407
-4.110085	aksantyé	-0.2996628
-3.933993	aksèpté	-0.2719686
-4.110085	aksé	-0.3009794
-4.110085	aksépté	-0.3009289
-3.712144	aktivité	-0.3387172
-4.110085	aktyal	-0.2969494
-3.712144	aktyèlman	-0.2754146
-3.712144	alantou	-0.6878406
-3.933993	alarètrèt	-0.4770707
-3.933993	albè	-0.4700705
-4.110085	ale	-0.3005916
-3.809054	alentou	-0.5909306
-4.110085	aliman	-0.3009289
-4.110085	aller	-0.3006085
-4.110085	alokasyon	-0.2720407
-3.712144	aloss	-0.4768178
-3.933993	alosse	-0.4770033
-3.933993	alosss	-0.4769696
-3.933993	alyansman	-0.4659919
-3.566016	alè	-0.3478164
-3.933993	alèkilé	-0.4700705
-3.933993	alèz	-0.4743486
-3.566016	alé	-0.3358854
-3.933993	alélouya	-0.448132
-3.030903	alò	-0.2328886
-3.456872	alòs	-0.4516131
-4.110085	amisman	-0.2991553
-4.110085	amizman	-0.300794
-3.933993	amizé	-0.2861323
-3.933993	amoni	-0.4754496
-3.933993	amoué	-0.477037
-4.110085	amé	-0.2939792
-3.933993	amérendyen	-0.4653344
-1.49466	an	-0.4284484
-3.369722	an-mwen	-0.4599153
-4.110085	anan	-0.300794
-4.110085	ananvlop	-0.2720407
-4.110085	ananvè	-0.3009963
-3.068692	anba	-0.4733221
-3.933993	anbenn	-0.4718311
-4.110085	ancien	-0.2960979
-3.933993	and	-0.4770707
-3.933993	andanjé	-0.2994767
-3.235023	andidan	-0.4139139
-3.933993	andwa	-0.4769864
-3.712144	andèwò	-0.6878406
-4.110085	andéwò	-0.2720407
-4.110085	anfas	-0.3009289
-4.110085	anfen	-0.2969494
-3.933993	anfinaldikont	-0.4709602
-3.632963	anfèt	-0.2863939
-3.933993	angiya	-0.4770707
-4.110085	anglofòn	-0.2720407
-3.933993	anglophones	-0.4769527
-3.933993	anglé	-0.466683
-4.110085	angrè	-0.2935679
-3.331933	anivèsè	-0.4802847
-4.110085	anka	-0.3009626
-3.933993	ankaz	-0.466683
-3.933993	anki	-0.4770707
-4.110085	anklav	-0.3001021
-4.110085	anko	-0.2868991
-3.049387	ankò	-0.4897859
-2.919753	anlo	-0.3227967
-3.331933	anlè	-0.5043065
-3.566016	anlè-la	-0.5730166
-3.933993	anman	-0.4718311
-4.110085	anmèm	-0.3005241
-4.110085	anmèwdé-w	-0.2982573
-3.809054	ann	-0.2904017
-3.933993	anni	-0.4765985
-3.933993	anniversaire	-0.2625514
-4.110085	ano	-0.3009457
-4.110085	anon	-0.3009963
-3.933993	anonsé	-0.448132
-4.110085	anparfèt	-0.3009289
-3.933993	anpil	-0.476396
-3.712144	anpizé	-0.4664239
-3.712144	anplis	-0.4603709
-3.933993	anplwayé	-0.477037
-3.933993	anplwayé-la	-0.4653344
-3.933993	anrajé	-0.448132
-3.933993	anri	-0.4726662
-4.110085	anrichi	-0.2939792
-4.110085	ansalézon	-0.2994937
-2.919753	ansanm	-0.7870917
-4.110085	ansomur	-0.3009963
-3.933993	ansuit	-0.2920909
-3.632963	ansyen	-0.3808287
-4.110085	ansèt	-0.2868991
-4.110085	ansémoman	-0.2905917
-4.110085	ansòt	-0.2970344
-3.933993	antan	-0.4731257
-3.933993	antann	-0.4721892
-3.933993	antig	-0.4761089
-4.110085	antil	-0.2720407
-4.110085	antillais	-0.2960979
-3.809054	antiyèz	-0.2788866
-3.933993	antouléka	-0.4768009
-3.933993	antrè	-0.4694019
-3.809054	antré	-0.2689853
-4.110085	anvi	-0.2720407
-3.809054	anvlop	-0.2693842
-3.508024	apa	-0.342248
-4.110085	apar	-0.2948689
-3.933993	aparamman	-0.4767841
-4.110085	apati	-0.3003722
-3.933993	apennsi	-0.4770033
-3.712144	apiyé	-0.4748401
-3.933993	apoué	-0.4770033
-3.809054	aprann	-0.3845049
-3.369722	aprè	-0.3408835
-4.110085	après	-0.2960979
-4.110085	aprèzan	-0.2935679
-2.879636	apré	-0.3882261
-4.110085	apré-	-0.2720407
-4.110085	apréprè	-0.2720407
-3.933993	aprésa	-0.4770707
-3.369722	aprézan	-0.4558637
-3.712144	apwé	-0.4725811
-3.933993	apwézan	-0.466683
-3.809054	apéprè	-0.2712473
-4.110085	apò	-0.2905917
-3.933993	ara	-0.4726662
-3.933993	arecaceae	-0.4726662
-4.110085	arivé	-0.2899006
-3.933993	arèsté	-0.4763454
-3.933993	arété	-0.2903672
-4.110085	asezonman	-0.2935679
-2.948716	asi	-0.5261964
-4.110085	asosyasyon	-0.2935679
-3.712144	assi	-0.4770201
-3.933993	asèzoné	-0.3006085
-3.933993	asé	-0.3009625
-3.933993	aséfyé	-0.4605811
-3.933993	asérola	-0.2849622
-4.110085	asézonman	-0.2720407
-4.110085	atan	-0.2720407
-3.933993	atandan	-0.4770201
-3.566016	atann	-0.4275458
-4.110085	atitid	-0.2868991
-4.110085	atristé	-0.2974764
-3.933993	atè	-0.4746368
-3.411114	au	-0.3973835
-3.809054	aussi	-0.3903064
-4.110085	autour	-0.3009289
-4.110085	autre	-0.2905917
-3.712144	aux	-0.367842
-2.996141	avan	-0.2867147
-3.809054	avansé	-0.2709403
-4.110085	avec	-0.3009963
-3.566016	avè	-0.3407849
-4.110085	avèk	-0.2985455
-3.456872	aw	-0.3685787
-4.110085	awa	-0.2720407
-2.720918	ay	-0.29898
-4.110085	ayay	-0.2720407
-3.297171	ayen	-0.3123713
-4.110085	ayisyen	-0.3009794
-3.508024	ayiti	-0.377676
-3.809054	ayè	-0.2959274
-3.933993	a’w	-0.4770707
-2.406793	a’y	-0.4777738
-2.748357	ba	-0.4509466
-3.933993	ba-ou	-0.4770201
-3.331933	ba-y	-0.415198
-3.933993	baamas	-0.477037
-3.933993	balan-la	-0.4653344
-4.110085	balon	-0.3009289
-4.110085	balè	-0.3002034
-3.206995	ban	-0.6483164
-3.933993	ban-nou	-0.4770707
-4.110085	banalisation	-0.2720407
-4.110085	bandé	-0.2999163
-3.712144	banglen	-0.4559522
-3.933993	banjo	-0.4754835
-4.110085	bank	-0.2993583
-3.933993	bann	-0.448132
-3.411114	bannann	-0.4633645
-3.933993	bannzil	-0.4752466
-3.933993	bannzil-la	-0.466683
-4.110085	baril	-0.2957399
-4.110085	bas	-0.3008783
-3.933993	bastè	-0.4751958
-3.068692	bat	-0.4624386
-3.933993	bata-zendyèn	-0.477037
-3.566016	bato	-0.3339135
-3.933993	bato-la	-0.4629903
-3.933993	batèm	-0.4770707
-4.110085	baw	-0.2720407
-3.369722	bay	-0.3423559
-3.933993	bayè	-0.448132
-3.933993	baz	-0.4746368
-3.933993	bazil	-0.477037
-3.566016	ba’y	-0.4695563
-3.712144	bel	-0.4470135
-3.331933	ben	-0.2896854
-3.809054	bi	-0.5730707
-4.110085	bibliotèk	-0.3008446
-4.110085	bibliotèt	-0.3004228
-3.632963	bien	-0.4255978
-3.411114	bigin	-0.3396253
-4.110085	bin	-0.2921597
-3.933993	bitabita	-0.4766997
-3.712144	bitasyon	-0.4762271
-2.524624	biten	-0.3404385
-4.110085	bitin	-0.2939792
-3.933993	bityé	-0.448132
-2.948716	bizwen	-0.34892
-3.933993	blakbotòn	-0.4754835
-3.264987	blan	-0.3347603
-3.809054	blé	-0.2765572
-3.809054	bo	-0.3899289
-3.933993	boat	-0.4696592
-3.933993	bobi	-0.4659919
-3.933993	bokantaj-palé	-0.4659919
-3.933993	bokanté	-0.4754496
-3.508024	bokit	-0.3098548
-4.110085	bokou	-0.3003047
-2.670752	bon	-0.3094639
-3.933993	bondyé	-0.4770539
-3.933993	bonjou	-0.448132
-3.933993	bonmoun	-0.4770707
-4.110085	bonne	-0.3009963
-4.110085	bonnòm	-0.3009794
-3.933993	botan	-0.4753312
-4.110085	bouch	-0.2868991
-3.933993	bouché	-0.4768178
-3.933993	bouden	-0.270579
-3.456872	boug	-0.3901438
-3.933993	bougenviyé	-0.4770033
-3.933993	bougrès	-0.4770707
-4.110085	boukit	-0.2935679
-3.933993	boula	-0.448132
-3.933993	boulanger	-0.4696592
-4.110085	boulèt	-0.2720407
-3.809054	bourg	-0.3688967
-4.110085	bourgeois	-0.3009963
-3.508024	bout	-0.6417199
-3.933993	boutiques	-0.4770707
-3.933993	boutt	-0.448132
-3.933993	boutèy	-0.267768
-3.933993	bra	-0.4659919
-4.110085	braké	-0.3009963
-3.933993	bravo	-0.4754835
-4.110085	bren	-0.3009963
-3.712144	brilé	-0.4763453
-3.264987	bwa	-0.4992388
-3.933993	bwa-koubari	-0.4659919
-3.933993	bwa-la	-0.448132
-3.933993	bwajolan	-0.4751619
-3.933993	bwaré	-0.4751619
-4.110085	bwen	-0.3007771
-3.933993	bwitaj	-0.4770707
-3.933993	bwè	-0.477037
-2.867046	byen	-0.3515981
-3.933993	byendéfwa	-0.4770707
-4.110085	byento	-0.3009457
-3.712144	bè	-0.4768347
-3.933993	bèbèl-jolivans	-0.4730406
-3.933993	bèf	-0.3003891
-3.933993	bèj	-0.4754158
-3.712144	bèk	-0.476919
-3.030903	bèl	-0.4038144
-3.933993	bèlbèbèl	-0.4629903
-3.712144	bèsyo	-0.6986328
-3.566016	bèt	-0.4649186
-3.712144	bèwjèt	-0.4625026
-3.933993	bélizgwatémala	-0.4770707
-3.933993	bélétan	-0.466683
-4.110085	bò	-0.3008614
-3.933993	bòdlanmè	-0.4770707
-4.110085	bòdèl	-0.2720407
-3.933993	bòdé	-0.4659919
-3.933993	bòl-a-men	-0.448132
-4.110085	bòn	-0.3006253
-3.933993	bòskaf	-0.4743486
-4.110085	c	-0.2948689
-3.155842	c'est	-0.4853774
-4.110085	c'est-a	-0.3009289
-3.712144	c'était	-0.4765647
-4.110085	cadeaux	-0.2720407
-4.110085	canabis	-0.2844898
-4.110085	canada	-0.3001021
-3.933993	canal	-0.4770707
-3.933993	canne	-0.4769358
-3.933993	caraibes	-0.476919
-3.809054	caraïbe	-0.2453479
-4.110085	caraïbéen	-0.2960979
-4.110085	carrière	-0.3009963
-3.712144	case	-0.4747385
-3.809054	cawo	-0.2697104
-3.933993	cayenne	-0.4769358
-4.110085	cd	-0.2933106
-3.933993	cela	-0.3008108
-4.110085	cendres	-0.2933106
-3.933993	cent	-0.4770033
-4.110085	certains	-0.3009457
-3.712144	chabon	-0.4769527
-4.110085	chaché	-0.3009457
-3.933993	chadwon	-0.448132
-3.933993	chaj	-0.4758217
-3.264987	chak	-0.450437
-3.933993	chakfwa	-0.4700705
-3.933993	chalviré	-0.448132
-3.933993	chalè	-0.476919
-3.933993	chalèstòn	-0.4754835
-3.712144	chanjé	-0.366119
-3.933993	channda	-0.448132
-3.297171	chanté	-0.4254628
-4.110085	chanté-y	-0.2720407
-3.933993	chapo	-0.4629903
-3.566016	chapé	-0.6018577
-4.110085	charles	-0.2892431
-3.933993	chaspann	-0.4726662
-3.566016	chat	-0.4431674
-3.933993	chatobren	-0.4770707
-3.933993	chatouyé	-0.4767166
-4.110085	chauvinisme	-0.2921597
-3.712144	chayé	-0.4744673
-3.933993	chayé’y	-0.4751619
-3.933993	chenil-la	-0.4653344
-3.566016	chenn	-0.4449496
-3.933993	chenn-lasa	-0.4605811
-3.264987	chimen	-0.3368835
-3.933993	chimen-la	-0.4718311
-3.933993	chimiz	-0.4768853
-3.933993	chiraj	-0.4770707
-3.933993	chiré	-0.4659919
-4.110085	chivè	-0.2969494
-3.369722	chivé	-0.4636862
-3.712144	chivé-la	-0.4718823
-3.933993	chivé-lasa	-0.4653344
-4.110085	chié	-0.2935679
-3.566016	cho	-0.3567276
-3.809054	chomaj	-0.3688967
-3.566016	chonjé	-0.4624329
-3.809054	chou	-0.3874672
-3.933993	chouboulé	-0.4763285
-3.933993	chouk	-0.4629903
-3.712144	chouké	-0.4625897
-3.933993	choz	-0.2625514
-3.933993	chwazi	-0.2703981
-3.456872	chè	-0.2838102
-4.110085	chèche	-0.2954156
-4.110085	chèchè	-0.3009963
-2.996141	chèché	-0.3936518
-3.933993	chèlchè	-0.4768684
-3.933993	coloniales	-0.2719326
-4.110085	colonisation	-0.3008108
-3.632963	comme	-0.2946296
-4.110085	comment	-0.3009457
-3.712144	commin	-0.4769527
-4.110085	commonwealth	-0.2720407
-3.933993	compouanne	-0.4770201
-3.933993	compte	-0.3007602
-3.456872	con	-0.5634786
-4.110085	continent	-0.3008446
-4.110085	continuité	-0.3009963
-4.110085	contre	-0.3006085
-4.110085	conténances	-0.3004228
-4.110085	convient	-0.3006591
-3.933993	cornely	-0.4629903
-3.933993	couillon	-0.4769021
-3.933993	couple	-0.2660178
-4.110085	couples	-0.2994937
-3.933993	couter	-0.4768178
-3.933993	couè	-0.4768684
-4.110085	crêche	-0.3006085
-4.110085	cuisine	-0.2868991
-4.110085	cuisson	-0.3008108
-4.110085	cul	-0.2720407
-4.110085	culturelle	-0.2899006
-3.933993	cyclone	-0.4770201
-3.933993	còdonnier	-0.4769021
-3.933993	côté	-0.4766323
-4.110085	d'acteur	-0.3008614
-4.110085	d'autre	-0.3009963
-3.933993	d'autres	-0.4770707
-4.110085	d'avoir	-0.3009289
-4.110085	d'esprit	-0.2982573
-4.110085	d'estaing	-0.2720407
-3.933993	d'intruire	-0.4762272
-4.110085	dabitid	-0.2720407
-3.508024	dabò	-0.5181512
-3.933993	dabòw	-0.476092
-4.110085	dada	-0.2720407
-4.110085	dako	-0.2994937
-3.712144	dan	-0.2997304
-3.933993	danmyé	-0.4770707
-3.933993	dannkit	-0.4763454
-3.110085	dans	-0.5779459
-3.264987	dansé	-0.4459727
-4.110085	dansé-y	-0.2948689
-3.809054	dantis	-0.376098
-3.566016	daprè	-0.5974858
-4.110085	dapré	-0.2974764
-4.110085	darivé	-0.2720407
-3.933993	daré	-0.4768009
-4.110085	david	-0.2905917
-3.180665	davwa	-0.4473026
-3.712144	dayè	-0.289295
-2.686839	de	-0.3481179
-3.933993	demen	-0.2719866
-4.110085	depi	-0.3000176
-3.013174	des	-0.3247696
-3.933993	desann	-0.4769527
-4.110085	desklav	-0.2720407
-4.110085	despò	-0.2939792
-4.110085	despòtasyon	-0.2905917
-4.110085	desà	-0.3006085
-4.110085	deux	-0.3009963
-4.110085	developpement	-0.3001359
-2.2681	di	-0.4481441
-3.712144	di'w	-0.3529396
-3.933993	di-mwen	-0.477037
-3.933993	di-ou	-0.448132
-3.933993	di-w	-0.2882723
-4.110085	di-y	-0.3007097
-3.933993	di-yo	-0.4726662
-4.110085	dialek	-0.2948689
-3.933993	diaspora	-0.4766997
-4.110085	diffé	-0.2720407
-3.933993	différentes	-0.2543352
-4.110085	difikilté	-0.2933106
-3.712144	difisil	-0.456889
-3.933993	difé	-0.448132
-3.566016	diféran	-0.3598296
-3.712144	digommier	-0.4761089
-3.088895	dimanch	-0.3419752
-4.110085	dirais	-0.2720407
-3.632963	dire	-0.3506124
-3.809054	direksyon	-0.3904093
-4.110085	diri	-0.2720407
-4.110085	dirijé	-0.3008446
-3.933993	dirèksyon	-0.4659919
-3.933993	dirèktris-lékòl-la	-0.4709602
-4.110085	dirèktèman	-0.2905917
-3.809054	dirèktéman	-0.3829552
-4.110085	diré-y	-0.3008614
-4.110085	dis	-0.3006085
-4.110085	diskou	-0.3009963
-3.933993	diskoupé	-0.4754496
-3.411114	disparèt	-0.3738771
-3.933993	distraksyon	-0.4629903
-3.933993	distribiyé	-0.4763454
-3.632963	dit	-0.4257833
-4.110085	ditan	-0.2987489
-3.933993	dite	-0.2718605
-3.933993	divizé	-0.4700705
-3.712144	diw	-0.2970174
-3.933993	dizan	-0.476396
-4.110085	diznévè	-0.2720407
-3.933993	dizuitan	-0.4653344
-3.933993	dizè	-0.2569172
-3.933993	djok	-0.4770707
-3.411114	dlo	-0.4118901
-3.933993	do	-0.4629903
-3.933993	dola	-0.4754835
-4.110085	dombré	-0.2948689
-3.632963	dominik	-0.3944317
-4.110085	dominiken	-0.3009963
-4.110085	domisil	-0.3009963
-3.933993	donbré	-0.2608725
-3.508024	donc	-0.4378809
-2.452073	donk	-0.3553171
-4.110085	donké	-0.2970344
-4.110085	doron	-0.2982573
-3.456872	dot	-0.3756285
-4.110085	dotmoun	-0.2844898
-3.809054	dou	-0.3914712
-3.566016	doubout	-0.4585631
-4.110085	doudou	-0.2892431
-3.933993	doulè	-0.4629903
-3.933993	dousiné-kanpo	-0.4659919
-3.933993	douslèt	-0.4770707
-3.411114	douvan	-0.429689
-3.933993	douvanjou	-0.448132
-3.712144	douvant	-0.4689041
-3.933993	douwé	-0.477037
-4.110085	douz	-0.3009963
-4.110085	drapo	-0.2957399
-3.933993	drivayè	-0.4770707
-3.933993	drivé	-0.4767503
-4.110085	drès	-0.3009626
-4.110085	dréné	-0.2720407
-3.632963	du	-0.4254122
-4.110085	dur	-0.2720407
-3.809054	dwa	-0.2954327
-3.331933	dwèt	-0.39908
-4.110085	dwét	-0.2953985
-3.933993	dwòg	-0.4770707
-3.369722	dyédonné	-0.5248058
-2.82005	dè	-0.3417634
-3.933993	dè-w	-0.4764466
-3.456872	dègné	-0.563428
-3.933993	dèkwa-la	-0.4718311
-3.712144	dèmen	-0.4765479
-4.110085	dènyè	-0.3008446
-3.933993	dènyé	-0.468251
-3.933993	dènyé-la	-0.4653344
-3.632963	dèpi	-0.4254628
-3.155842	dèyè	-0.4075857
-3.933993	dèyè’y	-0.4730406
-3.933993	dèyé	-0.4766829
-2.243797	dé	-0.3456343
-3.933993	déba	-0.4659919
-3.933993	débaké	-0.4770707
-3.933993	débouya	-0.475382
-3.933993	débouya-lasa	-0.4653344
-4.110085	débòdéman	-0.2993583
-4.110085	découverte	-0.2987489
-4.110085	dédu	-0.3009963
-4.110085	dédé	-0.3009963
-4.110085	défilé	-0.3000176
-3.933993	dégajé	-0.4715069
-3.933993	dégenn	-0.4659919
-3.933993	dégizé	-0.4700705
-3.933993	dégrenné	-0.468251
-4.110085	dégueulas	-0.3002372
-3.933993	déja	-0.2992568
-3.933993	déjà	-0.4768178
-3.933993	déjéné	-0.2917467
-4.110085	déjénéré	-0.3008108
-3.933993	dékatyé	-0.4767166
-3.933993	déklaré	-0.4726662
-4.110085	dékonsantrasyon	-0.2844898
-3.712144	dékouvè	-0.4763453
-4.110085	dékouvèt	-0.2720407
-3.933993	dékré	-0.4770707
-4.110085	délenkan	-0.2935679
-3.933993	délè	-0.4700705
-4.110085	démografi	-0.2720407
-4.110085	démontré	-0.3009963
-3.933993	démélé	-0.4700705
-3.712144	déotwa	-0.4473386
-4.110085	dépa	-0.3004397
-3.933993	dépalé	-0.448132
-3.566016	dépann	-0.474586
-3.712144	dépawfwa	-0.4626245
-4.110085	dépendance	-0.3009457
-3.049387	dépi	-0.3597209
-3.566016	déplasé	-0.4604761
-4.110085	dérivé	-0.2899006
-3.933993	désandan	-0.4659919
-3.933993	désann	-0.4770707
-4.110085	désen	-0.2868991
-3.809054	désidé	-0.3861531
-4.110085	désirad	-0.3005916
-3.933993	désè	-0.4770707
-3.933993	désèwten	-0.4751619
-3.933993	détaché	-0.4746368
-3.933993	détui	-0.4768684
-3.566016	détwa	-0.4759569
-4.110085	développement	-0.3008614
-3.933993	dévenn	-0.448132
-3.933993	déviré	-0.4629903
-3.632963	dévlopman	-0.2794183
-3.712144	dévlopé	-0.2996966
-3.712144	déwò	-0.3617132
-3.933993	déyès	-0.4770707
-4.110085	dézan	-0.3004566
-3.712144	dézirad	-0.4480779
-3.933993	dézyèm	-0.468251
-4.110085	dézyèman	-0.3009794
-4.110085	dézè	-0.2720407
-3.566016	dòmi	-0.43602
-2.948716	dòt	-0.4452761
-3.508024	e	-0.3962447
-4.110085	effectivement	-0.2720407
-4.110085	effectivemnt	-0.2921597
-3.809054	egzanp	-0.2867075
-4.110085	ekzakteman	-0.3007771
-3.809054	ekzamp	-0.2633793
-3.933993	ekzanp	-0.2926067
-4.110085	ekzat	-0.3002878
-4.110085	ekzisté	-0.2720407
-3.933993	elayiz	-0.4700705
-3.933993	emil	-0.4653344
-2.787865	en	-0.3579384
-3.933993	enben	-0.3000683
-4.110085	enclave	-0.3001021
-3.933993	encò	-0.448132
-4.110085	endépandan	-0.300912
-4.110085	enfants	-0.3009457
-4.110085	enfeksyon	-0.2905917
-4.110085	enfin	-0.3001359
-4.110085	enfèt	-0.3009963
-4.110085	enfòmasyon	-0.2953985
-3.632963	enki	-0.4216839
-3.712144	enkyèt	-0.4602308
-3.369722	enmé	-0.4758216
-4.110085	enpa	-0.2720407
-4.110085	enprovizé	-0.2720407
-3.933993	enpé	-0.300912
-3.933993	enpòtan	-0.2873515
-3.809054	enpòté	-0.2680408
-4.110085	ensidans	-0.2953985
-4.110085	enstri	-0.2720407
-3.632963	enstriman	-0.3776194
-4.110085	ensuite	-0.3009794
-4.110085	entre	-0.3009963
-4.110085	entrisman	-0.2905917
-3.712144	entrodui	-0.3221631
-3.933993	entèl	-0.3006759
-4.110085	entèltyél	-0.2905917
-4.110085	entérésan	-0.2720407
-4.110085	entérésé	-0.2974764
-3.809054	envité	-0.3959976
-3.933993	envitéw	-0.4751619
-3.933993	es	-0.4694019
-4.110085	esklav	-0.3006591
-4.110085	eskè	-0.3006253
-3.508024	eské	-0.5046898
-3.933993	espliké	-0.2918156
-4.110085	espré	-0.2969494
-4.110085	espéryans	-0.3009626
-4.110085	espéré	-0.2720407
-3.933993	espésyalman	-0.2968813
-4.110085	espòté	-0.3008783
-4.110085	espòté-y	-0.3008614
-3.933993	ess	-0.4718311
-3.809054	est	-0.2718425
-4.110085	est-il	-0.3007097
-3.369722	et	-0.4752296
-3.809054	euh	-0.3688967
-4.110085	euro	-0.2969494
-3.933993	ewopéyen	-0.4653344
-3.933993	exactement	-0.2608725
-3.933993	fab-la	-0.4605811
-3.933993	faire	-0.3003047
-3.508024	fait	-0.433906
-3.933993	fal	-0.4770707
-3.933993	famille	-0.2844023
-4.110085	familles	-0.3009963
-3.933993	fanfoulich	-0.4605811
-3.110085	fanm	-0.4611387
-3.933993	fanm-bitasyon	-0.448132
-3.933993	fanme	-0.4770707
-3.030903	fanmi	-0.4236929
-3.933993	fanmi-zòtèy	-0.4770707
-4.110085	fannm	-0.2921597
-3.206995	farin	-0.5037627
-3.566016	fason	-0.285359
-4.110085	fasèt	-0.3009963
-3.933993	faut	-0.2932763
-3.933993	favè	-0.4768347
-3.933993	façon	-0.2710848
-3.712144	fen	-0.4678896
-3.809054	fenfon	-0.3867588
-3.933993	fengnan	-0.448132
-4.110085	festif	-0.2933106
-4.110085	festive	-0.3009626
-3.809054	fey	-0.3716269
-3.712144	fi	-0.3648139
-3.933993	fianmizi	-0.4726662
-4.110085	fidèlité	-0.3008614
-3.933993	fier	-0.2718965
-2.948716	fifi	-0.5584375
-3.933993	figi	-0.4754158
-3.933993	figue	-0.4770707
-4.110085	fiks	-0.2720407
-3.632963	fil	-0.5326965
-4.110085	fils	-0.3001359
-3.933993	filé	-0.4769358
-4.110085	fim	-0.2935679
-3.331933	fin	-0.4579106
-3.712144	finalman	-0.3217884
-3.933993	fini	-0.300912
-4.110085	fininalman	-0.2868991
-4.110085	fisèl	-0.2921597
-3.933993	fiy	-0.4659919
-3.933993	fiyansay	-0.477037
-3.933993	fiyè	-0.2660361
-3.933993	flanm	-0.4629903
-3.933993	flora	-0.4768178
-3.933993	florid	-0.4721892
-3.132361	flè	-0.8227595
-3.933993	flègèdènou	-0.4714898
-3.712144	fléri	-0.4656286
-3.155842	fo	-0.3792787
-3.566016	fois	-0.2954463
-3.933993	fon	-0.4659919
-4.110085	fonksyon	-0.2985455
-3.933993	fonmé	-0.4715069
-4.110085	formation	-0.3008614
-4.110085	forme	-0.3001359
-3.933993	foséyè	-0.4730406
-3.809054	foto	-0.5909306
-3.933993	fou	-0.4754835
-3.566016	foula	-0.4750773
-3.456872	foumi	-0.441835
-3.933993	foumi1	-0.4770707
-3.712144	four	-0.2615375
-3.933993	fouré	-0.4770707
-3.712144	fout	-0.4668383
-3.933993	fouti	-0.4694019
-3.809054	fouté	-0.2999839
-3.933993	foutépamal	-0.4753312
-3.712144	fouyé	-0.4760582
-4.110085	france	-0.2720407
-4.110085	francesca	-0.2720407
-3.566016	frans	-0.3401262
-3.933993	fransè	-0.448132
-4.110085	fransèz	-0.3002541
-3.566016	fransé	-0.3555772
-3.632963	fri	-0.3229229
-4.110085	frijidè	-0.2720407
-4.110085	frikasé	-0.2994937
-3.933993	frizé	-0.4754158
-4.110085	frui	-0.2933106
-3.933993	fré-la	-0.448132
-3.933993	fréné	-0.2713375
-4.110085	fur	-0.3004228
-3.369722	fwa	-0.2649997
-3.933993	fwan	-0.4754835
-3.933993	fwansé	-0.4605811
-3.933993	fwomajé	-0.4769021
-3.132361	fwè	-0.8365201
-3.456872	fwèt	-0.4492475
-3.566016	fyè	-0.3942845
-2.143943	fè	-0.3637444
-3.933993	fè'w	-0.4768516
-3.508024	fè-y	-0.2850249
-3.566016	fèmé	-0.3966573
-4.110085	fèmété	-0.2868991
-3.809054	fès	-0.5730707
-2.933993	fèt	-0.4208655
-3.712144	fèy	-0.4659054
-3.933993	fè’y	-0.4715069
-3.933993	fé	-0.4694019
-4.110085	fényan	-0.2954156
-3.933993	fésé	-0.4765985
-4.110085	fété	-0.3009963
-4.110085	févriyé	-0.2720407
-3.933993	fête	-0.4770707
-3.933993	fêtes	-0.2719686
-2.867046	fò	-0.5219534
-3.933993	fòl	-0.4754835
-3.566016	fòm	-0.4557929
-3.088895	fòs	-0.5127702
-3.933993	fòsé	-0.4765985
-3.933993	fòséman	-0.448132
-4.110085	fòséw	-0.2868991
-3.933993	fòwmé	-0.4769696
-2.919753	gadé	-0.3552191
-3.712144	gadé-mwen	-0.4769695
-4.110085	gadé-y	-0.2720407
-4.110085	galante	-0.3001021
-3.933993	galba	-0.2815034
-3.933993	gangann	-0.4659919
-3.566016	gangné	-0.4711824
-3.933993	ganm	-0.466683
-3.933993	ganm-la	-0.476396
-3.933993	ganmé	-0.4769696
-4.110085	gare	-0.3009289
-3.508024	gason	-0.4971918
-3.933993	gason-anbaglaj	-0.4659919
-3.566016	gato	-0.5928972
-3.809054	gaté	-0.2876297
-4.110085	gaté-y	-0.3008446
-3.933993	gay	-0.4770033
-3.933993	gaël	-0.2625514
-4.110085	gdcf	-0.2720407
-3.297171	genbo	-0.4509155
-4.110085	gentihomme	-0.2720407
-3.933993	gidonné	-0.4735677
-4.110085	giscard	-0.3009963
-4.110085	gita	-0.2720407
-3.933993	giyann-la	-0.4766323
-4.110085	gomon	-0.2720407
-3.712144	gonflé	-0.4725811
-3.809054	gou	-0.367489
-3.933993	goud	-0.4754835
-4.110085	goumé	-0.2969494
-4.110085	gouvènèman	-0.2935679
-3.809054	gouvènéman	-0.2762718
-3.933993	goyav	-0.2640588
-3.566016	gra	-0.2784076
-3.933993	grabyo	-0.4770707
-3.933993	graisseries	-0.4696592
-4.110085	graj	-0.2933106
-2.777646	gran	-0.4689556
-3.933993	gran-apa	-0.4770707
-3.566016	grand	-0.4766323
-3.933993	grande	-0.3009457
-4.110085	grandes	-0.3009963
-3.566016	grandi	-0.3507007
-3.933993	grands	-0.4770707
-4.110085	granmoun	-0.2905917
-3.933993	grannonm	-0.4769358
-3.933993	grannonm-la	-0.4743486
-3.566016	gras	-0.4514522
-3.933993	gratuitman	-0.2569172
-3.712144	grenn	-0.4330084
-3.933993	grigné	-0.475382
-4.110085	griy	-0.2933106
-4.110085	griyo	-0.3009963
-4.110085	griyé	-0.3006253
-4.110085	griz	-0.2999163
-3.508024	gro	-0.2991511
-3.933993	group	-0.4770707
-3.933993	grésé	-0.4770539
-3.933993	guadeloupe	-0.4770707
-4.110085	guadloupéen	-0.2720407
-4.110085	guiyan	-0.2720407
-3.933993	guy	-0.4770707
-4.110085	guyan	-0.2933106
-4.110085	gwada	-0.2720407
-4.110085	gwadeloup	-0.3008446
-3.049387	gwadloup	-0.3356096
-3.933993	gwadloupÉyen	-0.477037
-3.933993	gwadloupéyen	-0.4762947
-4.110085	gwadoup	-0.3009963
-3.933993	gwatémala	-0.4767672
-3.155842	gwo	-0.4007319
-3.132361	gwoka	-0.7004824
-3.933993	gwossi	-0.4605811
-3.566016	gwoup	-0.4536636
-3.933993	gwoup-la	-0.4605811
-3.933993	gyaka	-0.4768684
-3.712144	gyèl	-0.4765647
-3.933993	gyòk	-0.448132
-3.933993	gèl	-0.4659919
-4.110085	gèrié	-0.3009963
-4.110085	gèy	-0.3009963
-3.933993	gòj	-0.4769021
-3.933993	gòl	-0.4767672
-3.566016	ha	-0.6015878
-3.933993	had	-0.4605811
-3.566016	hak	-0.456359
-3.933993	hay	-0.476666
-3.632963	hello	-0.7780501
-3.933993	henkenchyen	-0.448132
-4.110085	hercule	-0.296575
-4.110085	hispanophones	-0.2844898
-3.933993	hou	-0.4768347
-2.729873	hum	-0.963034
-4.110085	humaine	-0.3009457
-4.110085	humhum	-0.2720407
-3.933993	hélé-mwen	-0.4768178
-1.991159	i	-0.6929332
-3.933993	idantitÉ	-0.4770707
-3.264987	idantité	-0.6025053
-3.933993	idanté	-0.466683
-4.110085	idé	-0.2999163
-3.933993	idée	-0.4766997
-4.110085	ifo	-0.296575
-3.933993	ika	-0.4770707
-3.566016	il	-0.2981793
-4.110085	ilitizé	-0.2720407
-4.110085	ils	-0.3009626
-4.110085	imaj	-0.2868991
-4.110085	in	-0.2948689
-4.110085	indiens	-0.3001359
-4.110085	indépendants	-0.2933106
-4.110085	infections	-0.2720407
-4.110085	inikman	-0.3009626
-3.933993	inosan	-0.448132
-4.110085	intérêt	-0.2720407
-4.110085	inè	-0.3009963
-4.110085	irresponsable	-0.2720407
-3.933993	isi	-0.2696017
-3.933993	isidan	-0.4714898
-4.110085	issu	-0.3001359
-3.933993	istil	-0.4770033
-3.632963	istorik	-0.399924
-3.369722	istwa	-0.4274324
-4.110085	itilize-y	-0.3008446
-3.632963	itilizé	-0.2989267
-4.110085	itilizé-y	-0.2996628
-4.110085	ivèr	-0.2939792
-3.809054	j'ai	-0.397822
-2.948716	ja	-0.4069319
-3.180665	jaden	-0.4571362
-4.110085	jai	-0.300541
-3.933993	jakob	-0.4770707
-3.933993	jakòb	-0.4629903
-2.757902	jan	-0.4407378
-3.933993	jan-maché	-0.477037
-3.933993	janbé	-0.476396
-3.933993	janmayik	-0.4769864
-3.933993	janmé	-0.4764298
-3.933993	jaélia	-0.2569172
-3.712144	je	-0.3678251
-3.411114	jen	-0.4090476
-3.456872	jenn	-0.4741959
-3.933993	jenne	-0.4770707
-3.933993	jennjan	-0.4653344
-4.110085	jessica	-0.3009457
-4.110085	jet	-0.3009963
-3.809054	jin	-0.298376
-3.297171	jis	-0.4259362
-3.712144	jisak	-0.4473024
-3.933993	jisk	-0.2891392
-3.933993	jiska	-0.3006928
-4.110085	jisko	-0.3009289
-3.933993	jistan	-0.4770707
-3.933993	jiston	-0.4653344
-3.809054	jistéman	-0.2637467
-4.110085	jod	-0.2720407
-3.809054	jodi	-0.5945979
-3.456872	jodijou	-0.3900367
-3.369722	jodla	-0.5019652
-4.110085	jolinèt	-0.2720407
-2.767662	jou	-0.4363166
-3.933993	jou-lasa	-0.4770707
-3.933993	joudijou	-0.291609
-3.933993	jouer	-0.477037
-3.712144	jouné	-0.4746198
-3.933993	jous	-0.4629903
-3.933993	jouwé	-0.4715069
-4.110085	justement	-0.3009963
-3.933993	jwenn	-0.4769696
-3.180665	jwé	-0.2980396
-3.809054	jà	-0.3977714
-4.110085	jèm	-0.2986811
-3.566016	jèn	-0.2968149
-3.632963	jé	-0.2850497
-3.712144	jénéral	-0.2539034
-3.369722	jénéralman	-0.3403263
-4.110085	jénérasyon	-0.2935679
-3.933993	jéografik	-0.4766491
-3.933993	jérè	-0.4659919
-3.132361	jéwòm	-0.7069914
-3.933993	jòd-la	-0.448132
-3.180665	jòdijou	-0.4190571
-3.632963	jòdla	-0.2431006
-3.933993	jòne	-0.4769358
-4.110085	k'an	-0.3007771
-3.933993	k'ay	-0.2934822
-1.427488	ka	-0.4280768
-3.456872	ka'w	-0.9533146
-3.933993	kabouya-la	-0.4766154
-3.712144	kabrit	-0.4710115
-4.110085	kabwa	-0.2985455
-3.712144	kadans	-0.6878406
-3.132361	kado	-0.328956
-4.110085	kadré-y	-0.3000176
-4.110085	kadè	-0.3008446
-3.933993	kagou	-0.448132
-3.933993	kajou	-0.477037
-3.933993	kaka	-0.477037
-3.933993	kakwè	-0.4629903
-3.933993	kal	-0.4659919
-4.110085	kalaja	-0.2905917
-3.933993	kalipso	-0.4709602
-3.508024	kalité	-0.2786708
-3.933993	kalkilé	-0.4753312
-4.110085	kan	-0.2892431
-4.110085	kanalizé	-0.2948689
-3.632963	kanaval	-0.4086049
-4.110085	kanavalèks	-0.2720407
-3.933993	kanklo	-0.4768009
-3.933993	kanmem	-0.3004903
-4.110085	kanmen	-0.2948689
-4.110085	kanmèm	-0.3009626
-3.566016	kann	-0.3861358
-3.933993	kannal-la	-0.477037
-3.933993	kanpèch	-0.448132
-3.933993	kanta	-0.4770707
-3.933993	kantik	-0.4754496
-4.110085	kantil	-0.2960979
-4.110085	kapab	-0.2970344
-3.712144	kapasité	-0.3115277
-4.110085	kapestè	-0.3006422
-4.110085	kapital	-0.3008108
-3.933993	kapsil	-0.4770707
-3.809054	karant	-0.3976534
-3.712144	karapat	-0.4725981
-3.712144	karapat-la	-0.4716775
-3.933993	karata3	-0.4715069
-3.235023	karayib	-0.5534167
-3.933993	karayib-ia	-0.4768347
-3.933993	karayib-la	-0.4629903
-3.933993	karibéyenn-la	-0.476531
-3.933993	karisti	-0.4659919
-3.933993	karo-fè	-0.4659919
-4.110085	karèm	-0.2957399
-4.110085	karé	-0.2987489
-3.933993	karésol	-0.4659919
-3.933993	karésé	-0.4700705
-3.933993	karésé-w	-0.4768347
-3.933993	karésòl	-0.4629903
-4.110085	karòt	-0.2905917
-3.933993	kas	-0.4770707
-3.712144	kasav	-0.3460462
-4.110085	kasavri	-0.2954156
-3.712144	kaskòd	-0.447519
-3.180665	kat	-0.4255261
-4.110085	katégori	-0.2985455
-3.933993	kaw	-0.4730406
-3.456872	kawtyé-la	-0.4598977
-3.049387	kay	-0.2987982
-3.933993	kayi	-0.4718311
-4.110085	kayou	-0.3008446
-2.919753	kaz	-0.5617269
-4.110085	ke	-0.2933106
-4.110085	ken	-0.3008951
-3.933993	kenbé	-0.477037
-1.851208	ki	-0.3654397
-3.712144	kiba	-0.4769527
-3.933993	kidonk	-0.4653344
-3.235023	kifè	-0.4939435
-3.712144	kijan	-0.4717117
-3.933993	kikoté	-0.4768009
-3.933993	kilibibi	-0.4629903
-4.110085	kilinè	-0.2868991
-3.933993	kilomèt	-0.4629903
-3.264987	kilti	-0.3039953
-3.933993	kiltirÈl	-0.4770707
-3.369722	kiltirèl	-0.5054053
-3.933993	kiltivé	-0.2703981
-4.110085	kilè	-0.2957399
-3.933993	kimbè-w	-0.4659919
-3.809054	kimbé	-0.3971641
-3.132361	kimoun	-0.5114443
-4.110085	king	-0.2720407
-3.712144	kisé	-0.6988183
-3.933993	kitan	-0.466683
-3.632963	kitty	-0.386919
-3.933993	ki’y	-0.4721892
-4.110085	klan	-0.3009626
-3.933993	klassik	-0.4696592
-3.809054	klima	-0.3962176
-4.110085	klux	-0.3009963
-3.566016	klè	-0.5832731
-4.110085	ko	-0.2720407
-3.809054	kochon	-0.2789753
-3.566016	koko	-0.4665276
-3.933993	kokozyé	-0.4659919
-3.331933	kolombo	-0.4613914
-3.933993	kolon	-0.4770033
-3.933993	kolonaj	-0.468251
-3.712144	kolonbi	-0.6885317
-3.933993	kolonbo	-0.4659919
-4.110085	koloni	-0.296575
-3.933993	kolonyal	-0.4770707
-3.933993	kolyé	-0.448132
-3.206995	kom	-0.3100889
-3.712144	komantasyon	-0.4678896
-3.411114	komin	-0.3946066
-3.933993	komin-	-0.4696592
-3.933993	komin-lasa	-0.4714898
-4.110085	kominiké	-0.2720407
-4.110085	kominotaris	-0.2720407
-4.110085	komun	-0.2954156
-4.110085	komunoté	-0.2720407
-4.110085	komè-	-0.2720407
-2.398277	kon	-0.4571791
-3.809054	konba	-0.3609688
-4.110085	konbat	-0.3005072
-3.933993	konbyen	-0.298715
-4.110085	kondi	-0.3009626
-4.110085	kondisyon	-0.3009963
-4.110085	kondisyoné	-0.3009289
-4.110085	konet	-0.300912
-4.110085	konfimé	-0.2933106
-3.632963	konfyans	-0.3695196
-3.933993	kongné	-0.4765985
-3.712144	kongo	-0.262312
-3.933993	konkonm	-0.4763116
-4.110085	konkonsa	-0.3002203
-3.933993	konmansman	-0.4659919
-3.933993	konmès	-0.466683
-3.933993	konngo	-0.4770707
-3.456872	konnèt	-0.3275974
-4.110085	konolyalis	-0.2990707
-4.110085	konplètman	-0.3003216
-3.933993	konplé	-0.4726662
-3.933993	konpran	-0.4768009
-3.632963	konprann	-0.307136
-3.933993	konpwann	-0.477037
-3.712144	konpwanndi	-0.4661302
-3.456872	konpè	-0.4571007
-4.110085	konpétiti-	-0.2720407
-3.933993	konpétivité	-0.2935336
-3.132361	konsa	-0.3978186
-3.632963	konsi	-0.4103554
-3.933993	konsidiré	-0.4629903
-3.933993	konsidérasyon	-0.4748402
-3.632963	konsidéré	-0.4062482
-3.809054	konsomasyon	-0.2821551
-3.411114	konsomé	-0.2878849
-3.809054	konsomé-y	-0.3570425
-3.933993	konstaté	-0.3008951
-3.933993	konstitisyon	-0.4768347
-4.110085	konstrui	-0.3009963
-3.933993	konstwi	-0.4768853
-3.933993	konsui	-0.4715069
-3.933993	konsyans	-0.466683
-3.712144	konsèvé	-0.3553579
-4.110085	konsèvé-y	-0.3009794
-4.110085	konsèvéé	-0.2720407
-3.933993	konséyé’y	-0.4767335
-3.030903	kont	-0.4343467
-4.110085	konti	-0.2720407
-3.809054	kontinan	-0.3978557
-4.110085	kontinyé	-0.3003891
-3.933993	kontribann	-0.448132
-4.110085	kontrolé	-0.2720407
-4.110085	kontrèman	-0.3002878
-3.712144	kontré	-0.4765479
-3.933993	kontèdmanti	-0.468251
-3.933993	kontèl	-0.4770707
-3.369722	konté	-0.4215817
-3.933993	konvwa	-0.4659919
-3.933993	konvwa-la	-0.4653344
-3.411114	konwa	-0.2746743
-3.933993	konyenla	-0.4629903
-4.110085	konyè	-0.2935679
-4.110085	konyé	-0.2844898
-3.933993	konèt	-0.3002878
-3.933993	kostarika	-0.466683
-4.110085	kostim	-0.2720407
-3.933993	kosyè	-0.477037
-3.933993	koton	-0.466683
-3.933993	koton-la	-0.466683
-3.933993	kott-soulvan	-0.4653344
-3.235023	koté	-0.3783887
-3.933993	kotésit	-0.4766829
-3.456872	kou	-0.3719598
-3.933993	kouché	-0.4629903
-4.110085	koujèt	-0.2921597
-3.712144	koulè	-0.4767672
-3.632963	koulé	-0.5241182
-3.809054	koumansé	-0.3966235
-3.712144	koupé	-0.4769527
-4.110085	kouran	-0.2720407
-3.712144	kouri	-0.3608404
-3.632963	kout	-0.4091133
-3.712144	kouté	-0.4330084
-4.110085	kouw	-0.3009289
-3.933993	kouzen	-0.2849622
-3.809054	kouzin	-0.3961838
-3.933993	kouzyé	-0.466683
-3.566016	kra	-0.5729445
-3.933993	kraché	-0.4629903
-3.933993	kravat	-0.4770033
-3.933993	krenkwennè	-0.4763454
-3.933993	krentt	-0.4629903
-3.933993	kri	-0.4770707
-3.235023	krikett	-0.472982
-3.933993	kristòf	-0.4770707
-3.933993	kritik	-0.4754835
-2.996141	kriyé	-0.3546453
-3.712144	kriyé-mwen	-0.4769864
-4.110085	kriyé-y	-0.2720407
-4.110085	krèm	-0.3001021
-4.110085	krèp	-0.2970344
-3.933993	krèy	-0.4659919
-4.110085	kréyativé	-0.2899006
-3.712144	kréyé	-0.2789221
-3.632963	kréyòl	-0.4099884
-3.030903	kréòl	-0.4476255
-4.110085	ku	-0.3009963
-3.933993	kui	-0.4629903
-3.809054	kuit	-0.2847348
-3.235023	kuizin	-0.3453374
-3.933993	kuiziné	-0.2672764
-3.809054	kultur	-0.2618327
-3.411114	kwa	-0.4772912
-3.933993	kwen	-0.4659919
-3.712144	kwi	-0.6987002
-3.712144	kwi-la	-0.4666311
-3.297171	kwè	-0.5105752
-3.933993	kyakya	-0.4754835
-3.933993	kyolé	-0.4761427
-3.933993	kyonkyon	-0.476531
-3.933993	kyé	-0.477037
-2.739017	kè	-0.3444746
-3.933993	kèk	-0.4770707
-3.933993	kès	-0.2716442
-3.933993	kèsyon-lasa	-0.4653344
-2.038202	ké	-0.2801048
-4.110085	kéki	-0.2969494
-3.933993	késtyon	-0.296132
-3.456872	kò	-0.5513054
-3.809054	kòd	-0.376098
-3.933993	kòdé	-0.468251
-3.809054	kòk	-0.3577825
-3.933993	kòk-genm	-0.4629903
-3.566016	kòm	-0.2393097
-4.110085	kòman	-0.2868991
-4.110085	kòmè-	-0.2720407
-4.110085	kòmèsyal	-0.2905917
-4.110085	kòmèsé	-0.2939792
-3.933993	kòwòsòl	-0.4770707
-3.235023	k’ay	-0.460896
-4.110085	l	-0.3009963
-3.933993	l'agent	-0.4769021
-4.110085	l'air	-0.3009289
-4.110085	l'amener	-0.3004228
-3.933993	l'anmou	-0.4754496
-3.933993	l'année	-0.4770707
-3.712144	l'extérieur	-0.2676406
-4.110085	l'histoire	-0.3008108
-4.110085	l'historique	-0.3001359
-4.110085	l'homme	-0.3009626
-4.110085	l'inra	-0.2939792
-4.110085	l'état	-0.2994937
-1.76865	la	-0.4369378
-3.933993	labastiy	-0.4629903
-4.110085	labaz	-0.2720407
-3.456872	labitid	-0.4653343
-3.933993	labòn	-0.4770707
-3.933993	labòwdèlèz	-0.4605811
-3.712144	ladja	-0.4596697
-3.712144	ladominik	-0.3502445
-4.110085	ladézirad	-0.2720407
-4.110085	lafan	-0.2720407
-4.110085	lafanmi	-0.2905917
-3.809054	lafen	-0.3689147
-3.933993	lafimé	-0.4659919
-3.933993	laflimé	-0.4659919
-3.809054	lafrans	-0.2718244
-3.933993	lafrik	-0.4629903
-4.110085	laguadeloup	-0.2720407
-4.110085	lagwadloup	-0.3009457
-3.933993	lagwadloupéyèn	-0.4753312
-3.933993	lagé	-0.4769358
-4.110085	lagé-y	-0.3009794
-3.712144	laide	-0.476919
-4.110085	laise	-0.2991553
-4.110085	laissent	-0.3009794
-3.712144	laj	-0.4765985
-3.632963	lajan	-0.5075371
-3.933993	lajouné	-0.476666
-3.933993	lajòl	-0.2718244
-4.110085	lakanaval	-0.2921597
-3.933993	lakanpay	-0.4653344
-3.456872	lakat	-0.4181314
-4.110085	lakaz	-0.3001021
-4.110085	lakilti	-0.3009626
-3.933993	lakontantman	-0.448132
-3.933993	lakrent	-0.4709602
-3.933993	lalin	-0.4605811
-3.933993	lalit	-0.448132
-3.933993	lalitérati	-0.4754835
-3.933993	laliwonnaj	-0.4659919
-3.933993	laliwonnaj-lasa	-0.4768853
-3.933993	lalé	-0.4770707
-4.110085	lamen	-0.2720407
-3.632963	lanbi	-0.3145686
-3.933993	lanbéli	-0.448132
-4.110085	landémen	-0.2720407
-3.369722	lang	-0.4199038
-3.933993	langaj	-0.2946467
-3.566016	langoust	-0.2968711
-3.933993	langues	-0.2716802
-3.933993	lankan	-0.475382
-3.933993	lanm	-0.476396
-4.110085	lanmen	-0.2948689
-3.566016	lanmou	-0.44896
-3.411114	lanmè	-0.3501178
-4.110085	lanmèd	-0.2997304
-3.933993	lanmès	-0.477037
-3.712144	lanméri	-0.4729896
-3.933993	lanmérik	-0.4770707
-3.712144	lanmò	-0.4490139
-3.369722	lanné	-0.5247353
-3.933993	lanprèsman	-0.4770033
-3.933993	lansbètran	-0.4769021
-4.110085	lansrokèt	-0.2992907
-3.933993	lantiy	-0.4629903
-3.809054	lantman	-0.2924349
-3.712144	lantou	-0.476666
-3.933993	lantèman	-0.4696592
-4.110085	lanvironman	-0.2720407
-3.933993	lapansé	-0.3009288
-3.933993	laparizyèn	-0.4605811
-4.110085	laparèt	-0.3004397
-3.933993	lapenn	-0.4770707
-3.712144	lapenti	-0.4712165
-3.933993	laplas	-0.4659919
-3.369722	lapli	-0.5333707
-3.933993	laplipa	-0.3003384
-4.110085	lapolis	-0.2892431
-3.933993	laprizon	-0.2960468
-3.933993	lapèldéchanpyon	-0.448132
-3.809054	lari	-0.376098
-3.933993	larichès	-0.4709602
-3.933993	larÈl	-0.4659919
-3.712144	larèl	-0.6878406
-4.110085	larézistanlarezistan	-0.2921597
-3.508024	las	-0.4096222
-3.456872	lasa	-0.4500554
-4.110085	lasé	-0.3008951
-3.933993	latannyé	-0.448132
-3.933993	latannyé4madanm-la	-0.4653344
-4.110085	latravèsé	-0.3009963
-3.933993	lavalyè-la	-0.476531
-3.933993	lavan	-0.468251
-4.110085	lavantaj	-0.3008783
-3.264987	lavi	-0.4530059
-3.933993	lavwa	-0.448132
-4.110085	lavé	-0.2868991
-3.933993	lavéyé	-0.4653344
-3.369722	le	-0.3518116
-4.110085	lekstériyè	-0.2939792
-4.110085	lekszitwa	-0.2969494
-3.566016	len	-0.4649013
-3.933993	lenbé	-0.4629903
-3.933993	lend	-0.4653344
-3.809054	lendi	-0.5730707
-4.110085	lendistri	-0.2957399
-3.933993	lenflyans	-0.466683
-3.235023	lenj	-0.2771496
-4.110085	lenprézyon	-0.2970344
-4.110085	lenstan	-0.2935679
-4.110085	lentènèt	-0.2905917
-3.369722	les	-0.3850643
-4.110085	lesklavaj	-0.2720407
-3.933993	lespòtasyon	-0.2702534
-4.110085	lestomak	-0.2720407
-3.013174	li	-0.3104984
-3.933993	libanè-la	-0.4709602
-3.712144	libèté	-0.692809
-4.110085	libéré	-0.2720407
-4.110085	lidik	-0.3008614
-3.933993	lidé	-0.4770707
-3.933993	lidé-lasa	-0.476666
-4.110085	lil	-0.2935679
-3.456872	lilèt	-0.4522381
-3.933993	lilèt-la	-0.4605811
-3.712144	limenm	-0.4761258
-4.110085	limit	-0.2720407
-3.712144	lis	-0.4612633
-3.933993	lison	-0.4753312
-3.933993	lisé	-0.4700705
-3.809054	lité	-0.26724
-4.110085	livèr	-0.2939792
-3.933993	lizin	-0.277163
-3.933993	lizyè	-0.4769864
-3.933993	lo	-0.2986472
-3.712144	lodè	-0.4770201
-4.110085	lojé	-0.2982573
-3.933993	lokans	-0.4659919
-4.110085	lokasyon	-0.2996628
-3.566016	lokazyon	-0.47253
-3.566016	lontan	-0.294845
-3.933993	lopilans	-0.4763116
-3.933993	lot	-0.4758217
-4.110085	lou	-0.296575
-3.933993	louragan	-0.4709602
-3.712144	luil	-0.4769527
-3.933993	lwa	-0.4770707
-3.508024	lwen	-0.4767841
-4.110085	lwil	-0.3008951
-3.933993	lyanné	-0.4754496
-3.632963	là	-0.4253784
-2.196271	lè	-0.4994604
-3.933993	lèd	-0.448132
-3.933993	lèren	-0.4629903
-3.933993	lèsplikasyon	-0.4753312
-3.712144	lèspri	-0.6878406
-3.712144	lèstonmak	-0.4612283
-3.933993	lèstravay	-0.4752466
-3.933993	lèsé	-0.4770033
-3.456872	lèwvwè	-0.4581935
-2.996141	lé	-0.3589558
-4.110085	léana	-0.2720407
-4.110085	léfiji	-0.2720407
-3.933993	léhou	-0.4770707
-3.933993	lékilib	-0.4753312
-4.110085	lékomès	-0.3009963
-3.933993	lékouz	-0.4770707
-3.933993	lékòl	-0.2947493
-3.933993	lélanné	-0.4770707
-3.933993	lématématik	-0.4754835
-4.110085	lépok	-0.3003047
-3.566016	lépòk	-0.3643322
-4.110085	lérélasyon	-0.2985455
-3.933993	lésent	-0.477037
-3.933993	lésott	-0.4730406
-3.809054	lésé	-0.3901692
-4.110085	lésé-y	-0.3009963
-3.712144	léta	-0.6988857
-4.110085	lété	-0.2939792
-3.809054	lévolisyon	-0.2419243
-3.933993	lévwa	-0.4653344
-3.933993	lévwaz	-0.4770707
-3.180665	lévé	-0.4018175
-4.110085	lévé-y	-0.3008277
-4.110085	léwop	-0.2720407
-3.809054	léwoz	-0.287925
-3.933993	léwòz	-0.4629903
-3.933993	lézanmi	-0.476666
-3.369722	lézòt	-0.4740092
-3.632963	lò	-0.3360098
-3.933993	lòd	-0.4659919
-3.712144	lòdè-la	-0.4433677
-4.110085	lòganizasyon	-0.2970344
-3.110085	lòt	-0.4250915
-2.979751	lòt-la	-0.509251
-3.566016	m	-0.5729446
-3.712144	ma	-0.2715179
-3.235023	macaque	-0.7451965
-3.933993	machann	-0.4770707
-3.933993	maché	-0.477037
-3.508024	madanm	-0.4246966
-3.933993	madanm-la	-0.4653344
-3.933993	madi	-0.2913333
-3.712144	madras	-0.4666311
-3.933993	madè	-0.3007096
-3.933993	mafi	-0.4770033
-3.712144	magré	-0.4764804
-3.566016	main	-0.4764298
-3.712144	mais	-0.3007603
-3.933993	maison	-0.2717343
-3.809054	maji	-0.3961161
-3.712144	mak	-0.4767503
-3.933993	makak	-0.4763454
-3.712144	maké	-0.4611934
-3.933993	maké’w	-0.4730406
-3.809054	mal	-0.2914712
-3.933993	malad	-0.477037
-3.933993	maladi	-0.4770707
-4.110085	malcom	-0.3009963
-3.933993	malè	-0.4653344
-4.110085	malélivé	-0.3006422
-3.206995	maléré	-0.5413293
-3.632963	man	-0.5335434
-3.809054	manch	-0.3867242
-3.331933	mandé	-0.4330882
-3.933993	mandé-i	-0.4770201
-3.933993	mandé-mwen	-0.4769696
-3.933993	mandé-nou	-0.4768009
-4.110085	mandé-w	-0.2960979
-3.712144	mandé’y	-0.4767166
-3.933993	manfou	-0.4629903
-3.933993	mangn	-0.4770707
-3.933993	mangnòk	-0.4770707
-2.798331	manjé	-0.3087409
-3.712144	manjé-y	-0.3329098
-3.712144	manké	-0.4731086
-3.155842	manman	-0.6149855
-3.809054	manman-y	-0.2900562
-3.933993	manmbo	-0.4770707
-3.933993	manni	-0.4763285
-4.110085	manno	-0.3006422
-3.456872	mannyè	-0.307498
-3.712144	mannyòk	-0.2680044
-3.933993	mansousyan	-0.4770707
-4.110085	mantal	-0.3001021
-3.933993	manti	-0.4709602
-3.809054	manyòk	-0.2526807
-3.456872	manzè	-0.6985653
-3.632963	mardi	-0.7780333
-3.933993	mardigras	-0.4730406
-3.933993	mari	-0.4709602
-4.110085	marie-	-0.2720407
-3.809054	marie-galantais	-0.2716622
-4.110085	marie-galantaise	-0.3009794
-3.297171	marie-galante	-0.2544365
-4.110085	marie-galantè	-0.2921597
-3.712144	marigalant	-0.4664585
-3.566016	marigalantè	-0.2931682
-4.110085	marigalentèz	-0.3009794
-3.933993	marinad	-0.466683
-4.110085	maron	-0.2892431
-4.110085	martin	-0.3009963
-3.235023	maré	-0.5016919
-4.110085	masalé	-0.2720407
-3.933993	mask	-0.2601325
-4.110085	maské	-0.2957399
-4.110085	maskéw	-0.3004397
-3.933993	maso	-0.4659919
-3.933993	maten	-0.448132
-4.110085	matinik	-0.3008951
-4.110085	matinikgwadloup	-0.3008951
-4.110085	matiné	-0.2720407
-4.110085	matière	-0.3001359
-3.933993	matnik	-0.4769696
-4.110085	matriyarkal	-0.2921597
-3.933993	matyè	-0.3009625
-3.712144	matété	-0.4552793
-3.933993	mawon	-0.4765985
-3.933993	may	-0.4659919
-3.712144	mayé	-0.4578942
-3.933993	mayémen	-0.466683
-3.712144	mayòk	-0.291454
-4.110085	mayòri	-0.2720407
-4.110085	me	-0.3009963
-3.933993	mem	-0.2936536
-3.933993	memm	-0.477037
-3.933993	memsi	-0.2844723
-2.748357	men	-0.4555845
-4.110085	mendé	-0.2969494
-2.809054	menm	-0.4398329
-3.933993	menmditan	-0.4763622
-3.933993	menmjan	-0.4709602
-3.933993	menndé	-0.2720047
-4.110085	menndéséou	-0.2844898
-3.933993	mens	-0.4767166
-4.110085	mentalité	-0.2935679
-4.110085	mesaj	-0.2720407
-3.297171	mesmin	-0.6007435
-3.369722	mesure	-0.7738835
-4.110085	metropol	-0.2960979
-3.712144	metter	-0.698481
-3.712144	mhm	-0.6699807
-3.456872	mi	-0.4019032
-3.369722	michel	-0.4462543
-3.933993	michelin	-0.4696592
-3.566016	midi	-0.2834908
-3.933993	mign	-0.4629903
-3.933993	mil	-0.4769696
-3.712144	milat	-0.4619619
-3.369722	milflè	-0.6295143
-4.110085	milyé	-0.2720407
-3.933993	minit	-0.2710487
-3.933993	miss	-0.448132
-3.297171	missié	-1.113724
-3.933993	misyé	-0.4709602
-4.110085	mit	-0.3007265
-3.933993	mitan	-0.477037
-3.933993	mizi-anmizi	-0.4768009
-3.456872	mizik	-0.3023929
-3.456872	mizè	-0.5347052
-3.933993	mizé	-0.4770707
-3.933993	mizérab	-0.4763454
-4.110085	mizéreu	-0.2720407
-3.809054	mo	-0.5909306
-3.933993	moderne	-0.4765141
-4.110085	modernisme	-0.2905917
-4.110085	modes	-0.3001359
-4.110085	modènité	-0.2960979
-3.712144	mofwazé	-0.4761596
-3.566016	moin	-0.6008955
-3.933993	moins	-0.2720047
-3.809054	moli	-0.2588158
-4.110085	molière	-0.3008446
-3.456872	moman	-0.3562537
-3.933993	moman-la	-0.468251
-3.933993	moman-lasa	-0.477037
-4.110085	mon	-0.3009963
-3.566016	monchè	-0.4626246
-4.110085	mond	-0.2935679
-4.110085	moniman	-0.3003722
-3.712144	monpti	-0.4769527
-3.933993	monsérat	-0.4766997
-3.809054	montré	-0.3959468
-4.110085	montserrat	-0.2948689
-3.933993	monté	-0.477037
-4.110085	moralité	-0.3008277
-3.331933	mori	-0.3169825
-4.110085	morue	-0.2994937
-3.933993	moso	-0.4767503
-4.110085	motivé	-0.2974764
-3.712144	mouchwè	-0.4769527
-2.280781	moun	-0.4235508
-3.933993	moun-bitasyon	-0.477037
-3.933993	moun-bitasyon-la	-0.476244
-3.933993	moun-dèwò	-0.448132
-3.933993	moun-la	-0.4653344
-4.110085	mounfanm	-0.2969494
-3.933993	mounla	-0.4769864
-4.110085	mounsé	-0.2999839
-4.110085	mounté	-0.2969494
-3.809054	mouvman	-0.3955742
-3.809054	mové	-0.3974679
-3.933993	movétan	-0.448132
-4.110085	musique	-0.3008446
-3.508024	mwa	-0.3604025
-3.809054	mwayen	-0.388364
-2.088895	mwen	-0.2864067
-4.110085	mwenmem	-0.2974764
-3.933993	mwenmenm	-0.4629903
-3.712144	myé	-0.4330084
-2.59157	mè	-0.3169185
-4.110085	mèg	-0.2939792
-3.933993	mèkrédi	-0.2693842
-3.933993	mèksik	-0.4770707
-2.787865	mèm	-0.3344762
-3.933993	mèmsi	-0.2967792
-3.933993	mènasé-y	-0.476531
-4.110085	mèné	-0.2954156
-4.110085	mèr-	-0.2720407
-4.110085	mère	-0.3008108
-3.566016	mès	-0.5825334
-3.933993	mèsi	-0.4770033
-2.996141	mèt	-0.320884
-3.933993	mèt-a-mangnòk	-0.448132
-3.933993	mèt-gason	-0.4659919
-3.933993	mèwè	-0.4770707
-3.933993	mèyè	-0.4770707
-3.132361	mé	-0.4126336
-3.933993	méchansté	-0.448132
-3.933993	méchè	-0.448132
-3.809054	médikaman	-0.2989352
-4.110085	mékontantman	-0.3008783
-3.712144	mékrédi	-0.2705609
-3.632963	mélanj	-0.3133171
-4.110085	mélanjé	-0.300912
-3.456872	mélon	-0.4218796
-3.809054	mélé	-0.3887084
-3.933993	ménage	-0.4770707
-3.411114	méné	-0.3522948
-4.110085	méné-y	-0.3009626
-3.933993	méprizé	-0.4770707
-3.933993	mérendyen	-0.4709602
-3.933993	mérité	-0.3004903
-3.712144	mésyé	-0.3206059
-4.110085	mét	-0.3009289
-3.933993	métier	-0.4770707
-3.264987	mété	-0.280369
-4.110085	mété-y	-0.2957399
-4.110085	mévèy	-0.3009963
-3.933993	méyiken	-0.4653344
-3.933993	méyiken-la	-0.4770033
-3.933993	méyè	-0.448132
-3.933993	mézanmi	-0.4768684
-3.933993	même	-0.2944414
-3.632963	mò	-0.4017276
-3.566016	mò-la	-0.8161088
-4.110085	mòd	-0.2720407
-3.933993	mòlòkòy	-0.4605811
-3.566016	mòso	-0.4654903
-3.933993	n'homme	-0.4769021
-3.712144	nanbouk	-0.4739243
-4.110085	nanpèch	-0.2970344
-4.110085	nap	-0.3009289
-3.809054	nasyon	-0.3834956
-4.110085	natif	-0.2720407
-4.110085	nature	-0.3009963
-4.110085	natyon	-0.2921597
-3.933993	naté	-0.4715069
-3.712144	ne	-0.3659667
-4.110085	neg	-0.2720407
-3.632963	nenpòt	-0.419517
-4.110085	neskzitwa	-0.3009794
-2.029097	ni	-0.3503591
-4.110085	niau	-0.3009289
-3.933993	nich	-0.4659919
-3.933993	nikaragwa	-0.4770707
-4.110085	nini	-0.3005072
-3.712144	nirmal	-0.4770201
-3.933993	nitali	-0.477037
-4.110085	nitout	-0.2960979
-4.110085	nitrisyonèl	-0.2899006
-4.110085	nité	-0.2969494
-3.632963	niveau	-0.3221651
-3.264987	nivo	-0.4238872
-4.110085	niyès	-0.2899006
-4.110085	no	-0.2720407
-3.933993	nobèl	-0.4754835
-3.712144	nom	-0.2480599
-3.013174	non	-0.4362086
-3.235023	nonm	-0.6310691
-3.933993	nonm-konsa-pou-yé-lasa	-0.4700705
-3.566016	nonm-la	-0.4531296
-3.933993	nonm-obou-	-0.4769696
-4.110085	nord	-0.2868991
-4.110085	normalement	-0.2933106
-3.712144	notab	-0.3411799
-3.712144	notamman	-0.278585
-1.754059	nou	-0.4713397
-4.110085	nou-y	-0.2957399
-4.110085	nouri	-0.2720407
-4.110085	nous	-0.3001359
-4.110085	nous-mêmes	-0.2905917
-3.712144	noutout	-0.4648145
-3.933993	nouveaux	-0.477037
-3.809054	nouvo	-0.2945783
-4.110085	nouvèl	-0.300794
-3.264987	nowèl	-0.2699294
-4.110085	nuit	-0.2985455
-4.110085	nwa	-0.2921597
-3.206995	nwè	-0.4580167
-3.933993	nwè-la	-0.4709602
-3.933993	nwèl	-0.468251
-3.809054	nyès	-0.3810495
-3.933993	nÈg	-0.4767672
-3.809054	nèf	-0.396877
-2.424343	nèg	-0.6269947
-3.933993	nèy	-0.4629903
-3.566016	né	-0.4748572
-4.110085	négosyé	-0.2921597
-3.933993	négro	-0.4770707
-4.110085	nésans	-0.2720407
-4.110085	nésésè	-0.2974764
-3.933993	nétwayé	-0.477037
-3.566016	nò	-0.5836952
-4.110085	nòmal	-0.3009963
-3.712144	nòmalman	-0.3540026
-4.110085	nòwmal	-0.2720407
-2.767662	o	-0.4651569
-3.933993	obama	-0.3004903
-3.088895	oben	-0.5002909
-3.933993	oblijé	-0.3004735
-3.933993	oblijé’y	-0.4767335
-3.712144	obliyé	-0.4480779
-3.933993	occasion	-0.4766997
-4.110085	ogmanté	-0.2933106
-3.933993	oh	-0.4769696
-4.110085	okin	-0.3006085
-3.712144	okontrè	-0.36688
-3.933993	oké	-0.2715179
-3.088895	ola	-0.5219931
-4.110085	olala	-0.2720407
-3.809054	olyé	-0.5967699
-4.110085	omwen	-0.2957399
-1.891286	on	-0.4455472
-4.110085	oncle	-0.296575
-3.933993	ondiras	-0.4770707
-4.110085	onivo	-0.3009289
-3.456872	onlo	-0.4656113
-3.933993	onon	-0.2998994
-4.110085	onoré	-0.2844898
-3.712144	onsèl	-0.4770201
-4.110085	ont	-0.3009289
-4.110085	onzè	-0.2720407
-4.110085	onèt	-0.3009963
-4.110085	oo	-0.2720407
-3.933993	opipirit-chantan	-0.4754835
-3.933993	opwal	-0.4767335
-4.110085	orgies	-0.3009457
-2.50263	osi	-0.3061482
-3.712144	oswè	-0.6915079
-3.809054	ot	-0.3928886
-3.632963	otan	-0.3939784
-3.933993	otila	-0.4629903
-3.933993	otomatikman	-0.2625514
-4.110085	otonòm	-0.2720407
-1.91696	ou	-0.5467236
-3.566016	oubliyé	-0.3778313
-4.110085	oubliyé-y	-0.2720407
-4.110085	oublié	-0.2960979
-3.331933	oubyen	-0.3408341
-4.110085	ouverture	-0.3009963
-3.369722	owa	-0.3813383
-3.369722	où	-0.2774878
-3.456872	p'on	-0.4762271
-1.889976	pa	-0.4910378
-3.933993	pa-asi	-0.4769527
-3.933993	pace	-0.4764129
-3.712144	padavwa	-0.4723255
-3.933993	pakoté	-0.477037
-3.809054	pakèt	-0.3978052
-3.712144	pal	-0.4748401
-4.110085	pala	-0.2720407
-4.110085	pale	-0.3002541
-2.831331	palé	-0.4435957
-4.110085	palé-w	-0.3001359
-4.110085	pan	-0.3009626
-3.933993	pandan	-0.2981386
-3.933993	pangné	-0.4653344
-4.110085	pani	-0.3008446
-3.566016	pann	-0.4625201
-3.933993	pannama	-0.4730406
-3.933993	pannan	-0.4768516
-3.712144	pannanma	-0.4602133
-3.933993	pannyé	-0.4768684
-3.933993	pannyòl	-0.4770707
-3.264987	pansé	-0.3393031
-3.712144	pantalon	-0.464242
-4.110085	panten	-0.3003722
-4.110085	pap	-0.2905917
-3.264987	papa	-0.618175
-3.809054	papa-y	-0.2843672
-3.933993	papay	-0.4770033
-3.933993	papa’y	-0.4653344
-4.110085	papi	-0.3009963
-3.933993	papiyòt	-0.4767672
-3.933993	papyé	-0.4659919
-3.933993	pap’an	-0.4735677
-3.411114	par	-0.3973497
-3.809054	paralèlman	-0.2871253
-3.933993	parapolo	-0.4754835
-3.456872	parapòt	-0.9431131
-3.712144	parce	-0.6988183
-3.809054	paris	-0.295518
-3.933993	paris8	-0.2718244
-4.110085	parisyen	-0.2970344
-4.110085	park	-0.2720407
-4.110085	part	-0.2933106
-3.632963	parèt	-0.4142857
-3.933993	parèy	-0.4715069
-3.049387	paré	-0.4108072
-3.068692	pas	-0.4172876
-4.110085	pasad	-0.2970344
-4.110085	pascal	-0.3008277
-4.110085	pasi	-0.3007097
-3.933993	paskal	-0.2718244
-3.712144	paskè	-0.2908333
-2.670752	paské	-0.3536937
-4.110085	pastèk	-0.3008446
-2.996141	pasé	-0.3769943
-3.933993	pasé’y	-0.4629903
-3.809054	pat	-0.3570425
-4.110085	pataj	-0.2953985
-4.110085	patajé	-0.3009289
-3.456872	patat	-0.5240585
-3.206995	pati	-0.3162926
-4.110085	patikilyè	-0.3002878
-3.933993	patikilyé	-0.2965409
-3.933993	patrimwan	-0.448132
-4.110085	pavané	-0.2990707
-3.933993	pawtikilyé	-0.4659919
-3.566016	pawòl	-0.5867435
-3.933993	pawòl-lasa	-0.4709602
-3.809054	pays	-0.2712473
-3.712144	ped	-0.4764635
-3.712144	pen	-0.2549728
-3.712144	pengné	-0.6919192
-4.110085	pensée	-0.3009963
-4.110085	personnellement	-0.2899006
-3.809054	petit	-0.2988167
-4.110085	petite	-0.3009963
-4.110085	peu	-0.2939792
-4.110085	peut	-0.3009963
-3.933993	peynier	-0.477037
-4.110085	photo	-0.2921597
-3.411114	pi	-0.3505879
-3.933993	pignon	-0.4765985
-3.933993	pik	-0.2934822
-3.933993	pikan	-0.4659919
-3.933993	piké	-0.4629903
-3.933993	pil	-0.4763285
-3.933993	pilipo	-0.4754835
-3.933993	pilo	-0.4748402
-3.933993	pip	-0.4754158
-3.933993	pipigné	-0.4721892
-3.933993	pisimyé	-0.4715069
-3.809054	pisin	-0.5945979
-3.933993	piskè	-0.4770707
-3.297171	piské	-0.2592057
-3.933993	pistach	-0.4726662
-3.933993	pistache	-0.4770707
-3.933993	pisyèt	-0.4767841
-3.933993	pit	-0.448132
-2.979751	piti	-0.3011835
-3.712144	piti-bannzil	-0.4768178
-3.369722	pitit	-0.765272
-3.933993	pitit-a-bondyé	-0.4763454
-4.110085	pito	-0.2954156
-3.809054	pla	-0.3606935
-3.933993	place	-0.477037
-4.110085	placées	-0.2990707
-3.933993	plaisi	-0.4766323
-3.809054	plan	-0.3903579
-3.809054	planté	-0.3977714
-3.456872	plas	-0.3170201
-3.712144	plat	-0.4657843
-4.110085	play	-0.3009963
-3.933993	plein	-0.477037
-3.566016	plen	-0.3872427
-4.110085	plent	-0.3009289
-2.777646	pli	-0.4698985
-4.110085	plibiten	-0.2935679
-3.712144	pliplis	-0.4766828
-2.948716	plis	-0.3324902
-3.933993	plisse	-0.4770707
-3.632963	plito	-0.421786
-3.933993	pliyé	-0.475382
-3.369722	plizyè	-0.4765647
-4.110085	plui	-0.2994937
-3.809054	plupart	-0.3974172
-3.712144	plus	-0.3617303
-3.933993	plutot	-0.4770707
-3.933993	pléré	-0.4766323
-3.933993	plési	-0.4629903
-3.632963	plézi	-0.4128464
-3.030903	po	-0.6072115
-3.933993	poban	-0.4709602
-3.933993	poblèm	-0.4659919
-3.933993	pointe	-0.4696592
-3.809054	poko	-0.3938083
-2.979751	polin	-0.7631682
-3.933993	polis	-0.3000007
-3.933993	polisyé	-0.2767354
-3.809054	politik	-0.3848872
-4.110085	politique	-0.3009963
-3.632963	pon	-0.3492911
-3.933993	ponch	-0.4769021
-3.933993	ponmlé	-0.4629903
-3.712144	ponmoun	-0.6933385
-3.712144	popilasyon	-0.3527651
-4.110085	populations	-0.3009963
-3.933993	posib	-0.2710487
-3.712144	posibilité	-0.3378872
-3.809054	possibilité	-0.3978557
-4.110085	potansyèl	-0.3003722
-3.566016	poté	-0.3380527
-2.029097	pou	-0.4010071
-3.933993	pou-i	-0.4770707
-3.933993	pou-y	-0.27085
-3.712144	pouki	-0.4433677
-3.632963	poukwa	-0.391194
-4.110085	poukwapremyé	-0.2997304
-3.933993	poul	-0.4768853
-4.110085	poulè	-0.3001021
-3.712144	poulèt	-0.4550843
-3.933993	poupé	-0.2717163
-3.411114	pour	-0.3975691
-3.933993	pousa	-0.4629903
-3.933993	pousuivasyon	-0.4770707
-3.712144	pousé	-0.474145
-3.809054	poutan	-0.2445809
-4.110085	poutourist	-0.2935679
-3.933993	pouvoir	-0.2711028
-4.110085	povrété	-0.2992399
-3.933993	pozisyonné	-0.4748402
-3.933993	pozé	-0.466683
-2.787865	pran	-0.3722039
-4.110085	pran-y	-0.3006422
-3.809054	pratikman	-0.2810625
-4.110085	premyè	-0.2969494
-4.110085	premyé	-0.3008446
-3.809054	pren	-0.3003216
-3.712144	pri	-0.3309505
-3.933993	pripri	-0.4770707
-4.110085	prizon	-0.2939792
-4.110085	prizé	-0.3009963
-4.110085	problèm	-0.2899006
-4.110085	producteur	-0.3001359
-2.647686	produi	-0.4008449
-3.933993	produit	-0.4762272
-3.712144	produits	-0.2697648
-3.809054	profité	-0.364587
-4.110085	promèt	-0.3006928
-4.110085	propozé-y	-0.2720407
-3.933993	proprement	-0.4770707
-4.110085	protéjé	-0.2933106
-3.369722	prèmyé	-0.423857
-3.933993	près	-0.4770707
-4.110085	prèsk	-0.2985455
-3.712144	prèstans	-0.4764466
-3.933993	prèstans-la	-0.4653344
-4.110085	pré	-0.2720407
-3.933993	préféré	-0.2998656
-3.933993	prémyé	-0.2994767
-3.456872	préparé	-0.3046606
-4.110085	préparé-y	-0.2982573
-3.933993	préparéw	-0.4730406
-4.110085	présidan	-0.3001021
-3.933993	présizé	-0.4767672
-4.110085	prété-y	-0.2957399
-3.933993	prévwa	-0.4730406
-3.809054	prézan	-0.3538272
-3.933993	prézans	-0.4659919
-4.110085	prézanté	-0.2982573
-3.809054	pròp	-0.3570425
-4.110085	psychologie	-0.3009963
-4.110085	puisans	-0.2720407
-3.933993	puissance	-0.2712834
-4.110085	punch	-0.2970344
-3.933993	pur	-0.4770707
-3.508024	pwa	-0.6241872
-3.933993	pwa-di-bwa	-0.448132
-3.180665	pwan	-0.4678037
-4.110085	pwason	-0.2899006
-3.933993	pwayé	-0.477037
-3.809054	pwen	-0.3687164
-3.933993	pwent	-0.4726662
-3.933993	pwenti	-0.4770707
-3.809054	pwèl	-0.3814524
-3.712144	pwès	-0.4768515
-3.712144	pwòp	-0.4642073
-3.933993	pyès-bannann	-0.4659919
-3.933993	pyès-bannann-la	-0.468251
-3.933993	pyès-fanm	-0.448132
-3.933993	pyèskann-la	-0.4726662
-3.566016	pyé	-0.4206722
-3.933993	pyé-la	-0.4694019
-3.933993	pyébwa	-0.448132
-3.933993	pyété	-0.4770707
-3.933993	pÉyi	-0.4768684
-3.712144	pè	-0.3388974
-3.206995	pèd	-0.5429543
-3.632963	pèmèt	-0.4069354
-3.508024	pèp	-0.3384611
-3.933993	pèsi	-0.4770201
-3.933993	pèsonèlman	-0.2667661
-3.933993	pèsouvwè	-0.4770201
-3.809054	pèsé	-0.397704
-3.933993	pèwsonaj	-0.4653344
-2.35421	pé	-0.4367732
-3.809054	péchè	-0.2734976
-3.933993	péché	-0.4770201
-3.933993	pélé-lanmou	-0.4659919
-3.933993	périod	-0.4770201
-4.110085	pétrol	-0.2969494
-3.110085	pétèt	-0.2664508
-4.110085	pétét	-0.2996628
-2.686839	péyi	-0.4943894
-3.933993	péyi-la	-0.4605811
-3.712144	péyi-lasa	-0.4679929
-4.110085	péyé	-0.3005916
-4.110085	péyé-y	-0.3008783
-3.809054	pò	-0.3852691
-4.110085	pòch	-0.2899006
-3.712144	pòm	-0.4722744
-4.110085	pòst	-0.2999163
-3.933993	pòt	-0.2601325
-3.933993	pòter	-0.4770707
-3.933993	pòtoriko	-0.4766829
-3.933993	pòtré	-0.4659919
-3.566016	pòté	-0.392189
-3.933993	pòté’y	-0.4770707
-3.933993	p’on	-0.4766323
-3.235023	qu'a	-0.4758385
-3.933993	qu'est	-0.4761934
-4.110085	qualité	-0.3008108
-3.456872	que	-0.3726663
-4.110085	quel	-0.3009963
-3.933993	quelle	-0.3009625
-3.297171	qui	-0.5719522
-3.933993	quoi	-0.4770201
-4.110085	rakonté-w	-0.2960979
-3.369722	rakoun	-0.458985
-3.933993	ranjé	-0.4770707
-3.933993	rankontré	-0.298393
-3.933993	ranmé	-0.477037
-3.013174	rann	-0.5362539
-3.933993	rann-li	-0.4715069
-3.933993	rann-mwen	-0.4770707
-4.110085	ranpli	-0.3009963
-3.132361	rantré	-0.4267492
-4.110085	rapidman	-0.2905917
-4.110085	raport	-0.3009457
-3.712144	rapport	-0.4764297
-3.632963	rapò	-0.5321773
-4.110085	rasazié	-0.3000176
-4.110085	rasist	-0.2844898
-3.933993	ratt	-0.4770033
-3.933993	ravin-la	-0.448132
-3.933993	rawman	-0.4700705
-4.110085	rebelòt	-0.3004566
-4.110085	recherche	-0.3004228
-4.110085	reconnaissance	-0.3006928
-4.110085	reconnu	-0.2969494
-3.933993	reine	-0.4770707
-4.110085	rekonséyé	-0.2933106
-3.456872	ren	-0.5483261
-3.933993	renne	-0.4769358
-4.110085	rentes	-0.3006253
-4.110085	reprann	-0.2905917
-4.110085	repren-y	-0.2720407
-4.110085	respiré	-0.3006253
-4.110085	responsab	-0.2720407
-4.110085	respè	-0.3002709
-4.110085	respékté	-0.3007265
-4.110085	retou	-0.2935679
-4.110085	retrouvé	-0.2933106
-4.110085	reviré	-0.3008108
-4.110085	reztan	-0.2899006
-3.933993	rhumes	-0.2719866
-3.049387	ri	-0.436616
-3.632963	rich	-0.4999553
-3.933993	richplèn	-0.4770707
-4.110085	richès	-0.3001021
-4.110085	rio	-0.3008277
-3.411114	ritm	-0.2962513
-3.933993	rityé	-0.4764466
-4.110085	rité	-0.2921597
-3.933993	river	-0.448132
-3.933993	rivyè	-0.4605811
-2.777646	rivé	-0.3853035
-3.933993	rivé-mwen	-0.4770707
-3.933993	rivé-yo	-0.4757541
-4.110085	ronkontré	-0.2939792
-4.110085	rosa	-0.3009963
-4.110085	rouj	-0.3009963
-3.933993	rousi	-0.2608725
-4.110085	rsa	-0.2987489
-3.933993	rythmes	-0.3001021
-3.369722	rèd	-0.3313705
-3.933993	rèlasyon	-0.4770707
-3.933993	rèligieuz	-0.2712473
-3.933993	rèlijyon	-0.4770707
-3.933993	rèmakab	-0.466683
-3.933993	rèpasé	-0.476666
-3.933993	rèpwoché’y	-0.4769696
-4.110085	rès-	-0.2720407
-4.110085	rèspè	-0.2720407
-3.933993	rèspèté’y	-0.4726662
-3.369722	rèsté	-0.2779679
-3.809054	rèviré	-0.2794892
-4.110085	réaji	-0.2720407
-3.933993	récho	-0.477037
-4.110085	réchèché	-0.3006928
-4.110085	rédistribiyé	-0.300912
-4.110085	réfléchi	-0.2720407
-3.809054	réflété	-0.3953708
-4.110085	référans	-0.2990707
-4.110085	réfòm	-0.3009963
-3.712144	réglé	-0.3531489
-4.110085	régléments	-0.3001359
-3.933993	réjyon	-0.4659919
-4.110085	rékoni	-0.3009794
-4.110085	rékonèt	-0.2933106
-3.933993	rékonésans	-0.3009457
-3.712144	rékòlté	-0.4629381
-3.933993	répité	-0.4769527
-3.933993	répondè	-0.4653344
-3.456872	réponn	-0.466959
-3.933993	réponne	-0.448132
-4.110085	répèrkité-y	-0.2953985
-3.712144	répété	-0.4762609
-4.110085	résaman	-0.2960979
-3.933993	résisté	-0.2719866
-4.110085	résous	-0.3009626
-3.933993	résté	-0.2848748
-3.566016	résèt	-0.2988505
-4.110085	résèvé	-0.3009794
-3.933993	rétouné	-0.448132
-4.110085	rétèni	-0.2720407
-3.049387	rété	-0.4671498
-4.110085	révandiké	-0.2720407
-3.933993	réviré	-0.2719866
-4.110085	révolisyion	-0.2987489
-4.110085	révolisyon	-0.300912
-4.110085	réyinyon	-0.3009963
-3.632963	réyisi	-0.2758791
-3.933993	rézilta	-0.2984777
-4.110085	rézisté	-0.3009963
-3.712144	rézon	-0.2482122
-3.712144	s	-0.3492427
-1.947221	sa	-0.4315411
-3.933993	sab	-0.4653344
-3.933993	sajès	-0.4653344
-3.933993	sak	-0.2867772
-4.110085	saksofòn	-0.2948689
-4.110085	sal	-0.3009963
-3.933993	salvadò	-0.4770707
-4.110085	salé	-0.2905917
-3.933993	salézon	-0.289866
-4.110085	sam	-0.2868991
-3.369722	samdi	-0.3542848
-2.729873	san	-0.4223209
-3.933993	san-	-0.4696592
-3.933993	san-la	-0.4629903
-3.933993	sanblaj	-0.4770707
-3.933993	sanblanni	-0.4730406
-3.508024	sanblé	-0.4314589
-3.933993	sanglé	-0.4730406
-2.879636	sanm	-0.5462246
-3.712144	sann	-0.4490139
-3.632963	sans	-0.4153232
-3.712144	sans-	-0.6915079
-3.933993	sans-lasa	-0.4768684
-3.933993	sanséman	-0.4700705
-3.566016	santi	-0.4686637
-4.110085	santiw	-0.3004397
-3.933993	santralkarayib	-0.4605811
-4.110085	santé	-0.3003385
-3.933993	sapoti	-0.4770707
-4.110085	sasa	-0.2948689
-2.703544	sav	-0.4093617
-3.933993	savann	-0.4769696
-3.933993	save	-0.4769021
-3.712144	savoir	-0.3672178
-3.264987	savé	-0.5310981
-4.110085	scientifiquement	-0.3009963
-4.110085	scolaire	-0.3008108
-3.809054	se	-0.3922915
-3.933993	sek	-0.4769358
-4.110085	sela	-0.2720407
-3.933993	senbat	-0.4730406
-4.110085	senbioz	-0.2993583
-3.712144	sendomeng	-0.6885317
-3.632963	senk	-0.3369359
-3.933993	senkan	-0.476666
-3.809054	senkant	-0.3687525
-3.933993	senkè	-0.2644989
-3.933993	senmawten	-0.4770707
-3.933993	senné	-0.475382
-3.566016	senp	-0.378096
-4.110085	sent	-0.3000176
-3.933993	sentann	-0.4754496
-3.508024	senten	-0.3241957
-3.712144	senti	-0.6988857
-4.110085	sentimantal	-0.2953985
-3.933993	sentkwa	-0.4770707
-4.110085	sentèn	-0.3009794
-3.933993	sept	-0.4770707
-4.110085	sesi	-0.3009289
-3.933993	sexuelle	-0.4764129
-4.110085	sexuelles	-0.3003385
-2.385808	si	-0.4880128
-4.110085	sibi	-0.2954156
-3.933993	sicrée	-0.4770707
-3.712144	sid	-0.4765647
-4.110085	sifi	-0.2970344
-4.110085	signification	-0.3009963
-4.110085	sijè	-0.2868991
-3.933993	sik	-0.4659919
-3.933993	sikdòj	-0.466683
-3.566016	siklòn	-0.4658536
-3.933993	siklòn-la	-0.4721892
-4.110085	sikré	-0.2720407
-3.566016	sila	-0.4423648
-3.933993	silon	-0.4770707
-4.110085	similak	-0.2994937
-3.933993	simplement	-0.3006591
-4.110085	simulacres	-0.2720407
-3.933993	simé	-0.2969153
-3.809054	sin	-0.2667297
-3.933993	sino	-0.4770707
-3.933993	sipoté	-0.4770707
-4.110085	siprimé-y	-0.2994937
-3.933993	sipé	-0.477037
-3.712144	siren	-0.6699807
-3.933993	siriyen-la	-0.4767672
-4.110085	sis	-0.3008951
-4.110085	sisi	-0.3008614
-3.933993	sispann	-0.4768347
-3.632963	sistèm	-0.3889424
-4.110085	sistématikman	-0.300912
-3.712144	sisé	-0.4729556
-4.110085	sitiyasyon	-0.3008614
-3.809054	sitou	-0.2862893
-4.110085	situation	-0.3008446
-4.110085	sitwayen	-0.2720407
-4.110085	sityasyon	-0.2720407
-3.933993	sitèlman	-0.4769358
-3.933993	siv	-0.4770707
-3.712144	sivil	-0.4552793
-3.933993	sivilizasyon	-0.4770707
-3.933993	siwvwè	-0.4715069
-3.933993	sizer	-0.4769358
-3.712144	sizè	-0.3277269
-4.110085	ski	-0.2868991
-4.110085	sklérozé	-0.3008108
-4.110085	skérosé	-0.2994937
-4.110085	société	-0.3009963
-4.110085	sodòm	-0.2905917
-4.110085	sof	-0.3009963
-3.933993	soirées	-0.3001865
-4.110085	sojé	-0.2960979
-3.933993	sol	-0.2822431
-3.933993	solid	-0.4769696
-4.110085	solida	-0.2720407
-3.933993	solidarité	-0.2963365
-4.110085	solisyon	-0.3008277
-3.933993	solisyonné	-0.4770707
-4.110085	solution	-0.2939792
-3.456872	solèy	-0.3560993
-3.566016	son	-0.3804008
-3.297171	sonjé	-0.2409516
-3.933993	sonmèy	-0.4629903
-3.933993	sonné	-0.4767166
-4.110085	sorte	-0.3001359
-4.110085	sos	-0.2905917
-4.110085	sosolida	-0.2720407
-4.110085	sosyal	-0.300912
-3.712144	sosyété	-0.4692132
-3.566016	sosyété-la	-0.5914662
-3.809054	sou	-0.3886223
-3.933993	soubarou	-0.4769696
-3.933993	soubarou-la	-0.4726662
-3.933993	souch	-0.4629903
-3.933993	souf	-0.448132
-3.712144	soufwans	-0.6699807
-3.933993	soukwé	-0.4762272
-3.933993	soulajman	-0.448132
-4.110085	soulyé	-0.2720407
-3.933993	sounon	-0.4770707
-3.566016	soup	-0.4638252
-3.933993	soupen	-0.4754158
-3.712144	sous	-0.3520664
-3.809054	soutou	-0.2990029
-3.933993	soutyenn	-0.477037
-3.712144	souvan	-0.3515241
-3.933993	souvantfwa	-0.4766829
-4.110085	souveni	-0.2970344
-4.110085	souvéni	-0.2899006
-3.933993	souè	-0.4726662
-4.110085	sponsorizé	-0.2939792
-3.933993	sport	-0.3008783
-4.110085	sportif	-0.3003216
-3.933993	sportifs	-0.271572
-4.110085	spèktak	-0.2933106
-4.110085	spécifique	-0.2970344
-4.110085	ss	-0.2990707
-4.110085	station	-0.2933106
-4.110085	stratéjik	-0.3003216
-4.110085	string	-0.3009963
-3.933993	subsisté	-0.466683
-4.110085	sucre	-0.3009963
-4.110085	suit	-0.2957399
-3.712144	suiv	-0.4768009
-3.809054	sujet	-0.3972822
-3.933993	surtout	-0.4769358
-3.331933	swa	-0.3885522
-4.110085	swaré	-0.2720407
-4.110085	swasant	-0.3009963
-4.110085	swèf	-0.2985455
-3.933993	swé	-0.4605811
-3.933993	syal	-0.2717884
-4.110085	syans	-0.3006591
-3.809054	syantifik	-0.3774428
-3.712144	syèk	-0.4678896
-3.933993	syèl	-0.4605811
-3.712144	syèl-la	-0.6699807
-3.712144	sÉ	-0.4770201
-3.566016	sè	-0.2962173
-3.712144	sèk	-0.4369638
-3.933993	sèksyon	-0.4770707
-2.996141	sèl	-0.4047997
-4.110085	sèlman	-0.296575
-4.110085	sèn	-0.2905917
-3.933993	sèt	-0.4769527
-3.933993	sètadi	-0.2969834
-3.933993	sèten	-0.468251
-4.110085	sètèn	-0.3009963
-3.712144	sèvi	-0.4658535
-3.933993	sèvi-yo	-0.4770707
-3.933993	sèwkèy	-0.4766323
-3.933993	sèy	-0.4629903
-4.110085	sèz	-0.2939792
-1.694277	sé	-0.3674407
-3.933993	sé'y	-0.4605811
-3.933993	sé-y	-0.4709602
-3.933993	séchress	-0.4605811
-3.809054	séché	-0.2660178
-4.110085	sél	-0.3006253
-3.566016	séla	-0.4689214
-3.712144	séparé	-0.4765479
-3.933993	sériz	-0.2710848
-3.933993	séré	-0.448132
-3.933993	sérémoni	-0.477037
-3.933993	sérémoni-lasa	-0.4768009
-4.110085	sézon	-0.2720407
-4.110085	séé	-0.2720407
-3.933993	sòlèy-la	-0.475382
-3.632963	sòs	-0.3832341
-3.933993	sòt	-0.2945269
-3.030903	sòti	-0.4066168
-2.739017	t'ai	-0.6061944
-3.155842	ta	-0.4083315
-3.933993	ta-ou	-0.448132
-3.933993	ta-w	-0.4751958
-3.933993	tabak	-0.4769696
-3.933993	taktak	-0.448132
-3.456872	tala	-0.4362793
-4.110085	talè	-0.2899006
-3.933993	tamprissouplé	-0.448132
-2.933993	tan	-0.3876635
-3.933993	tan-lasa	-0.4653344
-3.049387	tanbou	-0.3964003
-3.712144	tanboudibrèz	-0.6699807
-4.110085	tandis	-0.2970344
-3.566016	tann	-0.3488743
-3.933993	tann-yo	-0.4605811
-3.933993	tanngo	-0.4754835
-4.110085	tante	-0.3001021
-3.933993	tanté	-0.4739923
-4.110085	tap	-0.2992907
-3.933993	taza	-0.448132
-3.933993	taïna	-0.2863939
-3.933993	ta’y	-0.475382
-4.110085	tchou	-0.3009457
-4.110085	tchouyé	-0.2987489
-3.331933	temps	-0.3569999
-3.632963	ten	-0.382769
-3.933993	tenne	-0.4770201
-3.933993	terre	-0.4762272
-4.110085	territoriale	-0.2957399
-4.110085	théâtre	-0.2905917
-2.618723	ti	-0.4050509
-3.933993	ti-manman	-0.4770707
-3.933993	tibo	-0.4769358
-3.566016	tibou	-0.4537703
-3.180665	tibwen	-0.4375181
-3.712144	tifi	-0.4635819
-3.933993	tikrikett	-0.448132
-3.933993	tikrikèt	-0.4766997
-3.933993	tima	-0.466683
-3.933993	timafi	-0.448132
-2.647686	timoun	-0.5412192
-3.712144	timoun-la	-0.4652824
-2.933993	tini	-0.3390172
-4.110085	tinyé	-0.3002878
-3.933993	tipawol	-0.4605811
-3.933993	tipawòl	-0.4709602
-3.933993	tipla	-0.4770707
-3.933993	tipyébwa	-0.4770707
-3.456872	tit	-0.5513402
-3.933993	tit-lasa	-0.448132
-3.933993	tizonné-yo	-0.448132
-3.933993	tobago"	-0.4763454
-3.456872	tombé	-0.6573682
-4.110085	tonik	-0.2982573
-2.632963	tou	-0.5180625
-3.933993	tou-lasa	-0.4766997
-4.110085	touché	-0.3008614
-3.933993	touf	-0.4770707
-3.933993	toujis	-0.4770539
-2.695111	toujou	-0.3345918
-4.110085	toujours	-0.3009289
-3.933993	toulongalé	-0.4763791
-3.933993	touloulou	-0.4753312
-3.933993	toulédé	-0.4715069
-3.933993	touléjou	-0.4659919
-3.933993	toumblak	-0.4754835
-3.809054	touné	-0.3977714
-3.712144	toupannan	-0.694515
-4.110085	toupatou	-0.3005072
-3.712144	toupiti	-0.4764635
-3.933993	toupré	-0.4770707
-3.809054	tourist	-0.2457309
-3.933993	tous	-0.4769358
-3.712144	tousa	-0.4571714
-3.933993	tousèl	-0.4694019
-2.365791	tout	-0.3589871
-3.933993	toutalè	-0.2918672
-3.456872	toute	-0.4072369
-3.933993	toutes	-0.3004228
-3.933993	toutmoun	-0.4766323
-3.933993	toutt	-0.4743486
-3.712144	toutwèl	-0.4605286
-3.235023	touvé	-0.4688182
-3.933993	touvé'y	-0.4769696
-3.933993	traces	-0.4770707
-3.809054	tradisyon	-0.2600954
-3.933993	tralala	-0.4730406
-3.933993	tranblanntè	-0.466683
-4.110085	trankil	-0.2720407
-4.110085	trankilité	-0.2987489
-4.110085	trans	-0.2720407
-3.809054	transfòmasyon	-0.3623612
-3.809054	transfòmé	-0.2935336
-3.632963	transmèt	-0.2616667
-4.110085	trant	-0.300541
-3.508024	trapé	-0.4279266
-4.110085	travail	-0.3009457
-2.739017	travay	-0.3356598
-3.632963	travayè	-0.3963664
-4.110085	travo	-0.296575
-3.712144	travèsé	-0.3269311
-4.110085	tren	-0.2868991
-3.933993	trenné	-0.4770707
-3.933993	trent	-0.4770707
-4.110085	trente	-0.3009963
-3.933993	tribi	-0.466683
-3.933993	tribiché	-0.4629903
-4.110085	tribinal	-0.2720407
-3.933993	trimé	-0.475382
-3.809054	tro	-0.3975185
-4.110085	trodui	-0.3009626
-3.264987	trouvé	-0.3670152
-3.632963	trouvé-y	-0.2521152
-3.933993	trwa	-0.4769527
-2.996141	trè	-0.4323417
-3.712144	très	-0.2666385
-4.110085	trèzan	-0.3000514
-4.110085	tréné	-0.2720407
-3.566016	tu	-0.8449801
-4.110085	turbulenscene	-0.3009963
-4.110085	ture	-0.2905917
-4.110085	tué	-0.2935679
-3.206995	twa	-0.3927978
-3.933993	twazyèm	-0.468251
-3.933993	twazé	-0.4762272
-3.712144	two	-0.4762947
-3.933993	twonbòn	-0.4754835
-3.933993	twopikal	-0.4766491
-3.933993	twèl	-0.476666
-3.933993	twòp	-0.477037
-4.110085	tyen	-0.2974764
-3.068692	tè	-0.383016
-3.933993	tèks	-0.2693842
-4.110085	tèl	-0.3007602
-3.369722	tèlman	-0.3909017
-3.632963	tèm	-0.3229229
-4.110085	tèren	-0.3002034
-3.180665	tèt	-0.6711322
-3.933993	tèt-	-0.4762947
-1.572265	té	-0.5902751
-3.933993	tékla	-0.4770707
-4.110085	téknolojik	-0.2720407
-3.933993	télé	-0.2863939
-3.712144	témwen	-0.4759568
-4.110085	tépou	-0.3002034
-3.933993	térèz	-0.4770033
-4.110085	téré	-0.3009794
-3.712144	tété	-0.4769021
-3.508024	téyat	-0.388982
-3.933993	tòch	-0.4629903
-4.110085	ue	-0.300541
-3.933993	uit	-0.4761427
-3.933993	uitan	-0.4700705
-4.110085	ultra-marain	-0.2992907
-3.632963	un	-0.337773
-3.632963	une	-0.3519465
-3.933993	untel	-0.266383
-3.933993	vach	-0.4709602
-3.933993	valiwa	-0.4754835
-4.110085	valiz	-0.2921597
-4.110085	valorisé	-0.3001359
-3.933993	valorizé	-0.2667661
-3.632963	valè	-0.4194657
-3.411114	vann	-0.4454864
-3.933993	vanniy	-0.4629903
-3.566016	vansé	-0.5664812
-3.712144	vant	-0.464242
-3.933993	vaval	-0.448132
-4.110085	ven	-0.3009963
-3.933993	venn	-0.4659919
-3.933993	vennsenk	-0.4769358
-3.809054	veut	-0.6019589
-3.933993	veux	-0.4767503
-3.369722	vi	-0.6037056
-4.110085	vidé	-0.2868991
-3.933993	vie	-0.4770707
-2.720918	vin	-0.3238773
-3.456872	vine	-0.4603884
-2.979751	vini	-0.3165784
-3.933993	viré	-0.4770707
-3.712144	vis	-0.4756187
-3.712144	vit	-0.3477622
-3.632963	vitamin	-0.3214241
-3.933993	vitman-présé	-0.4770033
-3.933993	vité	-0.477037
-3.068692	viv	-0.4214839
-3.566016	vivasyon	-0.8339687
-3.933993	vivre	-0.2881161
-4.110085	vizavi	-0.2899006
-3.933993	vizit	-0.448132
-3.933993	vizou	-0.4743486
-3.933993	vièj	-0.468251
-2.670752	vlé	-0.5489356
-3.933993	voilà	-0.3008446
-3.566016	vois	-0.3600687
-3.933993	volkan	-0.4766491
-3.933993	volé	-0.4726662
-2.919753	vou	-0.4270166
-3.933993	voukoum	-0.448132
-3.933993	voumtak	-0.477037
-3.809054	vraiment	-0.3978557
-3.235023	vrè	-0.5362673
-3.369722	vrèman	-0.2438125
-3.809054	vré	-0.266912
-3.933993	vréman	-0.2894681
-2.996141	vwala	-0.2996657
-3.933993	vwayajé	-0.466683
-4.110085	vwazinaj	-0.2720407
-3.933993	vwazinaj-la	-0.4653344
-2.625785	vwè	-0.2868524
-4.110085	vwè'w	-0.2720407
-3.809054	vwè-y	-0.2568239
-4.110085	vwèkòm	-0.2939792
-4.110085	vwèvwè	-0.2868991
-3.264987	vyann	-0.3062182
-3.933993	vyolans	-0.4768347
-3.712144	vyé	-0.6973322
-3.933993	vyéfò	-0.448132
-3.933993	vyékò	-0.4769864
-3.712144	vè	-0.365611
-3.933993	vèrden	-0.4769527
-3.933993	vès	-0.4754158
-4.110085	vé	-0.3009794
-3.712144	véjétal	-0.475365
-3.933993	vénéré	-0.4770201
-3.566016	vénézyéla	-0.4621888
-3.933993	véyé	-0.4743486
-3.933993	vòlkan	-0.4659919
-4.110085	w	-0.3009794
-3.809054	wa	-0.3813648
-3.933993	wacha	-0.448132
-3.712144	wap	-0.446218
-3.933993	wari	-0.4754835
-3.235023	wi	-0.3873515
-3.566016	wikenn	-0.4687667
-3.933993	wokinwòlmwen	-0.477037
-4.110085	woma	-0.2720407
-3.933993	won	-0.4767672
-3.712144	wonm	-0.4747046
-3.933993	wop	-0.448132
-3.933993	woté	-0.4770033
-4.110085	wouj	-0.2868991
-3.933993	wouklé	-0.4730406
-3.933993	woulouanjé’y	-0.4726662
-3.712144	woulé	-0.6699807
-3.933993	wouparèt	-0.4770539
-3.933993	woupran	-0.4763285
-3.933993	woutouné	-0.476666
-4.110085	wouvin	-0.300794
-3.566016	wouvè	-0.4767504
-4.110085	woy	-0.2953985
-3.411114	wè	-0.4154398
-4.110085	wènon	-0.3006928
-3.933993	wòb-a-kò	-0.4770033
-3.933993	wòb-di-chanm	-0.4715069
-4.110085	wòch	-0.2933106
-4.110085	wòl	-0.2969494
-4.110085	wòz	-0.2720407
-4.110085	x	-0.3009963
-3.712144	y	-0.3365667
-4.110085	ya	-0.3006591
-3.566016	yen	-0.838937
-3.712144	yenki	-0.4716605
-1.793066	yo	-0.4418823
-3.933993	yo-menm	-0.4766829
-3.712144	yochak	-0.6871831
-2.948716	yonn	-0.5253258
-4.110085	yonou	-0.3000176
-3.712144	yotout	-0.4651611
-3.933993	youniti	-0.2931047
-3.264987	yè	-1.138666
-2.919753	yé	-0.3667545
-3.933993	z'abymes	-0.4696592
-3.712144	zabwiko	-0.4675797
-3.933993	zaffai	-0.4765141
-3.411114	zafè	-0.4052224
-3.712144	zan	-0.2628092
-3.809054	zanana	-0.2876644
-3.566016	zanmi	-0.385668
-4.110085	zannanan	-0.2933106
-3.933993	zanno	-0.448132
-4.110085	zansyen	-0.3008446
-3.933993	zansèt	-0.4770707
-3.712144	zantiy	-0.2613344
-3.933993	zantray	-0.4629903
-4.110085	zataché	-0.2899006
-3.369722	zeb	-0.5144117
-3.632963	zendyen	-0.4181293
-3.933993	zenk	-0.4629903
-4.110085	zil	-0.2720407
-3.933993	zil-	-0.4770707
-3.566016	ziyanm	-0.4302576
-3.933993	zié	-0.4659919
-4.110085	zoji	-0.2905917
-4.110085	zoranj	-0.2720407
-3.411114	zot	-0.3323365
-3.933993	zouté	-0.468251
-3.235023	zyé	-0.5521435
-3.712144	zèb	-0.4642073
-3.712144	zèl	-0.4612283
-3.712144	zéfé	-0.6878406
-4.110085	zéklav	-0.2939792
-3.933993	zéklè	-0.4629903
-4.110085	zépis	-0.2899006
-3.933993	zépon	-0.448132
-3.712144	zépòl	-0.464242
-4.110085	zéro	-0.2957399
-3.566016	zétazini	-0.3511326
-3.933993	zétwal	-0.4659919
-3.933993	zévan	-0.4766491
-3.933993	zòn	-0.3009625
-3.013174	zòt	-0.4842227
-3.933993	zòtout	-0.4751958
-3.933993	Ça	-0.4769864
-3.712144	Ès	-0.4676486
-3.933993	Èvè	-0.4715069
-3.180665	É	-0.4607737
-3.456872	Émil	-0.5475736
-2.854812	à	-0.4564739
-3.933993	à-i	-0.4726662
-3.155842	ça	-0.428795
-4.110085	è	-0.2720407
-3.566016	èché	-0.4712508
-3.809054	èmé	-0.2997811
-3.712144	ès	-0.4625548
-3.933993	èspès	-0.4770707
-3.933993	èstèbèkwè	-0.4768347
-3.933993	ètnik	-0.475382
-3.933993	ève-w	-0.267677
-2.415479	èvè	-0.3681011
-3.712144	èvè-i	-0.472547
-4.110085	èvè-w	-0.3009626
-3.508024	èvè-y	-0.2946168
-1.624363	é	-0.2715392
-4.110085	ében	-0.2987489
-3.933993	édikasyon	-0.2640588
-4.110085	édikatif	-0.2720407
-4.110085	édiké	-0.2939792
-4.110085	édé'w	-0.2994937
-4.110085	édé-y	-0.2994937
-3.933993	éfasé	-0.4770707
-3.712144	éfektiman	-0.2640404
-3.566016	éfektivman	-0.357024
-3.933993	éfèktivman	-0.4743486
-4.110085	éfèvèsans	-0.3001021
-4.110085	éfèvésans	-0.2720407
-3.933993	éféktivman	-0.2862544
-4.110085	égoistéman	-0.3005916
-4.110085	égzisté	-0.2720407
-3.933993	éi	-0.4770707
-4.110085	ékitab	-0.2905917
-3.933993	ékonomi	-0.2868642
-3.933993	ékonomik	-0.2822431
-4.110085	ékta	-0.2720407
-4.110085	ékzanp	-0.2720407
-4.110085	ékzisté	-0.2720407
-3.809054	élvé	-0.3872772
-4.110085	élwanyé	-0.2868991
-3.933993	émé	-0.4764804
-4.110085	éoubyen	-0.3008446
-3.013174	épi	-0.3454456
-3.933993	épis	-0.2822431
-3.933993	épok	-0.2910403
-3.712144	épé	-0.468165
-4.110085	éro	-0.2982573
-4.110085	érésman	-0.2921597
-3.933993	ésa	-0.4709602
-4.110085	éspès	-0.3003722
-3.566016	éséyé	-0.3374054
-3.933993	éta	-0.4746368
-4.110085	étalman	-0.3003722
-4.110085	étapes	-0.2899006
-3.933993	étazini	-0.2654511
-4.110085	étid	-0.3009794
-4.110085	étrangère	-0.3009963
-3.933993	étranj	-0.4769696
-4.110085	étud	-0.3006591
-3.933993	été	-0.2833679
-4.110085	étéroklit	-0.2720407
-4.110085	évakyé	-0.2720407
-3.933993	évidamman	-0.2882896
-4.110085	évité	-0.2970344
-3.933993	évoliyé	-0.4768684
-3.809054	évolyé	-0.2985116
-3.809054	évè	-0.2940991
-4.110085	éwopéyèn	-0.2720407
-3.566016	éé	-0.8161088
-3.632963	être	-0.424314
-3.933993	îles	-0.477037
-3.809054	ò	-0.2717524
-4.110085	òdinatè	-0.2720407
-3.809054	òganizé	-0.397451
-3.933993	òksèvasyon	-0.4753312
-3.933993	òktòb	-0.4770707
-3.933993	–	-0.4768347
-2.686839	‘w	-0.55111
-3.933993	‘y	-0.448132

\2-grams:
-0.1760913	"sézèv" o	-0.4481576
-0.1760913	"trinidad and	0
-1.176091	- </s>
-1.176091	- anman	0
-1.176091	- banglen	-0.30103
-1.176091	- disparèt	-0.4149733
-1.176091	- guy	0
-1.176091	- ja	-0.3999553
-1.176091	- sé	-0.4758514
-1.176091	- tanbou	-0.449969
-1.176091	- timoun	-0.465222
-1.176091	- tousa	-0.30103
-0.1760913	-aki tala	-0.39794
-0.1760913	-an sé	-0.4700906
-0.1760913	-ba zòt	-0.4244149
-0.1760913	-ou sé	-0.4700906
-0.1760913	-syèk dèyè	-0.4436975
-0.1760913	0 sid	-0.30103
-0.30103	18 è
-0.1760913	1853 é	-0.4723283
-0.1760913	1878 lasa	-0.39794
-0.30103	18h </s>
-0.30103	18h45 apéprè
-0.1760913	1920 andèwò	0.2218487
-0.1760913	1981 mwen	-0.4428581
-0.30103	2010 mwen
-0.1760913	28 i	-0.2818198
-0.1760913	4latannyé fanmi	-0.4515672
-0.30103	8 ou
-3.020983	<s> -	-0.447158
-3.322012	<s> 18h45
-1.688544	<s> a	-0.1374726
-3.322012	<s> aba
-2.091563	<s> adan	-0.04514397
-3.322012	<s> adaptés
-3.322012	<s> agrikiltè
-3.322012	<s> aktivité
-3.322012	<s> aktyèlman
-3.322012	<s> alentou
-3.020983	<s> aloss	-0.30103
-3.020983	<s> alosss	0
-3.322012	<s> alè
-2.322012	<s> alò	-0.01612
-3.020983	<s> alòs	-0.39794
-1.435522	<s> an	-0.1631397
-3.322012	<s> anba
-3.020983	<s> anbenn	0
-3.322012	<s> andidan
-3.322012	<s> anfen
-3.322012	<s> anfèt
-3.322012	<s> angrè
-3.020983	<s> anivèsè
-3.322012	<s> ankò
-2.623042	<s> anlo
-3.322012	<s> anlè
-3.322012	<s> anmèm
-3.322012	<s> anplis
-3.020983	<s> ansanm	-0.4515672
-3.322012	<s> ansomur
-3.322012	<s> ansuit
-3.322012	<s> ansémoman
-3.322012	<s> antré
-3.322012	<s> aprè
-3.322012	<s> aprèzan
-2.36777	<s> apré	-0.2710668
-2.543861	<s> asi	-0.3174205
-3.020983	<s> au
-3.322012	<s> aux
-2.719952	<s> avan
-3.322012	<s> awa
-3.322012	<s> ay
-3.322012	<s> ayè
-3.020983	<s> a’y	-0.4704907
-3.020983	<s> balan-la	0
-3.322012	<s> bandé
-2.719952	<s> bat	-0.6368221
-3.322012	<s> bato
-3.020983	<s> ben
-3.020983	<s> biten
-3.322012	<s> blan
-3.322012	<s> bo
-3.322012	<s> bokit
-2.36777	<s> bon	-0.1049677
-3.020983	<s> bondyé	0
-3.322012	<s> boukit
-3.322012	<s> bwa
-2.844891	<s> c'est	-0.1856366
-3.322012	<s> canada
-3.322012	<s> chak
-3.322012	<s> charles
-3.020983	<s> chat	-0.3679768
-3.322012	<s> chimen
-3.322012	<s> chivè
-3.020983	<s> chonjé	-0.3679768
-3.020983	<s> chèché
-3.322012	<s> conténances
-3.020983	<s> couter	0
-3.020983	<s> côté	0
-3.322012	<s> d'autre
-3.322012	<s> dako
-2.719952	<s> dans	-0.01703332
-3.322012	<s> daprè
-3.322012	<s> dapré
-3.020983	<s> davwa	-0.4393327
-2.719952	<s> de
-3.322012	<s> depi
-3.322012	<s> des
-3.322012	<s> despòtasyon
-3.322012	<s> difisil
-3.322012	<s> disparèt
-3.322012	<s> dlo
-2.844891	<s> donc
-1.844891	<s> donk	-0.006447756
-3.020983	<s> dot
-3.322012	<s> dou
-3.020983	<s> doubout	-0.3679768
-3.322012	<s> dè
-3.020983	<s> dègné	-0.3899711
-1.999793	<s> dé	-0.04917491
-3.322012	<s> dédu
-3.322012	<s> déja
-3.020983	<s> délè	0
-3.322012	<s> démontré
-2.719952	<s> dépi	-0.1219944
-3.322012	<s> dévlopman
-3.322012	<s> dézan
-3.322012	<s> e
-2.36777	<s> en	-0.003205143
-3.322012	<s> enki
-3.322012	<s> enpòtan
-3.322012	<s> enstriman
-3.322012	<s> entre
-3.322012	<s> entérésé
-3.322012	<s> eskè
-2.844891	<s> eské
-3.020983	<s> ess	0
-3.020983	<s> euh
-3.322012	<s> faire
-3.020983	<s> fanmi	-0.4515672
-2.844891	<s> farin	-0.154902
-3.322012	<s> finalman
-3.322012	<s> fini
-3.322012	<s> fiyè
-2.844891	<s> fo	-0.1686032
-3.322012	<s> foto
-3.020983	<s> fout	-0.30103
-3.020983	<s> fwè	-0.4336556
-2.844891	<s> fè
-2.719952	<s> fò	-0.1945746
-3.322012	<s> galante
-3.322012	<s> gato
-2.543861	<s> genbo	-0.3010301
-3.322012	<s> gran
-3.322012	<s> gras
-3.322012	<s> griy
-3.322012	<s> griyé
-2.844891	<s> gwadloup	-0.1962947
-2.543861	<s> ha	0
-3.020983	<s> henkenchyen	0
-1.890649	<s> hum	0.2108535
-3.322012	<s> humhum
-2.06674	<s> i	-0.03876956
-3.020983	<s> idantitÉ	0
-3.322012	<s> il
-3.322012	<s> imaj
-3.322012	<s> in
-3.322012	<s> indépendants
-3.322012	<s> inikman
-3.322012	<s> irresponsable
-3.322012	<s> istwa
-3.322012	<s> ja
-3.322012	<s> jaélia
-3.322012	<s> jis
-3.322012	<s> jiska
-3.020983	<s> jistan	0
-3.020983	<s> jodla	-0.1760913
-3.322012	<s> justement
-3.322012	<s> jwé
-3.322012	<s> jénéralman
-3.322012	<s> jénérasyon
-2.719952	<s> jòdijou	-0.1083395
-3.322012	<s> jòdla
-2.145921	<s> ka	-0.05880242
-3.020983	<s> kado
-3.322012	<s> kadré-y
-3.322012	<s> kalité
-3.322012	<s> kan
-3.322012	<s> kantil
-3.322012	<s> kasav
-3.322012	<s> kat
-3.322012	<s> kay
-3.322012	<s> kaz
-1.742229	<s> ki	-0.05529151
-3.020983	<s> kijan	-0.30103
-3.322012	<s> kilti
-3.020983	<s> kolombo
-3.020983	<s> kom
-3.322012	<s> komin
-2.175884	<s> kon	-0.1005709
-3.322012	<s> konbat
-3.322012	<s> konolyalis
-3.020983	<s> konpè	-0.39794
-3.322012	<s> konpétivité
-3.322012	<s> konsa
-3.020983	<s> kont
-3.322012	<s> kontrèman
-3.322012	<s> konté
-3.020983	<s> konvwa-la	0
-3.322012	<s> kouri
-2.543861	<s> krikett	-0.3222193
-3.020983	<s> kréòl	-0.4057654
-3.322012	<s> kuit
-3.020983	<s> kuizin
-3.322012	<s> kultur
-3.322012	<s> kwa
-2.844891	<s> kè
-2.117893	<s> ké	-0.07499675
-3.020983	<s> kòk	-0.2552725
-3.322012	<s> kòm
-3.322012	<s> kòmèsyal
-2.623042	<s> la
-3.322012	<s> ladézirad
-3.322012	<s> lafen
-3.020983	<s> lafrans
-3.322012	<s> laise
-3.322012	<s> langaj
-3.020983	<s> lanmou	-0.3679768
-3.020983	<s> lanprèsman	0
-3.322012	<s> lansrokèt
-3.020983	<s> lantou	-0.30103
-3.322012	<s> lapansé
-3.020983	<s> lapli	-0.4101745
-3.020983	<s> larÈl	0
-3.322012	<s> latravèsé
-3.020983	<s> lavi	-0.4024876
-3.020983	<s> lavéyé	0
-3.322012	<s> lendi
-3.322012	<s> lenflyans
-3.322012	<s> lenj
-3.322012	<s> lespòtasyon
-3.020983	<s> li
-3.322012	<s> lojé
-2.043259	<s> lè	-0.2152434
-2.844891	<s> lé	-0.1783831
-3.020983	<s> léhou	0
-3.020983	<s> lévolisyon
-3.020983	<s> lévwa	0
-3.020983	<s> lò
-3.322012	<s> lòganizasyon
-2.844891	<s> m	-0.39794
-3.020983	<s> ma
-3.020983	<s> madi
-3.020983	<s> main	-0.3679768
-3.322012	<s> mal
-3.322012	<s> man
-3.322012	<s> manjé
-2.719952	<s> manzè	-0.30103
-3.020983	<s> maré	-0.4313638
-2.623042	<s> men
-3.322012	<s> mentalité
-2.719952	<s> mhm	0
-3.322012	<s> mi
-3.322012	<s> mit
-3.322012	<s> mizik
-3.020983	<s> mizè	-0.3899711
-3.322012	<s> modènité
-3.020983	<s> moin	-0.1760913
-3.322012	<s> moman
-3.020983	<s> monchè
-3.020983	<s> mouchwè	-0.30103
-2.322012	<s> moun	-0.1437178
-3.322012	<s> mouvman
-2.36777	<s> mwen	-0.08414465
-1.924072	<s> mè	-0.03612354
-3.322012	<s> mèkrédi
-2.719952	<s> mèm
-3.020983	<s> mèsi	0
-3.322012	<s> mèt
-2.242831	<s> mé	-0.1581071
-3.322012	<s> médikaman
-3.322012	<s> mélanj
-3.322012	<s> mésyé
-3.322012	<s> même
-3.322012	<s> nap
-2.242831	<s> ni	-0.2476753
-3.020983	<s> non
-1.709229	<s> nou	-0.1558312
-3.020983	<s> nowèl
-2.476914	<s> o	-0.09409903
-3.322012	<s> obama
-2.844891	<s> okontrè	-0.07572071
-3.020983	<s> ola	-0.3679768
-3.322012	<s> olala
-3.020983	<s> olyé	0.1249387
-2.091563	<s> on	-0.1366478
-3.020983	<s> onlo	-0.39794
-3.020983	<s> osi
-3.322012	<s> oswè
-3.322012	<s> otan
-1.522672	<s> ou	-0.2120681
-2.719952	<s> oubyen
-2.091563	<s> pa	-0.1125194
-3.020983	<s> pandan
-3.322012	<s> papa
-3.020983	<s> par
-3.322012	<s> paralèlman
-3.020983	<s> paré
-3.020983	<s> pas
-3.322012	<s> pasad
-3.020983	<s> paskè
-2.208069	<s> paské	-0.06258199
-3.020983	<s> pati
-3.322012	<s> pi
-2.844891	<s> piské
-3.322012	<s> piti
-2.623042	<s> pli	-0.271575
-3.020983	<s> plis
-3.020983	<s> po	-0.3802113
-3.020983	<s> ponmoun	0.2218487
-1.859614	<s> pou	-0.1846653
-3.322012	<s> poupé
-3.322012	<s> pran
-3.322012	<s> pri
-2.844891	<s> produi
-3.322012	<s> protéjé
-3.322012	<s> prèmyé
-2.844891	<s> pwòp	-0.04575749
-3.322012	<s> pèsé
-3.322012	<s> pé
-2.844891	<s> pétèt	-0.1657328
-3.322012	<s> pétét
-2.844891	<s> péyi	-0.1823402
-3.020983	<s> pòm	-0.1760913
-3.322012	<s> pòt
-3.020983	<s> rakoun	-0.4149733
-3.322012	<s> rasist
-3.322012	<s> rekonséyé
-3.020983	<s> ren	-0.3899711
-3.322012	<s> rentes
-3.322012	<s> respiré
-3.322012	<s> reztan
-3.322012	<s> rité
-3.020983	<s> rivé	-0.463333
-3.322012	<s> rosa
-3.322012	<s> rédistribiyé
-3.322012	<s> réfòm
-3.322012	<s> rékoni
-3.322012	<s> résaman
-3.020983	<s> rété	-0.4490925
-3.322012	<s> rézilta
-3.020983	<s> s
-1.960285	<s> sa	-0.1701807
-2.476914	<s> san	-0.3040777
-3.322012	<s> sanblé
-3.020983	<s> santi	-0.3679768
-3.322012	<s> scientifiquement
-3.322012	<s> senten
-3.322012	<s> sexuelle
-2.28062	<s> si	-0.1099837
-3.322012	<s> sizè
-3.322012	<s> sklérozé
-3.322012	<s> sof
-3.322012	<s> solidarité
-3.322012	<s> sosolida
-3.322012	<s> sosyal
-3.322012	<s> soutou
-3.322012	<s> sponsorizé
-3.322012	<s> sportif
-3.322012	<s> spécifique
-3.322012	<s> ss
-3.322012	<s> sujet
-3.322012	<s> surtout
-2.844891	<s> swa
-3.322012	<s> swasant
-3.020983	<s> syal
-3.322012	<s> syans
-3.322012	<s> syantifik
-3.322012	<s> sè
-3.322012	<s> sèn
-3.322012	<s> sèvi
-1.502468	<s> sé	-0.07836062
-3.020983	<s> sòlèy-la	0
-2.844891	<s> sòti	-0.1955198
-3.020983	<s> tala	-0.39794
-3.322012	<s> tan
-2.242831	<s> tanbou	-0.2092596
-2.844891	<s> ten
-3.322012	<s> théâtre
-3.322012	<s> ti
-2.844891	<s> timoun	-0.1307683
-3.322012	<s> tini
-3.322012	<s> tinyé
-2.476914	<s> tou	-0.0980081
-2.543861	<s> toujou	-0.07033668
-3.020983	<s> toupannan	0.2218487
-2.020983	<s> tout	-0.09868772
-3.020983	<s> toutmoun	0
-3.020983	<s> toutt	0
-3.322012	<s> tradisyon
-3.322012	<s> transfòmasyon
-3.322012	<s> travèsé
-3.322012	<s> tren
-3.322012	<s> tribinal
-3.322012	<s> trodui
-3.020983	<s> trè
-3.020983	<s> très
-2.719952	<s> tu	0.146128
-3.322012	<s> turbulenscene
-3.322012	<s> ture
-3.322012	<s> tè
-2.844891	<s> tèlman
-3.322012	<s> tèm
-3.020983	<s> tèt	-0.4065402
-3.020983	<s> tèt-	0
-2.28062	<s> té	-0.1757397
-3.020983	<s> téyat
-3.322012	<s> une
-3.322012	<s> vini
-3.020983	<s> vit
-3.322012	<s> vité
-3.322012	<s> viv
-3.322012	<s> voilà
-3.322012	<s> vraiment
-3.020983	<s> vrèman
-2.623042	<s> vwala	-0.06567879
-2.844891	<s> vyann
-3.322012	<s> vè
-3.020983	<s> wap	-0.30103
-2.623042	<s> wi
-3.020983	<s> wikenn
-3.020983	<s> wop	0
-3.322012	<s> wouvin
-2.719952	<s> wè	-0.1091445
-3.322012	<s> wènon
-3.322012	<s> y
-3.322012	<s> yen
-1.907039	<s> yo	-0.09640667
-2.719952	<s> yonn	-0.3444957
-2.844891	<s> zafè	-0.154902
-3.322012	<s> zan
-3.020983	<s> zeb	-0.3309932
-3.322012	<s> zòn
-3.020983	<s> zòt	-0.4515672
-3.020983	<s> Ès	-0.30103
-2.543861	<s> É	-0.3521826
-3.020983	<s> Émil	-0.3899711
-2.844891	<s> à
-3.322012	<s> ça
-3.322012	<s> èmé
-2.543861	<s> èvè	-0.07525095
-1.034211	<s> é	-0.04150133
-3.322012	<s> ében
-3.322012	<s> éfektiman
-3.322012	<s> éfektivman
-3.322012	<s> égoistéman
-3.322012	<s> éi
-3.322012	<s> ékonomi
-3.020983	<s> épi
-3.322012	<s> épis
-3.322012	<s> étapes
-3.322012	<s> étéroklit
-3.322012	<s> évidamman
-3.020983	<s> évè
-2.623042	<s> éé	0.06694679
-3.322012	<s> ò
-2.948902	a 18
-2.948902	a 18h
-1.86972	a </s>
-2.170751	a a	-0.1489998
-2.647872	a albè	0
-2.170751	a an	-0.08511027
-2.948902	a anivèsè
-2.948902	a balè
-2.647872	a banjo	0
-2.471781	a bannann	-0.1492981
-2.647872	a bannzil-la	0
-2.647872	a bato-la	0
-2.647872	a baz	0
-2.647872	a bitasyon	-0.30103
-2.647872	a blakbotòn	0
-2.346842	a bwa	-0.3679768
-2.647872	a bwa-koubari	0
-2.647872	a bèl	-0.4529876
-2.647872	a bèlbèbèl	0
-2.948902	a bò
-2.471781	a cawo
-2.647872	a chalèstòn	0
-2.647872	a chat	-0.3679768
-2.647872	a chenil-la	0
-2.647872	a chenn	-0.3679768
-2.647872	a chenn-lasa	0
-2.647872	a chimen	-0.4336556
-2.647872	a chou	-0.2552725
-2.948902	a david
-2.948902	a di
-2.948902	a dizè
-2.647872	a dola	0
-2.647872	a dominik	-0.3521825
-2.647872	a dou	-0.2552725
-2.647872	a doulè	0
-2.647872	a dwèt	-0.4227636
-2.647872	a dè
-2.647872	a dé	-0.4694683
-2.647872	a dégenn	0
-2.647872	a dékouvè	-0.30103
-2.647872	a déotwa	-0.30103
-2.948902	a dévlopman
-2.647872	a déyès	0
-2.471781	a dòt	-0.2006595
-2.948902	a enben
-2.948902	a fanm
-2.103804	a fanmi	-0.31627
-2.647872	a fwan	0
-2.647872	a fwèt	-0.39794
-2.647872	a fèy	-0.30103
-2.647872	a gangann	0
-2.948902	a gato
-2.647872	a gaël
-2.647872	a goud	0
-2.045812	a gran	-0.3853509
-2.647872	a gran-apa	0
-2.647872	a grannonm-la	0
-2.647872	a gwadloup
-2.647872	a gwoka	-0.1346986
-2.647872	a gwoup-la	0
-2.647872	a hak	-0.3679768
-2.948902	a hum
-2.948902	a i
-2.647872	a idantité	-0.2009148
-2.647872	a idanté	0
-2.647872	a ika	0
-2.647872	a inosan	0
-2.647872	a istwa	-0.30103
-2.647872	a jan	-0.4259687
-2.647872	a jenn	-0.39794
-2.948902	a jisk
-2.647872	a jéwòm	-0.4357286
-2.471781	a ka
-2.647872	a kabrit	-0.30103
-2.647872	a kaka	0
-2.647872	a kakwè	0
-2.647872	a kal	0
-2.647872	a kalipso	0
-2.647872	a kanpèch	0
-2.948902	a kapasité
-2.948902	a kapestè
-2.647872	a karata3	0
-2.647872	a kawtyé-la	-0.39794
-2.249932	a kaz	-0.009441567
-2.948902	a ki
-2.948902	a kilè
-2.346842	a kimoun	-0.4014005
-2.647872	a klima	-0.2552725
-2.471781	a kolombo
-2.948902	a komin
-2.346842	a kongo
-2.647872	a konmès	0
-2.647872	a konprann	-0.3679768
-2.948902	a konsomasyon
-2.948902	a kouran
-2.948902	a kréòl
-2.471781	a kè	-0.2092596
-2.647872	a kèk	0
-2.948902	a l'air
-2.249932	a la	-0.2978483
-2.948902	a labaz
-2.346842	a ladja	0
-2.948902	a lakanaval
-2.647872	a lalin	0
-2.647872	a lalit	0
-2.948902	a lanbi
-2.647872	a lankan	0
-2.647872	a lanmou	-0.3679768
-2.647872	a lanméri	-0.30103
-2.647872	a lanmérik	0
-2.647872	a larichès	0
-2.948902	a lavantaj
-2.948902	a lekstériyè
-2.647872	a lenbé	0
-2.948902	a lenflyans
-2.647872	a libèté	0.2218487
-1.994659	a lè	-0.1507854
-2.647872	a lèstravay	0
-2.948902	a léana
-2.948902	a léfiji
-2.647872	a lélanné	0
-2.948902	a lépok
-2.249932	a lépòk	-0.01223447
-2.647872	a lésott	0
-2.647872	a léta	0.2218487
-2.346842	a lézòt	-0.3424227
-2.647872	a lòt-la	-0.4522977
-2.045812	a maléré	-0.7323937
-2.647872	a mandé-mwen	0
-2.647872	a manmbo	0
-2.948902	a mannyòk
-2.647872	a manyòk
-2.647872	a marie-galante
-2.647872	a matnik	0
-2.647872	a matété	-0.30103
-2.647872	a men	-0.463333
-2.948902	a mi
-2.647872	a midi
-2.647872	a mizè	-0.3899711
-2.948902	a mori
-2.249932	a moun	-0.2757732
-2.471781	a mwen	-0.2173326
-2.948902	a mè
-2.346842	a mès	0.1249387
-2.170751	a mò-la	0
-2.647872	a mòlòkòy	0
-2.346842	a nou	-0.123933
-2.346842	a nèg	-0.274471
-2.647872	a né	-0.3679768
-1.744782	a on	-0.5844471
-2.045812	a pa	-0.05802156
-2.948902	a palé
-2.647872	a papa’y	0
-2.647872	a pap’an	0
-2.647872	a pasé	-0.4542584
-2.948902	a pati
-2.647872	a pen
-2.647872	a pik
-2.647872	a pip	0
-2.647872	a pistach	0
-2.647872	a piti	-0.4569179
-2.346842	a piti-bannzil	0
-2.647872	a pitit	-0.1760913
-2.647872	a po	-0.3802113
-2.647872	a poulèt	-0.30103
-2.647872	a pri	-0.3309932
-2.647872	a prèmyé	-0.4191293
-2.647872	a pwayé	0
-2.948902	a pwèl
-2.647872	a pè	-0.3309932
-2.647872	a pèd	-0.4336556
-2.948902	a péchè
-1.77281	a péyi	-0.1611509
-2.647872	a rantré	-0.4449366
-2.948902	a retou
-2.948902	a réglé
-2.249932	a sa	-0.08848882
-2.647872	a sajès	0
-2.647872	a sanblaj	0
-2.948902	a sav
-2.948902	a savé
-2.948902	a senten
-2.647872	a sid	-0.30103
-2.346842	a siklòn	-0.2218487
-2.647872	a siklòn-la	0
-2.647872	a sila	-0.3679768
-2.948902	a sin
-2.647872	a siriyen-la	0
-2.948902	a sizè
-2.948902	a sol
-2.647872	a souch	0
-2.647872	a sèl	-0.4548449
-2.170751	a sé	-0.0858803
-2.647872	a taktak	0
-2.647872	a tanbou	-0.449969
-2.647872	a ti-manman	0
-2.647872	a tima	0
-2.346842	a timoun	-0.2099495
-2.647872	a tit	-0.2808266
-2.647872	a touf	0
-2.647872	a touloulou	0
-2.647872	a touléjou	0
-2.647872	a toumblak	0
-2.948902	a tourist
-2.103804	a tout	-0.1239132
-2.647872	a tranblanntè	0
-2.948902	a transfòmé
-2.346842	a travay	-0.6663009
-2.647872	a trouvé	-0.4101745
-2.948902	a trèzan
-2.948902	a twa
-2.647872	a twonbòn	0
-2.948902	a tèm
-2.948902	a tèt
-2.948902	a té
-2.647872	a tékla	0
-2.948902	a untel
-2.647872	a vach	0
-2.471781	a vi	-0.1492981
-2.647872	a volkan	0
-2.948902	a vou
-2.471781	a vyann
-2.647872	a vèrden	0
-2.647872	a vòlkan	0
-2.647872	a wokinwòlmwen	0
-2.647872	a wonm	-0.30103
-2.647872	a wè	-0.2852357
-1.07384	a yo	-0.2446321
-2.346842	a yonn	-0.4288166
-2.647872	a zansèt	0
-2.647872	a zendyen	-0.3521825
-2.647872	a zèl	-0.30103
-2.948902	a zéro
-2.647872	a zòt	-0.4244149
-2.647872	a Émil	-0.2808266
-2.948902	a ékonomik
-1.533928	a ‘w	-0.6617702
-2.647872	a ‘y	0
-0.30103	a'w lizin
-0.9542425	a'y ka	-0.4753637
-0.9542425	a'y ki	-0.4688312
-0.9542425	a'y komin	-0.3309932
-0.9542425	a'y si	-0.4614411
-0.9542425	a'y té	-0.4760659
-0.9542425	a'y yonn	-0.4536402
-0.1760913	a-i ka	-0.4718271
-0.1760913	a-ou pa	-0.4740302
-0.1760913	a-w èvè	-0.4712124
-1.124939	a-y </s>
-1.30103	a-y a	-0.4761431
-1.30103	a-y antig	0
-1.30103	a-y asi	-0.4542584
-1.60206	a-y byento
-1.30103	a-y i	-0.436285
-1.60206	a-y jis
-1.30103	a-y ka	-0.4760676
-1.30103	a-y nou	-0.4532966
-1	a-y sé	-0.429599
-1.60206	a-y twa
-1.30103	a-y wouvè	-0.3679768
-1.124939	a-y é	-0.2159834
-0.30103	aa </s>
-0.1760913	aaa fout	-0.30103
-0.30103	aba é
-0.30103	abitiyé yo
-0.30103	abityèlman nou
-0.1760913	abityé vwè	-0.4628808
-0.90309	abiyé an
-0.60206	abiyé koulè	-0.30103
-0.60206	abiyé èvè	-0.4403985
-0.7781513	abo ba	-0.463333
-0.7781513	abo fè	-0.4703879
-0.7781513	abo grésé	0
-0.7781513	abo kraché	0
-0.30103	abon an
-0.60206	abîmes fait
-0.60206	abîmes on
-0.30103	accord avec
-1.267172	achté </s>
-0.9661418	achté an	-0.1420386
-1.568202	achté ansanm
-1.568202	achté ayen
-1.568202	achté ba
-1.568202	achté dé
-1.568202	achté gratuitman
-1.568202	achté kè
-1.568202	achté langoust
-1.267172	achté on
-1.568202	achté pou-y
-1.568202	achté produi
-1.568202	achté ti
-1.09108	achté tout	-0.2107833
-1.568202	achté woy
-0.30103	actes à
-0.60206	action </s>
-0.60206	action sexuelle
-0.30103	actions à
-0.4771213	adad ki	-0.4734563
-0.4771213	adad té	-0.4728842
-1.507856	adan </s>
-2.206826	adan adan
-1.604766	adan an
-2.206826	adan anfèt
-1.604766	adan anivèsè	0.01659927
-2.206826	adan apré
-2.206826	adan asezonman
-1.905796	adan bokantaj-palé	0
-1.905796	adan chivé	-0.4149733
-2.206826	adan direksyon
-2.206826	adan donk
-2.206826	adan dè
-2.206826	adan déjéné
-1.905796	adan dòt	-0.455932
-1.905796	adan gwo	-0.4436975
-1.729705	adan gwoka	0.1205739
-1.905796	adan idantité	-0.4227636
-1.905796	adan istwa	-0.30103
-1.905796	adan jaden	-0.4393327
-2.206826	adan komin
-1.905796	adan kuizin	-0.394147
-1.905796	adan kè	-0.4515672
-2.206826	adan la
-2.206826	adan lavi
-2.206826	adan lil
-1.905796	adan lopilans	0
-1.905796	adan léwòz	0
-1.905796	adan lézòt	-0.4149733
-1.905796	adan mové	-0.2552725
-2.206826	adan mèm
-1.905796	adan nenpòt	-0.3521825
-1.604766	adan nou	-0.4391921
-0.845098	adan on	-0.2646245
-1.905796	adan p'on	-0.39794
-1.729705	adan péyi	-0.4164234
-2.206826	adan résèt
-1.905796	adan sistèm	-0.3521825
-1.905796	adan sosyété-la	-0.1760913
-1.905796	adan syèl-la	0.2218487
-1.428675	adan sé	-0.4675055
-1.905796	adan ta-ou	0
-1.905796	adan ti	-0.4678806
-1.905796	adan vivasyon	0.3679768
-1.905796	adan yo	-0.4449366
-1.604766	adan zyé	-0.2397603
-2.206826	adan étazini
-0.30103	adanadan </s>
-0.1760913	adans on	-0.4752613
-0.7781513	adapté </s>
-0.7781513	adapté kuizin
-0.7781513	adapté à
-0.30103	adapté-y a
-0.30103	adaptés aussi
-0.30103	admettons kè
-0.30103	adopté-y é
-0.30103	adoré giscard
-0.1760913	adoumanman èvè	-0.4712124
-0.1760913	adyé a	-0.4388439
-0.1760913	adélya té	-0.3047038
-0.90309	afrik </s>
-0.60206	afrik mwen	-0.4695681
-0.60206	afrik yo	-0.3818848
-0.30103	afrikèn é
-0.30103	afè a
-0.60206	agrikilti </s>
-0.60206	agrikilti transfòmasyon
-0.30103	agrikiltè ki
-0.30103	agrèr yo
-0.30103	aides de
-0.1760913	aimer jouer	0
-0.1760913	ajouté dézirad	-0.30103
-0.9542425	aka dantis
-0.9542425	aka entèl
-0.9542425	aka paskal
-0.6532125	aka sin
-0.30103	ako </s>
-0.30103	aksantyé osi
-0.60206	aksèpté </s>
-0.60206	aksèpté sitou
-0.30103	aksé ékonomi
-0.30103	aksépté nenpòt
-0.544068	aktivité </s>
-0.845098	aktivité kiltirèl
-0.845098	aktivité kultur
-0.30103	aktyal ni
-0.90309	aktyèlman adan
-0.90309	aktyèlman an
-0.90309	aktyèlman nou
-0.90309	aktyèlman osi
-0.09691001	alantou a	-0.4751627
-0.1760913	alarètrèt hélé-mwen	0
-0.1760913	albè yo	-0.4449366
-0.30103	ale trè
-0.1249387	alentou a
-0.30103	aliman rich
-0.30103	aller des
-0.30103	alokasyon </s>
-0.4771213	aloss kifè	-0.4313638
-0.4771213	aloss mafi	0
-0.1760913	alosse moin	-0.1760913
-0.1760913	alosss foumi	-0.39794
-0.1760913	alyansman a	-0.4736881
-0.69897	alè </s>
-0.69897	alè la
-1	alè sa
-1	alè yo
-0.1760913	alèkilé yo	-0.3818848
-0.1760913	alèz lè	-0.4452516
-1.041393	alé i
-1.041393	alé kwa
-1.041393	alé mèm
-1.041393	alé paské
-0.7403627	alé touvé	-0.4336556
-0.1760913	alélouya </s>
-1.623249	alò </s>
-1.322219	alò an
-1.623249	alò avan
-1.623249	alò fò
-1.623249	alò jòdla
-1.623249	alò ka
-1.623249	alò kè
-1.623249	alò ké
-1.623249	alò li
-1.623249	alò lè
-1.146128	alò mwen
-1.623249	alò mè
-1.623249	alò o
-1.623249	alò rantré
-1.623249	alò sa
-1.623249	alò sèl
-1.322219	alò sé
-1.623249	alò tou
-1.623249	alò é
-0.7781513	alòs an	-0.4541374
-0.7781513	alòs i	-0.4743284
-0.7781513	alòs ki	-0.4752927
-0.7781513	alòs kimoun	-0.4409091
-0.30103	amisman tout
-0.30103	amizman dansé
-0.60206	amizé nou
-0.60206	amizé yo
-0.1760913	amoni èvè
-0.1760913	amoué douvant	-0.30103
-0.30103	amé yo
-0.1760913	amérendyen té	-0.3047038
-2.727134	an 1853	0
-2.727134	an 1981	0
-2.250013	an </s>
-2.329194	an afrik	0
-3.028164	an ako
-2.727134	an amoni	0
-2.551043	an an	-0.213216
-3.028164	an anvlop
-3.028164	an aprè
-2.727134	an atandan	0
-2.426105	an ay	-0.1286373
-3.028164	an ayiti
-3.028164	an bato
-3.028164	an bi
-3.028164	an bibliotèk
-3.028164	an bibliotèt
-1.986772	an biten	-0.08277792
-3.028164	an bizwen
-3.028164	an blan
-2.727134	an bobi	0
-3.028164	an bokit
-3.028164	an bon
-3.028164	an bouch
-2.727134	an bout	-0.1249387
-3.028164	an boutèy
-2.727134	an bwa	-0.4259687
-2.727134	an bè	-0.30103
-2.727134	an bòl-a-men	0
-2.551043	an chimen	-0.1783831
-2.551043	an di
-3.028164	an direksyon
-3.028164	an diskou
-3.028164	an dominik
-2.727134	an dènyé	0
-3.028164	an désen
-2.727134	an déviré	0
-3.028164	an dòt
-3.028164	an ekzamp
-3.028164	an fanm
-2.727134	an fenfon	-0.2552725
-3.028164	an fonksyon
-2.727134	an four
-2.250013	an frans	0
-3.028164	an fransé
-3.028164	an fri
-2.727134	an fyè
-2.426105	an fèt	-0.39794
-2.329194	an fòs	-0.07378622
-2.727134	an gonflé	-0.30103
-2.551043	an gran	-0.207838
-3.028164	an granmoun
-3.028164	an gwadeloup
-2.073922	an gwadloup	-0.02802872
-2.727134	an gwatémala	0
-3.028164	an gwo
-2.727134	an gèl	0
-3.028164	an il
-3.028164	an ivèr
-2.551043	an ja	-0.2011642
-2.125074	an jaden	-0.3010299
-2.727134	an jan	-0.4412087
-3.028164	an jet
