
\data\
ngram 1=294
ngram 2=779
ngram 3=35

\1-grams:
-1.072942	</s>
-99	<s>	-0.2915558
-1.972137	a	-0.2253407
-2.817235	aba	-0.2923438
-2.641144	abon	-0.2768869
-2.817235	achté	-0.299373
-2.215175	adan	-0.2726704
-2.817235	afrik	-0.2626697
-2.817235	afè	-0.2963744
-2.641144	aksèpté	-0.2619465
-2.817235	aktyèlman	-0.2858845
-2.817235	alò	-0.3000365
-1.465052	an	-0.3107578
-2.817235	andidan	-0.2913303
-2.641144	anfèt	-0.2957052
-2.817235	ankò	-0.2626697
-2.817235	anlo	-0.300368
-2.817235	anlè	-0.300368
-2.817235	ansòt	-0.2977097
-2.817235	anvi	-0.2626697
-2.817235	apa	-0.2626697
-2.817235	aprann	-0.2960399
-2.641144	aprè	-0.2858845
-2.641144	apré	-0.2619465
-2.817235	arété	-0.2960399
-2.817235	asezonman	-0.2913303
-2.817235	asézonman	-0.2626697
-2.817235	atandan	-0.2997049
-2.817235	avan	-0.2983758
-2.817235	aw	-0.2626697
-2.118265	ay	-0.2644725
-2.817235	ayisyen	-0.300368
-2.817235	ayiti	-0.300368
-2.817235	ayè	-0.299373
-2.516205	bat	-0.2973762
-2.516205	biten	-0.3889163
-2.516205	bizwen	-0.2601331
-2.419295	bon	-0.258677
-2.817235	bwè	-0.2943638
-2.516205	byen	-0.2583122
-2.641144	bèl	-0.2997049
-2.817235	cendres	-0.2899752
-2.817235	chanté	-0.3000365
-2.516205	chèché	-0.282791
-2.817235	dansé	-0.299373
-2.817235	daprè	-0.2983758
-2.817235	demen	-0.2626697
-2.164022	di	-0.4153802
-2.817235	dimanch	-0.2626697
-2.817235	direksyon	-0.2913303
-2.817235	dirijé	-0.300368
-2.817235	diskou	-0.300368
-2.817235	diw	-0.2990409
-2.817235	dominiken	-0.300368
-2.419295	donk	-0.2327581
-2.817235	dot	-0.2963744
-2.340114	dè	-0.2957053
-2.076872	dé	-0.2692042
-2.817235	désirad	-0.3000365
-2.817235	dévlopman	-0.2977097
-2.817235	ekzisté	-0.2626697
-2.817235	en	-0.2970425
-2.817235	enben	-0.3000365
-2.817235	enfen	-0.2930182
-2.641144	entrigé	-0.4721312
-2.817235	eskè	-0.2990409
-2.817235	espré	-0.2977097
-2.817235	fanmi	-0.2858845
-2.817235	faut	-0.2899752
-2.817235	fiyè	-0.2626697
-2.641144	fo	-0.2875936
-2.817235	foto	-0.2963744
-2.817235	frans	-0.2923438
-2.817235	fransè	-0.2626697
-2.817235	fwa	-0.2973762
-2.817235	fyèté	-0.2858845
-1.942173	fè	-0.237059
-2.817235	fès	-0.2626697
-2.817235	fòs	-0.2899752
-2.817235	gadé	-0.2626697
-2.817235	gato	-0.2913303
-2.817235	gaté	-0.300368
-2.817235	gou	-0.2626697
-2.419295	gra	-0.2810628
-2.817235	graj	-0.2899752
-2.817235	gras	-0.300368
-2.817235	griz	-0.2963744
-2.817235	gro	-0.2997049
-2.817235	guiyan	-0.2626697
-2.641144	gwadloup	-0.2619465
-2.817235	gwo	-0.2626697
-2.641144	gwoka	-0.4674216
-2.039083	i	-0.4405638
-2.817235	idé	-0.2963744
-2.516205	il	-0.2453472
-2.817235	ivèr	-0.2946995
-2.340114	ja	-0.3245285
-2.641144	jan	-0.2930182
-2.817235	jiska	-0.300368
-2.817235	jisko	-0.2997049
-2.817235	jodijou	-0.2899752
-2.817235	jolinèt	-0.2626697
-2.641144	jou	-0.2983758
-2.817235	jwé	-0.2963744
-2.817235	jà	-0.3000365
-2.817235	jénéralman	-0.2899752
-2.641144	jòdla	-0.282791
-1.410695	ka	-0.3014157
-2.516205	kado	-0.2899752
-2.817235	kanmem	-0.2997049
-2.817235	kanmen	-0.2953703
-2.817235	kapab	-0.2977097
-2.516205	kay	-0.2920062
-2.641144	kaz	-0.2967086
-1.887816	ki	-0.2991175
-2.641144	kilti	-0.2460986
-2.817235	ko	-0.2626697
-2.516205	kolombo	-0.3588565
-2.817235	kominotar	-0.2626697
-2.118265	kon	-0.3362752
-2.817235	konet	-0.3000365
-2.817235	kongo	-0.2899752
-2.817235	konnèt	-0.2626697
-2.516205	konprann	-0.2430853
-2.641144	konsa	-0.4619758
-2.817235	konstaté	-0.300368
-2.641144	kont	-0.299373
-2.817235	kontan	-0.300368
-2.817235	koujèt	-0.2899752
-2.817235	koumansé	-0.3000365
-2.817235	kous	-0.3000365
-2.817235	kouzin	-0.2913303
-2.817235	kriyé	-0.2626697
-2.340114	kréòl	-0.3806887
-2.817235	kwa	-0.2626697
-2.817235	kè	-0.3000365
-2.641144	kès	-0.2612221
-2.118265	ké	-0.2667603
-1.655867	la	-0.2635402
-2.817235	lafrans	-0.3000365
-2.817235	lang	-0.2990409
-2.817235	laplipa	-0.2990409
-2.817235	lapolis	-0.2980428
-2.817235	lavi	-0.2626697
-2.817235	li	-0.2953703
-2.817235	lité	-0.2977097
-2.817235	lo	-0.2983758
-2.817235	lojé	-0.2983758
-2.817235	lwen	-0.2626697
-2.215175	lè	-0.3133938
-2.641144	lé	-0.2997049
-2.817235	léfiji	-0.2626697
-2.817235	lété	-0.2946995
-2.641144	manjé	-0.2896358
-2.817235	manman	-0.2960399
-2.516205	mardi	-0.600403
-2.817235	marie-galantè	-0.2899752
-2.817235	mask	-0.2963744
-2.817235	matinik	-0.3000365
-2.817235	matiné	-0.2626697
-2.817235	matyè	-0.300368
-2.641144	men	-0.2889561
-2.817235	menm	-0.2953703
-2.817235	midi	-0.2913303
-2.817235	miss	-0.2626697
-2.641144	moman	-0.2531725
-2.817235	mond	-0.2913303
-2.215175	moun	-0.3598976
-1.942173	mwen	-0.2299427
-1.972137	mè	-0.254187
-2.817235	mèkrédi	-0.2973762
-2.817235	mèm	-0.2626697
-2.817235	mèt	-0.3000365
-2.817235	mèvèy	-0.2626697
-2.516205	mélanj	-0.3489733
-2.641144	mérité	-0.2990408
-2.641144	mété	-0.299373
-2.817235	mévèy	-0.300368
-2.817235	méyè	-0.2626697
-1.914145	ni	-0.2431144
-2.817235	notab	-0.2838246
-1.599751	nou	-0.276787
-2.817235	okontrè	-0.300368
-1.817235	on	-0.2951692
-2.641144	osi	-0.2892961
-2.817235	otan	-0.2997049
-1.738053	ou	-0.5094211
-2.641144	oubliyé	-0.4684351
-2.641144	oubyen	-0.2920062
-1.796045	pa	-0.3773721
-2.419295	palé	-0.321962
-2.817235	pandan	-0.2983758
-2.641144	pansé	-0.2957052
-2.340114	paské	-0.2608594
-2.817235	patikilyé	-0.299373
-2.516205	piti	-0.3942862
-2.641144	plas	-0.2824459
-2.817235	plent	-0.2990409
-2.516205	plis	-0.2475975
-2.817235	poko	-0.2957052
-2.817235	posibilité	-0.2990409
-2.118265	pou	-0.3537599
-2.340114	poukwa	-0.4166071
-2.641144	pran	-0.2906533
-2.817235	premyé	-0.2997049
-2.641144	profité	-0.2590415
-2.817235	prèmyé	-0.300368
-2.817235	préféré	-0.2626697
-2.817235	préparé	-0.2626697
-2.817235	puisans	-0.2626697
-2.817235	pèp	-0.2953703
-2.340114	pé	-0.3401087
-2.817235	pétèt	-0.2899752
-2.817235	péyi	-0.2913303
-2.641144	pòm	-0.4741341
-2.817235	pòté	-0.300368
-2.641144	rann	-0.2892961
-2.817235	rantré	-0.2990409
-2.817235	respiré	-0.2990409
-2.817235	respékté	-0.300368
-2.817235	ritm	-0.2913303
-2.817235	rivyè	-0.2626697
-2.641144	rivé	-0.438761
-2.817235	réponn	-0.2970425
-2.817235	résèt	-0.2953703
-2.817235	réyinyon	-0.300368
-2.817235	s	-0.2983758
-1.703291	sa	-0.2335208
-2.817235	sa-w	-0.2838246
-2.817235	samdi	-0.2930182
-2.641144	san	-0.299373
-2.817235	santé	-0.3000365
-2.273167	sav	-0.2882414
-2.817235	saw	-0.2838246
-2.817235	sela	-0.2626697
-2.817235	sent	-0.2983758
-2.817235	senten	-0.3000365
-2.817235	sesi	-0.2990409
-2.419295	si	-0.2803696
-2.817235	signes	-0.2626697
-2.817235	sijè	-0.2858845
-2.817235	sitou	-0.2990409
-2.641144	son	-0.4761278
-2.817235	sonjé	-0.2953703
-2.817235	soup	-0.2963744
-2.817235	syantifik	-0.2953703
-2.817235	sè	-0.2983758
-2.641144	sèl	-0.2990408
-1.599751	sé	-0.2508716
-2.817235	sòs	-0.2963744
-2.641144	sòti	-0.2531725
-2.516205	tanbou	-0.2583122
-2.164022	tann	-0.3428134
-2.641144	ti	-0.2997049
-2.273167	timoun	-0.3384807
-2.817235	tini	-0.300368
-2.817235	tipunch	-0.2626697
-2.215175	tou	-0.6431745
-2.641144	toujou	-0.2594057
-2.419295	tout	-0.3389105
-2.817235	travay	-0.2626697
-2.817235	trè	-0.300368
-2.817235	trèzan	-0.2987084
-2.817235	tréné	-0.2626697
-2.641144	tè	-0.2824459
-2.817235	tèm	-0.300368
-2.164022	té	-0.5456873
-2.817235	téré	-0.3000365
-2.817235	ultra-marain	-0.2977097
-2.817235	un	-0.2858845
-2.817235	vansé	-0.2953703
-2.641144	vaval	-0.438761
-2.516205	vin	-0.2889561
-2.516205	vlé	-0.3879019
-2.817235	vou	-0.3000365
-2.215175	vwè	-0.2292604
-2.817235	vyann	-0.3000365
-2.817235	wi	-0.2899752
-2.817235	y	-0.300368
-1.839511	yo	-0.3488453
-2.641144	youniti	-0.2920062
-2.641144	yè	-0.4674216
-2.817235	zataché	-0.2963744
-2.817235	zot	-0.2977097
-2.817235	zòt	-0.2997049
-1.703291	é	-0.2758366
-2.817235	éfèvèsans	-0.2990409
-2.817235	éfèvésans	-0.2626697
-2.516205	élvé	-0.3865458
-2.817235	épi	-0.3000365
-2.817235	épis	-0.2913303
-2.817235	étalman	-0.2990409
-2.817235	òganizé	-0.3000365
-2.817235	òtofonis	-0.2953703

\2-grams:
-1.612784	<s> a
-2.214844	<s> aba
-2.214844	<s> abon
-1.612784	<s> adan
-2.214844	<s> alò
-1.369746	<s> an
-2.214844	<s> donk
-1.913814	<s> dé
-2.214844	<s> en
-2.214844	<s> enfen
-2.214844	<s> eskè
-2.214844	<s> fo
-2.214844	<s> foto
-2.214844	<s> fè
-2.214844	<s> gras
-1.737723	<s> i
-2.214844	<s> il
-2.214844	<s> ja
-2.214844	<s> jiska
-2.214844	<s> kay
-2.214844	<s> kaz
-2.214844	<s> ki
-1.913814	<s> kon
-2.214844	<s> kouzin
-2.214844	<s> lojé
-2.214844	<s> lè
-1.913814	<s> men
-2.214844	<s> mwen
-1.515874	<s> mè
-2.214844	<s> mélanj
-1.913814	<s> ni
-1.436693	<s> nou	-0.02563213
-2.214844	<s> otan
-1.612784	<s> ou	-0.1106983
-2.214844	<s> oubyen
-1.913814	<s> pa
-2.214844	<s> pandan
-2.214844	<s> paské
-2.214844	<s> pou
-2.214844	<s> pran
-2.214844	<s> pé
-2.214844	<s> pétèt
-2.214844	<s> pòm
-2.214844	<s> respiré
-2.214844	<s> s
-2.214844	<s> sa
-2.214844	<s> si
-1.173451	<s> sé	0.01805235
-2.214844	<s> tanbou
-2.214844	<s> tini
-1.913814	<s> tou
-2.214844	<s> wi
-1.038753	<s> é	-0.00268913
-2.214844	<s> épis
-1.414973	a </s>
-1.414973	a enben
-1.414973	a kaz
-1.414973	a kolombo
-1.414973	a kongo
-1.414973	a kous
-1.414973	a léfiji
-1.414973	a nou
-1.414973	a sav
-1.414973	a sé
-1.414973	a timoun
-1.414973	a trèzan
-1.414973	a vyann
-0.30103	aba é
-0.60206	abon an
-0.60206	abon sa
-0.30103	achté tout
-1.146128	adan adan
-1.146128	adan an
-1.146128	adan anfèt
-1.146128	adan apré
-1.146128	adan asezonman
-1.146128	adan direksyon
-1.146128	adan on
-0.30103	afrik </s>
-0.30103	afè a
-0.60206	aksèpté </s>
-0.60206	aksèpté sitou
-0.30103	aktyèlman an
-0.30103	alò jòdla
-1.875061	an afrik
-1.875061	an aprè
-1.875061	an atandan
-1.875061	an diskou
-1.875061	an frans
-1.875061	an il
-1.875061	an ivèr
-1.09691	an ka
-1.875061	an ko
-1.574031	an ké
-1.875061	an lang
-1.875061	an lo
-1.875061	an moun
-1.875061	an mèvèy
-1.875061	an mélanj
-1.875061	an mévèy
-1.875061	an ni
-1.176091	an nou	-0.1700402
-1.273001	an pa	-0.258278
-1.875061	an péyi
-1.875061	an résèt
-1.875061	an senten
-1.875061	an sijè
-1.875061	an toujou
-1.875061	an trè
-1.875061	an tèm
-1.875061	an vlé
-1.875061	an vwè
-1.875061	an zòt
-1.875061	an éfèvèsans
-1.875061	an éfèvésans
-0.30103	andidan la
-0.60206	anfèt ké
-0.60206	anfèt poukwa
-0.30103	ankò </s>
-0.30103	anlo idé
-0.30103	anlè gato
-0.30103	ansòt ké
-0.30103	anvi </s>
-0.30103	apa </s>
-0.30103	aprann mwen
-0.60206	aprè sa
-0.60206	aprè yo
-0.60206	apré </s>
-0.60206	apré midi
-0.30103	arété mwen
-0.30103	asezonman la
-0.30103	asézonman </s>
-0.30103	atandan mardi
-0.30103	avan adan
-0.30103	aw </s>
-1.230449	ay </s>
-1.230449	ay byen
-1.230449	ay chanté
-0.9294189	ay fè
-1.230449	ay i
-1.230449	ay pa
-1.230449	ay pou
-1.230449	ay pòté
-0.30103	ayisyen fransè
-0.30103	ayiti réyinyon
-0.30103	ayè bon
-0.7781513	bat bat
-0.7781513	bat son
-0.7781513	bat tanbou
-0.69897	biten adan
-0.39794	biten yo
-0.7781513	bizwen </s>
-0.7781513	bizwen chèché
-0.7781513	bizwen toujou
-0.90309	bon </s>
-0.90309	bon kado
-0.90309	bon mélanj
-0.90309	bon sèl
-0.30103	bwè on
-0.7781513	byen </s>
-0.7781513	byen ké
-0.7781513	byen lwen
-0.60206	bèl lavi
-0.60206	bèl rivyè
-0.30103	cendres nou
-0.30103	chanté vaval
-0.7781513	chèché a
-0.7781513	chèché dé
-0.7781513	chèché la
-0.30103	dansé si
-0.30103	daprè tou
-0.30103	demen </s>
-0.60206	di </s>
-1.079181	di an
-0.7781513	di mwen
-0.7781513	di tè
-0.30103	dimanch </s>
-0.30103	direksyon la
-0.30103	dirijé prèmyé
-0.30103	diskou kominotar
-0.30103	diw poukwa
-0.30103	dominiken ayisyen
-0.90309	donk </s>
-0.90309	donk an
-0.90309	donk laplipa
-0.90309	donk nou
-0.30103	dot mè
-1	dè dévlopman
-1	dè fès
-1	dè moun
-1	dè signes
-1	dè sè
-1.278754	dé </s>
-0.9777236	dé bon
-1.278754	dé bèl
-1.278754	dé cendres
-1.278754	dé chèché
-1.278754	dé fwa
-1.278754	dé gro
-1.278754	dé sa
-1.278754	dé syantifik
-0.30103	désirad lé
-0.30103	dévlopman kon
-0.30103	ekzisté </s>
-0.30103	en i
-0.30103	enben abon
-0.30103	enfen ou
-0.1760913	entrigé mwen
-0.30103	eskè kréòl
-0.30103	espré pou
-0.30103	fanmi an
-0.30103	faut nou
-0.30103	fiyè </s>
-0.60206	fo pa
-0.60206	fo yo
-0.30103	foto a
-0.30103	frans é
-0.30103	fransè </s>
-0.30103	fwa dé
-0.30103	fyèté an
-1.414973	fè </s>
-1.414973	fè an
-1.414973	fè ansòt
-1.414973	fè dé
-1.414973	fè kolombo
-1.414973	fè moun
-1.113943	fè nou
-1.414973	fè on
-1.414973	fè plas
-1.113943	fè sa
-1.414973	fè sela
-1.414973	fè sesi
-0.30103	fès </s>
-0.30103	fòs sé
-0.30103	gadé </s>
-0.30103	gato la
-0.30103	gaté okontrè
-0.30103	gou </s>
-0.90309	gra an
-0.90309	gra jisko
-0.90309	gra mardi
-0.90309	gra moun
-0.30103	graj nou
-0.30103	gras matiné
-0.30103	griz mè
-0.30103	gro kado
-0.30103	guiyan </s>
-0.60206	gwadloup </s>
-0.60206	gwadloup ayiti
-0.30103	gwo </s>
-0.1760913	gwoka la
-1.230449	i bizwen
-0.6283889	i ja	-0.03698356
-1.230449	i pé
-1.230449	i sav
-1.230449	i sòti
-0.7533277	i té	-0.2596373
-0.30103	idé mè
-0.7781513	il </s>
-0.7781513	il an
-0.7781513	il faut
-0.30103	ivèr yo
-0.9542425	ja achté
-0.9542425	ja i
-0.9542425	ja ka
-0.6532125	ja ni	-0.4449366
-0.60206	jan palé
-0.60206	jan yo
-0.30103	jiska mèkrédi
-0.30103	jisko mardi
-0.30103	jodijou nou
-0.30103	jolinèt </s>
-0.60206	jou gra
-0.60206	jou rivé
-0.30103	jwé mè
-0.30103	jà oubliyé
-0.30103	jénéralman nou
-0.60206	jòdla fo
-0.60206	jòdla ka
-1.919078	ka </s>
-1.919078	ka an
-1.919078	ka anvi
-1.919078	ka chèché
-1.919078	ka dansé
-1.618048	ka di	-0.3521825
-1.919078	ka dirijé
-1.919078	ka ekzisté
-1.919078	ka entrigé
-1.919078	ka espré
-1.317018	ka fè
-1.919078	ka gadé
-1.919078	ka konet
-1.618048	ka konprann
-1.919078	ka konstaté
-1.919078	ka kriyé
-1.919078	ka mérité
-1.919078	ka mété
-1.618048	ka palé	-0.3309932
-1.919078	ka pansé
-1.919078	ka pran
-1.618048	ka profité
-1.919078	ka préparé
-1.618048	ka rann
-1.919078	ka respékté
-1.919078	ka réponn
-1.919078	ka sonjé
-1.919078	ka sòti
-1.07398	ka tann	-0.05238806
-1.919078	ka travay
-1.618048	ka vin
-1.441957	ka vwè
-1.919078	ka òganizé
-0.7781513	kado apa
-0.7781513	kado ki
-0.7781513	kado mè
-0.30103	kanmem plis
-0.30103	kanmen ki
-0.30103	kapab ké
-0.7781513	kay fè
-0.7781513	kay kon
-0.7781513	kay téré
-0.60206	kaz ay
-0.60206	kaz oubyen
-1.462398	ki anlè
-1.462398	ki aprann
-1.462398	ki di
-1.462398	ki dot
-1.462398	ki dè
-1.462398	ki fiyè
-1.462398	ki fè
-1.462398	ki jan
-1.161368	ki ka
-1.462398	ki kanmen
-1.161368	ki pou	-0.4149733
-1.161368	ki sé
-1.462398	ki vlé
-0.60206	kilti </s>
-0.60206	kilti an
-0.30103	ko </s>
-0.39794	kolombo </s>
-0.69897	kolombo aw
-0.30103	kominotar </s>
-1.20412	kon ayè
-1.20412	kon kon
-1.20412	kon la
-1.20412	kon manman
-1.20412	kon ultra-marain
-0.90309	kon yo
-0.90309	kon yè	0
-0.30103	konet son
-0.30103	kongo sé
-0.30103	konnèt </s>
-0.7781513	konprann </s>
-0.7781513	konprann ka
-0.7781513	konprann saw
-0.1760913	konsa an
-0.30103	konstaté aktyèlman
-0.60206	kont anfèt
-0.60206	kont kè
-0.30103	kontan épi
-0.30103	koujèt sé
-0.30103	koumansé entrigé
-0.30103	kous gwadloup
-0.30103	kouzin la
-0.30103	kriyé </s>
-0.4259687	kréòl </s>
-0.90309	kréòl ni
-0.90309	kréòl pansé
-0.30103	kwa </s>
-0.30103	kè gwoka
-0.60206	kès </s>
-0.60206	kès bat
-1.230449	ké </s>
-1.230449	ké diw
-1.230449	ké i
-1.230449	ké lafrans
-1.230449	ké lè
-0.9294189	ké ou
-1.230449	ké vwè
-1.230449	ké élvé
-0.8750613	la </s>
-1.653213	la avan
-1.653213	la daprè
-1.653213	la désirad
-1.653213	la gaté
-1.352183	la ka
-1.653213	la ki
-1.653213	la la
-1.653213	la mè
-1.653213	la méyè
-1.653213	la nou
-1.352183	la on
-1.176091	la ou	-0.03151706
-1.176091	la sa
-1.653213	la sé
-1.653213	la té
-1.653213	la é
-0.30103	lafrans jòdla
-0.30103	lang dè
-0.30103	laplipa dè
-0.30103	lapolis té
-0.30103	lavi </s>
-0.30103	li ki
-0.30103	lité pou
-0.30103	lo moun
-0.30103	lojé lè
-0.30103	lwen </s>
-1.113943	lè jou
-1.113943	lè lapolis
-1.113943	lè notab
-1.113943	lè ou
-0.8129134	lè sé
-1.113943	lè zot
-0.60206	lé miss
-0.60206	lé sent
-0.30103	léfiji </s>
-0.30103	lété yo
-0.60206	manjé donk
-0.60206	manjé la
-0.30103	manman mwen
-0.1249387	mardi gra
-0.30103	marie-galantè sé
-0.30103	mask a
-0.30103	matinik gwadloup
-0.30103	matiné </s>
-0.30103	matyè griz
-0.60206	men kon
-0.60206	men é
-0.30103	menm ki
-0.30103	midi la
-0.30103	miss </s>
-0.60206	moman </s>
-0.60206	moman é
-0.30103	mond la
-1.079181	moun ki
-1.079181	moun konnèt
-0.60206	moun la	-0.2021047
-1.079181	moun san
-1.079181	moun té
-1.414973	mwen </s>
-1.113943	mwen an
-1.414973	mwen dé
-1.414973	mwen fè
-1.414973	mwen menm
-1.414973	mwen on
-1.414973	mwen paské
-1.414973	mwen poko
-1.414973	mwen sa
-1.113943	mwen sé
-1.414973	mwen té
-1.414973	mwen élvé
-1.361728	mè </s>
-1.060698	mè an
-1.361728	mè apré
-1.060698	mè dé
-1.361728	mè jénéralman
-1.361728	mè nou
-1.361728	mè ou
-1.060698	mè pa	-0.4343693
-1.361728	mè si
-1.361728	mè sé
-0.30103	mèkrédi dé
-0.30103	mèm </s>
-0.30103	mèt pòm
-0.30103	mèvèy </s>
-0.39794	mélanj </s>
-0.69897	mélanj la
-0.60206	mérité kanmem
-0.60206	mérité plis
-0.60206	mété ti
-0.60206	mété y
-0.30103	mévèy santé
-0.30103	méyè </s>
-1.447158	ni </s>
-1.447158	ni afè
-1.146128	ni an
-1.447158	ni anlo
-1.447158	ni gou
-1.447158	ni graj
-1.447158	ni matyè
-1.447158	ni ni
-1.447158	ni on
-1.447158	ni plas
-1.447158	ni timoun
-1.146128	ni tou	0
-1.447158	ni é
-0.30103	notab ka
-1.122216	nou </s>
-1.724276	nou ay
-1.724276	nou byen
-1.724276	nou fè
-0.8791778	nou ka
-1.724276	nou kay
-1.724276	nou kont
-1.724276	nou lité
-1.724276	nou manjé
-1.724276	nou mérité
-1.423246	nou ni
-1.724276	nou pa
-1.724276	nou palé
-1.724276	nou préféré
-1.423246	nou pé
-1.724276	nou rivé
-1.724276	nou sav
-1.724276	nou sé
-1.724276	nou té
-1.724276	nou vansé
-1.724276	nou yo
-0.30103	okontrè mèm
-1.230449	on </s>
-1.531479	on biten
-1.531479	on il
-1.531479	on mask
-1.531479	on moman
-1.054358	on on
-1.531479	on posibilité
-1.531479	on pèp
-1.531479	on sèl
-1.531479	on ti
-1.531479	on timoun
-1.531479	on tipunch
-1.230449	on youniti
-1.531479	on étalman
-1.531479	on òtofonis
-0.60206	osi kapab
-0.60206	osi sé
-0.30103	otan kado
-1.190332	ou </s>
-1.491362	ou di
-1.491362	ou dimanch
-0.449969	ou ka	-0.04115479
-1.491362	ou mwen
-1.491362	ou osi
-0.7923917	ou pa	-0.146128
-1.491362	ou pé
-0.1760913	oubliyé sa	-0.4347174
-0.60206	oubyen lè
-0.60206	oubyen yo
-0.90309	pa ay	-0.09177037
-1.20412	pa bizwen
-1.50515	pa bwè
-1.50515	pa jan
-1.028029	pa ka	-0.1835843
-1.50515	pa mèt
-1.028029	pa ni
-1.50515	pa nou
-1.50515	pa oubliyé
-1.50515	pa paské
-1.50515	pa sav
-1.50515	pa tréné
-0.544068	palé </s>
-0.845098	palé kréòl
-0.845098	palé mwen
-0.30103	pandan lè
-0.60206	pansé kréòl
-0.60206	pansé ké
-1	paské an
-1	paské i
-1	paské sé
-1	paské timoun
-1	paské yo
-0.30103	patikilyé bon
-0.39794	piti piti
-0.69897	piti timoun
-0.60206	plas an
-0.60206	plas ay
-0.30103	plent poukwa
-0.7781513	plis </s>
-0.7781513	plis ki
-0.7781513	plis ou
-0.30103	poko ni
-0.30103	posibilité dè
-0.8750613	pou ay
-0.8750613	pou fè	-0.4423591
-0.8750613	pou nou
-1.176091	pou ou
-1.176091	pou sa
-1.176091	pou yo
-0.4259687	poukwa ou	-0.5256717
-0.90309	poukwa premyé
-0.90309	poukwa soup
-0.60206	pran dé
-0.60206	pran on
-0.30103	premyé biten
-0.60206	profité </s>
-0.60206	profité pou
-0.30103	prèmyé puisans
-0.30103	préféré </s>
-0.30103	préparé </s>
-0.30103	puisans </s>
-0.30103	pèp ki
-0.9542425	pé mété
-0.6532125	pé pa
-0.9542425	pé vin
-0.9542425	pé vwè
-0.30103	pétèt nou
-0.30103	péyi la
-0.1760913	pòm di	-0.39794
-0.30103	pòté plent
-0.60206	rann nou
-0.60206	rann vou
-0.30103	rantré paské
-0.30103	respiré kréòl
-0.30103	respékté gwo
-0.30103	ritm la
-0.30103	rivyè </s>
-0.1760913	rivé </s>
-0.30103	réponn i
-0.30103	résèt ki
-0.30103	réyinyon guiyan
-0.30103	s lè
-1.031408	sa </s>
-1.332438	sa an	-0.4409091
-1.633469	sa bèl
-1.633469	sa i
-1.633469	sa jodijou
-1.633469	sa ki
-1.633469	sa koumansé
-1.633469	sa kwa
-1.633469	sa la
-1.633469	sa mond
-1.633469	sa mwen
-1.633469	sa mè
-1.156347	sa nou
-1.633469	sa ou
-1.332438	sa sé
-1.633469	sa tout
-1.633469	sa vlé
-1.633469	sa yo
-0.30103	sa-w ka
-0.30103	samdi ou
-0.60206	san asézonman
-0.60206	san kilti
-0.30103	santé manjé
-1.041393	sav </s>
-1.041393	sav byen
-1.041393	sav fè
-1.041393	sav si
-0.7403627	sav yo
-0.30103	saw ka
-0.30103	sela </s>
-0.30103	sent tou
-0.30103	senten moman
-0.30103	sesi poukwa
-0.90309	si demen
-0.90309	si ou
-0.90309	si ritm
-0.90309	si sé
-0.30103	signes </s>
-0.30103	sijè an
-0.30103	sitou kréòl
-0.1760913	son kès
-0.30103	sonjé ki
-0.30103	soup a
-0.30103	syantifik ki
-0.30103	sè moun
-0.60206	sèl biten
-0.60206	sèl fòs
-1.724276	sé </s>
-1.247155	sé an
-1.724276	sé kilti
-1.724276	sé kolombo
-1.724276	sé kon
-1.423246	sé konsa	0
-1.423246	sé la	-0.447158
-1.724276	sé li
-1.724276	sé lété
-1.724276	sé matinik
-1.724276	sé mwen
-1.724276	sé ni
-0.8791778	sé on	-0.04622173
-1.724276	sé ou
-1.724276	sé pa
-1.724276	sé plis
-1.724276	sé pou
-1.423246	sé sa
-1.724276	sé samdi
-1.724276	sé sé
-1.724276	sé tanbou
-0.30103	sòs a
-0.60206	sòti </s>
-0.60206	sòti é
-0.7781513	tanbou </s>
-0.7781513	tanbou bat
-0.7781513	tanbou lè
-0.6368221	tann </s>
-0.8129134	tann an
-1.113943	tann ou
-1.113943	tann sa-w
-1.113943	tann yo
-0.60206	ti sòs
-0.60206	ti un
-1	timoun </s>
-0.69897	timoun a
-0.69897	timoun la
-1	timoun mè
-0.30103	tini dominiken
-0.30103	tipunch </s>
-0.9542425	tou piti
-0.1760913	tou sa	-0.06646557
-0.60206	toujou </s>
-0.60206	toujou tann
-0.845098	tout ka
-0.845098	tout moun
-0.544068	tout sa
-0.30103	travay </s>
-0.30103	trè zataché
-0.30103	trèzan timoun
-0.30103	tréné </s>
-0.60206	tè la
-0.60206	tè é
-0.30103	tèm patikilyé
-1.041393	té jà
-0.2632414	té ka
-1.041393	té kontan
-0.30103	téré vaval
-0.30103	ultra-marain kon
-0.30103	un an
-0.30103	vansé ki
-0.1760913	vaval </s>
-0.7781513	vin arété
-0.7781513	vin vwè
-0.7781513	vin é
-0.39794	vlé di
-0.69897	vlé pa
-0.30103	vou kont
-1.146128	vwè </s>
-1.146128	vwè fyèté
-1.146128	vwè jolinèt
-1.146128	vwè nou
-1.146128	vwè on
-1.146128	vwè ou
-1.146128	vwè tou
-0.30103	vyann san
-0.30103	wi sé
-0.30103	y ankò
-1.462398	yo </s>
-1.161368	yo aksèpté
-1.462398	yo andidan
-1.462398	yo jwé
-0.6842467	yo ka
-1.462398	yo kay
-1.462398	yo ké
-1.462398	yo rantré
-1.161368	yo sav	-0.3899711
-1.462398	yo tout
-1.462398	yo élvé
-0.60206	youniti ki
-0.60206	youniti kon
-0.1760913	yè la
-0.30103	zataché a
-0.30103	zot ké
-0.30103	zòt konprann
-1.322219	é </s>
-0.845098	é an
-1.623249	é aprè
-1.322219	é donk
-1.623249	é fanmi
-1.623249	é gwoka
-1.623249	é i
-1.623249	é koujèt
-1.623249	é marie-galantè
-1.623249	é ni
-1.623249	é nou
-1.623249	é osi
-1.623249	é pou
-1.623249	é poukwa
-1.322219	é sa
-1.623249	é tout
-1.623249	é é
-0.30103	éfèvèsans paské
-0.30103	éfèvésans </s>
-0.39794	élvé mwen	-0.4423591
-0.69897	élvé yo
-0.30103	épi jou
-0.30103	épis la
-0.30103	étalman dè
-0.30103	òganizé lé
-0.30103	òtofonis ki

\3-grams:
-0.1760913	sa an ka
-0.544068	pa ay fè
-0.1760913	ka di </s>
-0.1760913	pòm di tè
-0.1760913	pou fè nou
-0.544068	i ja ni
-1	ou ka tann
-1	ou ka vwè
-0.39794	pa ka tann
-0.1760913	sé konsa an
-0.39794	moun la ka
-0.1760913	sé la ou
-0.1760913	élvé mwen sé
-0.1760913	ja ni tou
-0.7403627	<s> nou ka
-0.4259687	an nou </s>
-0.8129134	sé on youniti
-0.30103	<s> ou ka
-0.39794	la ou ka
-0.1249387	poukwa ou pa
-0.30103	an pa ka
-0.1760913	mè pa ni
-0.4259687	ou pa ay
-0.1760913	ka palé </s>
-0.1760913	ki pou fè
-0.1760913	oubliyé sa </s>
-0.7403627	tou sa an
-0.1760913	yo sav yo
-1.021189	<s> sé on
-0.5642715	ka tann </s>
-0.7403627	ka tann an
-0.1760913	ni tou sa
-0.1249387	i té ka
-0.1760913	kon yè la
-0.8293038	<s> é an

\end\
