
\data\
ngram 1=2760
ngram 2=10067
ngram 3=5837

\1-grams:
-3.933369	"sézèv"	-0.4763273
-3.933369	"trinidad	-0.4770706
-3.088271	-	-0.435995
-3.933369	-aki	-0.4769693
-3.933369	-an	-0.4681692
-3.933369	-ba	-0.4765471
-3.933369	-ou	-0.4681692
-3.933369	-syèk	-0.4768174
-3.933369	0	-0.4770369
-4.10946	18	-0.3009962
-3.933369	1853	-0.4663911
-3.933369	1878	-0.4769693
-4.10946	18h	-0.2719976
-4.10946	18h45	-0.3009625
-3.933369	1920	-0.4770369
-3.933369	1981	-0.4735626
-4.10946	2010	-0.2974713
-3.933369	28	-0.4726598
-3.933369	4latannyé	-0.476716
-4.10946	8	-0.2957322
-1.189337	</s>
-99	<s>	-0.3311196
-1.596243	a	-0.3238175
-4.10946	a'w	-0.3009793
-3.296547	a'y	-0.4390272
-3.933369	a-i	-0.4605569
-3.933369	a-ou	-0.4714817
-3.933369	a-w	-0.4754134
-2.963332	a-y	-0.3896765
-4.10946	aa	-0.2719976
-3.933369	aaa	-0.4770369
-4.10946	aba	-0.2902998
-4.10946	abitiyé	-0.2939689
-4.10946	abityèlman	-0.2932995
-3.933369	abityé	-0.4760906
-3.632339	abiyé	-0.409965
-3.456248	abo	-0.4731028
-4.10946	abon	-0.2868784
-3.933369	abîmes	-0.2952707
-4.10946	accord	-0.3009962
-3.048763	achté	-0.3315383
-4.10946	actes	-0.300422
-3.933369	action	-0.2719434
-4.10946	actions	-0.300422
-3.71152	adad	-0.458976
-2.346032	adan	-0.4411164
-4.10946	adanadan	-0.2719976
-3.933369	adans	-0.4714988
-3.80843	adapté	-0.2710764
-4.10946	adapté-y	-0.2898844
-4.10946	adaptés	-0.3009625
-4.10946	admettons	-0.300236
-4.10946	adopté-y	-0.2902998
-4.10946	adoré	-0.3009962
-3.933369	adoumanman	-0.4754134
-3.933369	adyé	-0.4659757
-3.933369	adélya	-0.4653172
-3.632339	afrik	-0.38551
-4.10946	afrikèn	-0.2902998
-4.10946	afè	-0.2898844
-3.933369	agrikilti	-0.2719254
-4.10946	agrikiltè	-0.29486
-4.10946	agrèr	-0.2939689
-4.10946	aides	-0.3001346
-3.933369	aimer	-0.4770706
-3.933369	ajouté	-0.4770369
-3.632339	aka	-0.3519462
-4.10946	ako	-0.2719976
-4.10946	aksantyé	-0.2996608
-3.933369	aksèpté	-0.2719254
-4.10946	aksé	-0.3009793
-4.10946	aksépté	-0.3009287
-3.71152	aktivité	-0.3386376
-4.10946	aktyal	-0.2969435
-3.71152	aktyèlman	-0.2753766
-3.71152	alantou	-0.6878244
-3.933369	alarètrèt	-0.4770706
-3.933369	albè	-0.4700602
-4.10946	ale	-0.300591
-3.80843	alentou	-0.5909144
-4.10946	aliman	-0.3009287
-4.10946	aller	-0.3006079
-3.030279	alo	-0.2316126
-4.10946	alokasyon	-0.2719976
-3.456248	alos	-0.4515753
-3.71152	aloss	-0.4768173
-3.933369	alosse	-0.4770031
-3.933369	alosss	-0.4769693
-3.933369	alyansman	-0.4659757
-3.565392	alè	-0.34774
-3.933369	alèkilé	-0.4700602
-3.933369	alèz	-0.4743446
-3.565392	alé	-0.335876
-3.933369	alélouya	-0.4480889
-4.10946	amisman	-0.2991526
-4.10946	amizman	-0.3007936
-3.933369	amizé	-0.2861106
-3.933369	amoni	-0.4754134
-3.933369	amoué	-0.4770369
-4.10946	amé	-0.2939689
-3.933369	amérendyen	-0.4653172
-1.494036	an	-0.432991
-3.369098	an-mwen	-0.45989
-4.10946	anan	-0.3007936
-4.10946	ananvlop	-0.2719976
-4.10946	ananvè	-0.3009962
-3.068068	anba	-0.4732466
-3.933369	anbenn	-0.4718235
-4.10946	ancien	-0.2960908
-3.933369	and	-0.4770706
-3.933369	andanjé	-0.2994745
-3.234399	andidan	-0.4138762
-3.933369	andwa	-0.4769862
-3.71152	andèwo	-0.6878244
-4.10946	andéwo	-0.2719976
-4.10946	anfas	-0.3009287
-4.10946	anfen	-0.2969435
-3.933369	anfinaldikont	-0.4709513
-3.632339	anfèt	-0.2863725
-3.933369	angiya	-0.4770706
-4.10946	anglofon	-0.2719976
-3.933369	anglophones	-0.4769525
-3.933369	anglé	-0.4663911
-4.10946	angrè	-0.2935571
-3.331309	anivèsè	-0.4798188
-4.10946	anka	-0.3009625
-3.933369	ankaz	-0.4663911
-3.933369	anki	-0.4770706
-4.10946	anklav	-0.3001007
-3.030279	anko	-0.455002
-2.919129	anlo	-0.3226807
-3.331309	anlè	-0.5043053
-3.565392	anlè-la	-0.5729734
-3.933369	anman	-0.4718235
-4.10946	anmèm	-0.3005234
-4.10946	anmèwdé-w	-0.2982533
-3.80843	ann	-0.2901095
-3.933369	anni	-0.4765978
-3.933369	anniversaire	-0.2624198
-4.10946	ano	-0.3009456
-4.10946	anon	-0.3009962
-3.933369	anonsé	-0.4480889
-4.10946	anparfèt	-0.3009287
-3.933369	anpil	-0.476395
-3.71152	anpizé	-0.4661315
-3.71152	anplis	-0.4602762
-3.933369	anplwayé	-0.4770369
-3.933369	anplwayé-la	-0.4653172
-3.933369	anrajé	-0.4480889
-3.933369	anri	-0.4726598
-4.10946	anrichi	-0.2939689
-4.10946	ansalézon	-0.2994915
-2.919129	ansanm	-0.7870024
-4.10946	ansomur	-0.3009962
-4.10946	ansot	-0.2970286
-3.933369	ansuit	-0.292009
-3.632339	ansyen	-0.3807603
-4.10946	ansèt	-0.2868784
-4.10946	ansémoman	-0.2902998
-3.933369	antan	-0.4731199
-3.933369	antann	-0.4721821
-3.933369	antig	-0.4761075
-4.10946	antil	-0.2719976
-4.10946	antillais	-0.2960908
-3.80843	antiyèz	-0.278854
-3.933369	antouléka	-0.4768005
-3.933369	antrè	-0.4693907
-3.80843	antré	-0.2689375
-4.10946	anvi	-0.2719976
-3.80843	anvlop	-0.269337
-3.507401	apa	-0.342191
-4.10946	apar	-0.29486
-3.933369	aparamman	-0.4767836
-4.10946	apati	-0.3003713
-3.933369	apennsi	-0.4770031
-3.71152	apiyé	-0.4748369
-4.10946	apo	-0.2902998
-3.933369	apoué	-0.4770031
-3.80843	aprann	-0.3844853
-3.369098	aprè	-0.3407414
-4.10946	après	-0.2960908
-4.10946	aprèzan	-0.2935571
-2.879012	apré	-0.3877539
-4.10946	apré-	-0.2719976
-4.10946	apréprè	-0.2719976
-3.933369	aprésa	-0.4770706
-3.369098	aprézan	-0.4556905
-3.71152	apwé	-0.4725745
-3.933369	apwézan	-0.4663911
-3.80843	apéprè	-0.271203
-3.933369	ara	-0.4726598
-3.933369	arecaceae	-0.4726598
-4.10946	arivé	-0.2898844
-3.933369	arèsté	-0.4763442
-3.933369	arété	-0.2903517
-4.10946	asezonman	-0.2935571
-2.948092	asi	-0.5260547
-4.10946	asosyasyon	-0.2935571
-3.71152	assi	-0.47702
-3.933369	asèzoné	-0.3006078
-3.933369	asé	-0.3009624
-3.933369	aséfyé	-0.4605569
-3.933369	asérola	-0.2848686
-4.10946	asézonman	-0.2719976
-4.10946	atan	-0.2719976
-3.933369	atandan	-0.47702
-3.565392	atann	-0.4274703
-4.10946	atitid	-0.2868784
-4.10946	atristé	-0.2974713
-3.933369	atè	-0.4746332
-3.41049	au	-0.3973826
-3.80843	aussi	-0.3902954
-4.10946	autour	-0.3009287
-4.10946	autre	-0.2902998
-3.71152	aux	-0.3678418
-2.995517	avan	-0.2864557
-3.80843	avansé	-0.2708413
-4.10946	avec	-0.3009962
-3.565392	avè	-0.3407825
-4.10946	avèk	-0.298542
-3.456248	aw	-0.3682077
-4.10946	awa	-0.2719976
-2.720294	ay	-0.2985686
-4.10946	ayay	-0.2719976
-3.296547	ayen	-0.3114218
-4.10946	ayisyen	-0.3009793
-3.507401	ayiti	-0.3776723
-3.80843	ayè	-0.295903
-3.933369	a’w	-0.4770706
-2.406169	a’y	-0.4770305
-2.747733	ba	-0.4501615
-3.933369	ba-ou	-0.47702
-3.331309	ba-y	-0.414848
-3.933369	baamas	-0.4770369
-3.933369	balan-la	-0.4653172
-4.10946	balon	-0.3009287
-4.10946	balè	-0.3002022
-3.20637	ban	-0.6482743
-3.933369	ban-nou	-0.4770706
-4.10946	banalisation	-0.2719976
-4.10946	bandé	-0.2999147
-3.71152	banglen	-0.455921
-3.933369	banjo	-0.4754472
-4.10946	bank	-0.2993221
-3.933369	bann	-0.4480889
-3.41049	bannann	-0.4629886
-3.933369	bannzil	-0.4752439
-3.933369	bannzil-la	-0.4663911
-4.10946	baril	-0.2957322
-4.10946	bas	-0.300878
-3.933369	bastè	-0.475193
-3.068068	bat	-0.4620349
-3.933369	bata-zendyèn	-0.4770369
-3.565392	bato	-0.3339011
-3.933369	bato-la	-0.4629697
-3.933369	batèm	-0.4770706
-4.10946	baw	-0.2719976
-3.369098	bay	-0.3422909
-3.933369	bayè	-0.4480889
-3.933369	baz	-0.4746332
-3.933369	bazil	-0.4770369
-3.565392	ba’y	-0.469511
-3.71152	bel	-0.4469687
-3.331309	ben	-0.2885568
-3.80843	bi	-0.5730276
-4.10946	bibliotèk	-0.3008443
-4.10946	bibliotèt	-0.300422
-3.632339	bien	-0.4255973
-3.41049	bigin	-0.3394583
-4.10946	bin	-0.292078
-3.933369	bitabita	-0.4766991
-3.71152	bitasyon	-0.4762258
-2.524	biten	-0.3392283
-4.10946	bitin	-0.2939689
-3.933369	bityé	-0.4480889
-2.948092	bizwen	-0.3487332
-3.933369	blakboton	-0.4754472
-3.264363	blan	-0.3345854
-3.80843	blé	-0.2764495
-3.71152	bo	-0.3597822
-3.933369	boat	-0.4696484
-3.933369	bobi	-0.4659757
-3.933369	bodlanmè	-0.4770706
-4.10946	bodèl	-0.2719976
-3.933369	bodé	-0.4659757
-3.933369	bokantaj-palé	-0.4659757
-3.933369	bokanté	-0.4754134
-3.507401	bokit	-0.3095296
-4.10946	bokou	-0.3003037
-3.933369	bol-a-men	-0.4480889
-2.662302	bon	-0.3054405
-3.933369	bondyé	-0.4770538
-3.933369	bonjou	-0.4480889
-3.933369	bonmoun	-0.4770706
-4.10946	bonne	-0.3009962
-4.10946	bonnom	-0.3009793
-3.933369	boskaf	-0.4743446
-3.933369	botan	-0.4753286
-4.10946	bouch	-0.2868784
-3.933369	bouché	-0.4768174
-3.933369	bouden	-0.2705336
-3.456248	boug	-0.3900356
-3.933369	bougenviyé	-0.4770031
-3.933369	bougrès	-0.4770706
-4.10946	boukit	-0.2935571
-3.933369	boula	-0.4480889
-3.933369	boulanger	-0.4696484
-4.10946	boulèt	-0.2719976
-3.80843	bourg	-0.3688535
-4.10946	bourgeois	-0.3009962
-3.507401	bout	-0.6417032
-3.933369	boutiques	-0.4770706
-3.933369	boutt	-0.4480889
-3.933369	boutèy	-0.2677183
-3.933369	bra	-0.4659757
-4.10946	braké	-0.3009962
-3.933369	bravo	-0.4754472
-4.10946	bren	-0.3009962
-3.71152	brilé	-0.4763442
-3.264363	bwa	-0.4991512
-3.933369	bwa-koubari	-0.4659757
-3.933369	bwa-la	-0.4480889
-3.933369	bwajolan	-0.4751591
-3.933369	bwaré	-0.4751591
-4.10946	bwen	-0.3007767
-3.933369	bwitaj	-0.4770706
-3.933369	bwè	-0.4770369
-2.866422	byen	-0.3514159
-3.933369	byendéfwa	-0.4770706
-4.10946	byento	-0.3009456
-3.71152	bè	-0.4768342
-3.933369	bèbèl-jolivans	-0.4730348
-3.933369	bèf	-0.3003882
-3.933369	bèj	-0.4754134
-3.71152	bèk	-0.4769018
-3.030279	bèl	-0.4037876
-3.933369	bèlbèbèl	-0.4629697
-3.71152	bèsyo	-0.6986323
-3.565392	bèt	-0.4649008
-3.71152	bèwjèt	-0.4624114
-3.933369	bélizgwatémala	-0.4770706
-3.933369	bélétan	-0.4663911
-4.10946	c	-0.29486
-3.155218	c'est	-0.4853636
-4.10946	c'est-a	-0.3009287
-3.71152	c'était	-0.4765639
-4.10946	cadeaux	-0.2719976
-4.10946	canabis	-0.2844656
-4.10946	canada	-0.3000838
-3.933369	canal	-0.4767836
-3.933369	canne	-0.4769356
-3.933369	caraibes	-0.4769187
-3.80843	caraïbe	-0.2449553
-4.10946	caraïbéen	-0.2960908
-4.10946	carrière	-0.3009962
-3.71152	case	-0.4747011
-3.80843	cawo	-0.2696637
-3.933369	cayenne	-0.4769356
-4.10946	cd	-0.2932995
-3.933369	cela	-0.3007092
-4.10946	cendres	-0.2932995
-3.933369	cent	-0.4770031
-4.10946	certains	-0.3009456
-3.71152	chabon	-0.4769524
-4.10946	chaché	-0.3009456
-3.933369	chadwon	-0.4480889
-3.933369	chaj	-0.4758198
-3.264363	chak	-0.4504291
-3.933369	chakfwa	-0.4700602
-3.933369	chalviré	-0.4480889
-3.933369	chalè	-0.4769187
-3.933369	chalèston	-0.4754472
-3.71152	chanjé	-0.3661164
-3.933369	channda	-0.4480889
-3.296547	chanté	-0.425384
-4.10946	chanté-y	-0.2719976
-3.933369	chapo	-0.4629697
-3.565392	chapé	-0.6018574
-4.10946	charles	-0.2892259
-3.933369	chaspann	-0.4726598
-3.565392	chat	-0.4428245
-3.933369	chatobren	-0.4770706
-3.933369	chatouyé	-0.4766653
-4.10946	chauvinisme	-0.292078
-3.71152	chayé	-0.4744634
-3.933369	chayé’y	-0.4751591
-3.933369	chenil-la	-0.4653172
-3.565392	chenn	-0.4449016
-3.933369	chenn-lasa	-0.4605569
-3.264363	chimen	-0.3366717
-3.933369	chimen-la	-0.4718235
-3.933369	chimiz	-0.4768849
-3.933369	chiraj	-0.4770706
-3.933369	chiré	-0.4659757
-4.10946	chivè	-0.2969435
-3.369098	chivé	-0.4636666
-3.71152	chivé-la	-0.4718405
-3.933369	chivé-lasa	-0.4653172
-4.10946	chié	-0.2935571
-3.565392	cho	-0.3566654
-3.80843	chomaj	-0.3688535
-3.565392	chonjé	-0.4622717
-3.80843	chou	-0.3871752
-3.933369	chouboulé	-0.4763273
-3.933369	chouk	-0.4629697
-3.71152	chouké	-0.4625685
-3.933369	choz	-0.2624198
-3.933369	chwazi	-0.2703525
-3.456248	chè	-0.283136
-4.10946	chèche	-0.2954075
-4.10946	chèchè	-0.3009962
-2.995517	chèché	-0.3936035
-3.933369	chèlchè	-0.476868
-3.933369	codonnier	-0.4769018
-3.933369	coloniales	-0.2718893
-4.10946	colonisation	-0.3008105
-3.632339	comme	-0.2946203
-4.10946	comment	-0.3009456
-3.71152	commin	-0.4769524
-4.10946	commonwealth	-0.2719976
-3.933369	compouanne	-0.47702
-3.933369	compte	-0.3007599
-3.456248	con	-0.5634775
-4.10946	continent	-0.3008443
-4.10946	continuité	-0.3009962
-4.10946	contre	-0.3006079
-4.10946	conténances	-0.300422
-4.10946	convient	-0.3006585
-3.933369	cornely	-0.4629697
-3.933369	couillon	-0.4769018
-3.933369	couple	-0.2659654
-4.10946	couples	-0.2994915
-3.933369	couter	-0.4767836
-3.933369	couè	-0.476868
-4.10946	crêche	-0.3006079
-4.10946	cuisine	-0.2868784
-4.10946	cuisson	-0.3008105
-4.10946	cul	-0.2719976
-4.10946	culturelle	-0.2898844
-3.933369	cyclone	-0.47702
-3.933369	côté	-0.4766316
-4.10946	d'acteur	-0.3008612
-4.10946	d'autre	-0.3009962
-3.933369	d'autres	-0.4770706
-4.10946	d'avoir	-0.3009287
-4.10946	d'esprit	-0.2982533
-4.10946	d'estaing	-0.2719976
-3.933369	d'intruire	-0.4762259
-4.10946	dabitid	-0.2719976
-3.507401	dabo	-0.5181444
-3.933369	dabow	-0.4760906
-4.10946	dada	-0.2719976
-4.10946	dako	-0.2994915
-3.71152	dan	-0.2997285
-3.933369	danmyé	-0.4770706
-3.933369	dannkit	-0.4763442
-3.10946	dans	-0.5778827
-3.264363	dansé	-0.4455826
-4.10946	dansé-y	-0.29486
-3.80843	dantis	-0.3760658
-3.565392	daprè	-0.5974792
-4.10946	dapré	-0.2974713
-4.10946	darivé	-0.2719976
-3.933369	daré	-0.4768005
-4.10946	david	-0.2902998
-3.180041	davwa	-0.4471859
-3.71152	dayè	-0.2892433
-2.686215	de	-0.348046
-3.933369	demen	-0.2719434
-4.10946	depi	-0.3000162
-3.01255	des	-0.3247251
-3.933369	desann	-0.4769525
-4.10946	desklav	-0.2719976
-4.10946	despo	-0.2939689
-4.10946	despotasyon	-0.2902998
-4.10946	desà	-0.3006079
-4.10946	deux	-0.3009962
-4.10946	developpement	-0.3001346
-2.267476	di	-0.4462076
-3.71152	di'w	-0.3529176
-3.933369	di-mwen	-0.4770369
-3.933369	di-ou	-0.4480889
-3.933369	di-w	-0.2882537
-4.10946	di-y	-0.3007092
-3.933369	di-yo	-0.4726598
-4.10946	dialek	-0.29486
-3.933369	diaspora	-0.4766991
-4.10946	diffé	-0.2719976
-3.933369	différentes	-0.2542643
-4.10946	difikilté	-0.2932995
-3.71152	difisil	-0.4567885
-3.933369	difé	-0.4480889
-3.565392	diféran	-0.3597723
-3.71152	digommier	-0.4761074
-3.088271	dimanch	-0.3412344
-4.10946	dirais	-0.2719976
-3.632339	dire	-0.3505932
-3.80843	direksyon	-0.3903984
-4.10946	diri	-0.2719976
-4.10946	dirijé	-0.3008443
-3.933369	dirèksyon	-0.4659757
-3.933369	dirèktris-lékol-la	-0.4709513
-4.10946	dirèktèman	-0.2902998
-3.80843	dirèktéman	-0.3829332
-4.10946	diré-y	-0.3008612
-4.10946	dis	-0.3006079
-4.10946	diskou	-0.3009962
-3.933369	diskoupé	-0.4754134
-3.41049	disparèt	-0.3734846
-3.933369	distraksyon	-0.4629697
-3.933369	distribiyé	-0.4763442
-3.632339	dit	-0.425783
-4.10946	ditan	-0.2987456
-3.933369	dite	-0.2718171
-3.933369	divizé	-0.4700602
-3.71152	diw	-0.2970116
-3.933369	dizan	-0.476395
-4.10946	diznévè	-0.2719976
-3.933369	dizuitan	-0.4653172
-3.933369	dizè	-0.2568504
-3.933369	djok	-0.4770706
-3.41049	dlo	-0.4118372
-3.933369	do	-0.4629697
-3.933369	dola	-0.4754472
-4.10946	dombré	-0.29486
-3.565392	domi	-0.435958
-3.632339	dominik	-0.3943847
-4.10946	dominiken	-0.3009962
-4.10946	domisil	-0.3009962
-3.933369	donbré	-0.2605157
-3.507401	donc	-0.4378788
-2.451449	donk	-0.3616693
-4.10946	donké	-0.2970286
-4.10946	doron	-0.2982533
-2.842289	dot	-0.4053063
-4.10946	dotmoun	-0.2844656
-3.80843	dou	-0.3914618
-3.565392	doubout	-0.4585359
-4.10946	doudou	-0.2892259
-3.933369	doulè	-0.4629697
-3.933369	dousiné-kanpo	-0.4659757
-3.933369	douslèt	-0.4770706
-3.41049	douvan	-0.4296107
-3.933369	douvanjou	-0.4480889
-3.71152	douvant	-0.4688922
-3.933369	douwé	-0.4770369
-4.10946	douz	-0.3009962
-4.10946	drapo	-0.2957322
-3.933369	drivayè	-0.4770706
-3.933369	drivé	-0.4767498
-4.10946	drès	-0.3009625
-4.10946	dréné	-0.2719976
-3.632339	du	-0.4254114
-4.10946	dur	-0.2719976
-3.80843	dwa	-0.2954246
-3.933369	dwog	-0.4770706
-3.331309	dwèt	-0.3989604
-4.10946	dwét	-0.2953904
-3.369098	dyédonné	-0.5247775
-2.819426	dè	-0.3416124
-3.933369	dè-w	-0.4764457
-3.456248	dègné	-0.5634267
-3.933369	dèkwa-la	-0.4718235
-3.71152	dèmen	-0.476547
-4.10946	dènyè	-0.3008443
-3.933369	dènyé	-0.4681692
-3.933369	dènyé-la	-0.4653172
-3.632339	dèpi	-0.4254621
-3.155218	dèyè	-0.4074436
-3.933369	dèyè’y	-0.4730348
-3.933369	dèyé	-0.4766822
-2.243173	dé	-0.3479192
-3.933369	déba	-0.4659757
-3.933369	débaké	-0.4770706
-4.10946	débodéman	-0.2993221
-3.933369	débouya	-0.4753794
-3.933369	débouya-lasa	-0.4653172
-4.10946	découverte	-0.2987456
-4.10946	dédu	-0.3009962
-4.10946	dédé	-0.3009962
-4.10946	défilé	-0.3000162
-3.933369	dégajé	-0.4714988
-3.933369	dégenn	-0.4659757
-3.933369	dégizé	-0.4700602
-3.933369	dégrenné	-0.4681692
-4.10946	dégueulas	-0.300236
-3.933369	déja	-0.2992543
-3.933369	déjà	-0.4768174
-3.933369	déjéné	-0.2917332
-4.10946	déjénéré	-0.3008105
-3.933369	dékatyé	-0.476716
-3.933369	déklaré	-0.4726598
-4.10946	dékonsantrasyon	-0.2844656
-3.71152	dékouvè	-0.4763442
-4.10946	dékouvèt	-0.2719976
-3.933369	dékré	-0.4770706
-4.10946	délenkan	-0.2935571
-3.933369	délè	-0.4700602
-4.10946	démografi	-0.2719976
-4.10946	démontré	-0.3009962
-3.933369	démélé	-0.4700602
-3.71152	déotwa	-0.4472942
-4.10946	dépa	-0.3001515
-3.933369	dépalé	-0.4480889
-3.565392	dépann	-0.4745823
-3.71152	dépawfwa	-0.4626034
-4.10946	dépendance	-0.3009456
-3.048763	dépi	-0.3595634
-3.565392	déplasé	-0.4603815
-4.10946	dérivé	-0.2898844
-3.933369	désandan	-0.4659757
-3.933369	désann	-0.4770706
-4.10946	désen	-0.2868784
-3.80843	désidé	-0.3861359
-4.10946	désirad	-0.300591
-3.933369	désè	-0.4770706
-3.933369	désèwten	-0.4751591
-3.933369	détaché	-0.4746332
-3.933369	détui	-0.476868
-3.565392	détwa	-0.4759552
-4.10946	développement	-0.3008612
-3.933369	dévenn	-0.4480889
-3.933369	déviré	-0.4629697
-3.632339	dévlopman	-0.2793687
-3.71152	dévlopé	-0.2996947
-3.71152	déwo	-0.3617041
-3.933369	déyès	-0.4770706
-4.10946	dézan	-0.3004558
-3.71152	dézirad	-0.4480347
-3.933369	dézyèm	-0.4681692
-4.10946	dézyèman	-0.3009793
-4.10946	dézè	-0.2719976
-3.507401	e	-0.396105
-4.10946	effectivement	-0.2719976
-4.10946	effectivemnt	-0.292078
-3.80843	egzanp	-0.2866866
-4.10946	ekzakteman	-0.3007767
-3.80843	ekzamp	-0.2633227
-3.933369	ekzanp	-0.2925945
-4.10946	ekzat	-0.300236
-4.10946	ekzisté	-0.2719976
-3.933369	elayiz	-0.4700602
-3.933369	emil	-0.4653172
-2.787241	en	-0.3574392
-3.933369	enben	-0.3000669
-4.10946	enclave	-0.3001007
-3.933369	enco	-0.4480889
-4.10946	endépandan	-0.3006585
-4.10946	enfants	-0.3009456
-4.10946	enfeksyon	-0.2902998
-4.10946	enfin	-0.3001346
-4.10946	enfomasyon	-0.2953904
-4.10946	enfèt	-0.3009793
-3.632339	enki	-0.4216777
-3.71152	enkyèt	-0.460206
-3.369098	enmé	-0.4758198
-4.10946	enpa	-0.2719976
-3.933369	enpotan	-0.2873315
-3.80843	enpoté	-0.2679915
-4.10946	enprovizé	-0.2719976
-3.933369	enpé	-0.3009118
-4.10946	ensidans	-0.2953904
-4.10946	enstri	-0.2719976
-3.632339	enstriman	-0.3772439
-4.10946	ensuite	-0.3009793
-4.10946	entre	-0.3009962
-4.10946	entrisman	-0.2902998
-3.71152	entrodui	-0.3220937
-3.933369	entèl	-0.3006754
-4.10946	entèltyél	-0.2902998
-4.10946	entérésan	-0.2719976
-4.10946	entérésé	-0.2974713
-3.80843	envité	-0.3959948
-3.933369	envitéw	-0.4751591
-3.933369	es	-0.4693907
-4.10946	esklav	-0.3006585
-4.10946	eskè	-0.3006248
-3.507401	eské	-0.5046631
-3.933369	espliké	-0.2918022
-4.10946	espoté	-0.300878
-4.10946	espoté-y	-0.3008612
-4.10946	espré	-0.2969435
-4.10946	espéryans	-0.3009625
-4.10946	espéré	-0.2719976
-3.933369	espésyalman	-0.2968753
-3.933369	ess	-0.4718235
-3.80843	est	-0.2717991
-4.10946	est-il	-0.3007092
-3.369098	et	-0.475193
-3.80843	euh	-0.3688535
-4.10946	euro	-0.2969435
-3.933369	ewopéyen	-0.4653172
-3.933369	exactement	-0.2605157
-3.933369	fab-la	-0.4605569
-3.933369	faire	-0.3002698
-3.507401	fait	-0.4338982
-3.933369	fal	-0.4770706
-3.933369	famille	-0.2843779
-4.10946	familles	-0.3009962
-3.933369	fanfoulich	-0.4605569
-3.10946	fanm	-0.460719
-3.933369	fanm-bitasyon	-0.4480889
-3.933369	fanme	-0.4770706
-3.030279	fanmi	-0.4235751
-3.933369	fanmi-zotèy	-0.4770706
-4.10946	fannm	-0.292078
-3.20637	farin	-0.503702
-3.565392	fason	-0.2852713
-4.10946	fasèt	-0.3009962
-3.933369	faut	-0.2932651
-3.933369	favè	-0.4768343
-3.933369	façon	-0.2710402
-3.71152	fen	-0.4678762
-3.80843	fenfon	-0.3867425
-3.933369	fengnan	-0.4480889
-4.10946	festif	-0.2932995
-4.10946	festive	-0.3009625
-3.80843	fey	-0.3715878
-3.71152	fi	-0.3648093
-3.933369	fianmizi	-0.4726598
-4.10946	fidèlité	-0.3008612
-3.933369	fier	-0.2718532
-2.948092	fifi	-0.5584061
-3.933369	figi	-0.4754134
-3.933369	figue	-0.4770706
-4.10946	fiks	-0.2719976
-3.632339	fil	-0.53268
-4.10946	fils	-0.3001346
-3.933369	filé	-0.4769356
-4.10946	fim	-0.2935571
-3.331309	fin	-0.4578389
-3.71152	finalman	-0.3216432
-3.933369	fini	-0.3009118
-4.10946	fininalman	-0.2868784
-4.10946	fisèl	-0.292078
-3.933369	fiy	-0.4659757
-3.933369	fiyansay	-0.4770369
-3.933369	fiyè	-0.2659837
-3.933369	flanm	-0.4629697
-3.933369	flora	-0.4768174
-3.933369	florid	-0.4721821
-3.131737	flè	-0.8224422
-3.933369	flègèdènou	-0.4714817
-3.71152	fléri	-0.4653345
-2.694487	fo	-0.5179967
-3.565392	fois	-0.295074
-3.933369	fol	-0.4754472
-3.565392	fom	-0.4557615
-3.933369	fon	-0.4659757
-4.10946	fonksyon	-0.298542
-3.933369	fonmé	-0.4714988
-4.10946	formation	-0.3008612
-4.10946	forme	-0.3001346
-3.088271	fos	-0.5125751
-3.933369	fosé	-0.4765978
-3.933369	foséman	-0.4480889
-4.10946	foséw	-0.2868784
-3.933369	foséyè	-0.4730348
-3.80843	foto	-0.5909144
-3.933369	fou	-0.4754472
-3.565392	foula	-0.4750744
-3.456248	foumi	-0.4417821
-3.933369	foumi1	-0.4770706
-3.71152	four	-0.261478
-3.933369	fouré	-0.4770706
-3.71152	fout	-0.4668233
-3.933369	fouti	-0.4693907
-3.80843	fouté	-0.2999823
-3.933369	foutépamal	-0.4753286
-3.71152	fouyé	-0.4760567
-3.933369	fowmé	-0.4769693
-4.10946	france	-0.2719976
-4.10946	francesca	-0.2719976
-3.565392	frans	-0.3396514
-3.933369	fransè	-0.4480889
-4.10946	fransèz	-0.3002529
-3.565392	fransé	-0.3552154
-3.632339	fri	-0.3228794
-4.10946	frijidè	-0.2719976
-4.10946	frikasé	-0.2994915
-3.933369	frizé	-0.4754134
-4.10946	frui	-0.2932995
-3.933369	fré-la	-0.4480889
-3.933369	fréné	-0.2712933
-4.10946	fur	-0.300422
-3.369098	fwa	-0.2648693
-3.933369	fwan	-0.4754472
-3.933369	fwansé	-0.4605569
-3.933369	fwomajé	-0.4769018
-3.131737	fwè	-0.8365076
-3.456248	fwèt	-0.4492061
-3.565392	fyè	-0.3942792
-2.143319	fè	-0.3632692
-3.933369	fè'w	-0.4768511
-3.507401	fè-y	-0.2849475
-3.565392	fèmé	-0.3966554
-4.10946	fèmété	-0.2868784
-3.80843	fès	-0.5730276
-2.933369	fèt	-0.4202897
-3.71152	fèy	-0.4658891
-3.933369	fè’y	-0.4714988
-3.933369	fé	-0.4693907
-4.10946	fényan	-0.2954075
-3.933369	fésé	-0.4765978
-4.10946	fété	-0.3009962
-4.10946	févriyé	-0.2719976
-3.933369	fête	-0.4770706
-3.933369	fêtes	-0.2719254
-2.919129	gadé	-0.355049
-3.71152	gadé-mwen	-0.4769693
-4.10946	gadé-y	-0.2719976
-4.10946	galante	-0.3001007
-3.933369	galba	-0.2811214
-3.933369	gangann	-0.4659757
-3.565392	gangné	-0.4711738
-3.933369	ganm	-0.4663911
-3.933369	ganm-la	-0.476395
-3.933369	ganmé	-0.4769525
-4.10946	gare	-0.3009287
-3.507401	gason	-0.4971538
-3.933369	gason-anbaglaj	-0.4659757
-3.565392	gato	-0.5928494
-3.80843	gaté	-0.2876101
-4.10946	gaté-y	-0.3008443
-3.933369	gay	-0.4770031
-3.933369	gaël	-0.2624198
-4.10946	gdcf	-0.2719976
-3.296547	genbo	-0.4508767
-4.10946	gentihomme	-0.2719976
-3.933369	gidonné	-0.4735626
-4.10946	giscard	-0.3009962
-4.10946	gita	-0.2719976
-3.933369	giyann-la	-0.4766316
-3.933369	goj	-0.4769018
-3.933369	gol	-0.4767667
-4.10946	gomon	-0.2719976
-3.71152	gonflé	-0.4725745
-3.80843	gou	-0.3674436
-3.933369	goud	-0.4754472
-4.10946	goumé	-0.2969435
-4.10946	gouvènèman	-0.2935571
-3.80843	gouvènéman	-0.2762352
-3.933369	goyav	-0.2640033
-3.565392	gra	-0.2783386
-3.933369	grabyo	-0.4770706
-3.933369	graisseries	-0.4696484
-4.10946	graj	-0.2932995
-2.777022	gran	-0.4689094
-3.933369	gran-apa	-0.4770369
-3.565392	grand	-0.4766316
-3.933369	grande	-0.3009456
-4.10946	grandes	-0.3009962
-3.565392	grandi	-0.3506289
-3.933369	grands	-0.4770706
-4.10946	granmoun	-0.2902998
-3.933369	grannonm	-0.4769356
-3.933369	grannonm-la	-0.4743446
-3.565392	gras	-0.4514142
-3.933369	gratuitman	-0.2568504
-3.71152	grenn	-0.4329417
-3.933369	grigné	-0.4753794
-4.10946	griy	-0.2932995
-4.10946	griyo	-0.3009962
-4.10946	griyé	-0.3006248
-4.10946	griz	-0.2999147
-3.507401	gro	-0.2987838
-3.933369	group	-0.4770706
-3.933369	grésé	-0.4770538
-3.933369	guadeloupe	-0.4770706
-4.10946	guadloupéen	-0.2719976
-4.10946	guiyan	-0.2719976
-3.933369	guy	-0.4770706
-4.10946	guyan	-0.2932995
-4.10946	gwada	-0.2719976
-4.10946	gwadeloup	-0.3008443
-3.048763	gwadloup	-0.3350378
-3.71152	gwadloupéyen	-0.4762089
-4.10946	gwadoup	-0.3009962
-3.933369	gwatémala	-0.4767667
-3.155218	gwo	-0.4006863
-3.131737	gwoka	-0.7004223
-3.933369	gwossi	-0.4605569
-3.565392	gwoup	-0.4535577
-3.933369	gwoup-la	-0.4605569
-3.933369	gyaka	-0.476868
-3.933369	gyok	-0.4480889
-3.71152	gyèl	-0.4765639
-3.933369	gèl	-0.4659757
-4.10946	gèrié	-0.3009962
-4.10946	gèy	-0.3009962
-3.565392	ha	-0.6015871
-3.933369	had	-0.4605569
-3.565392	hak	-0.4563284
-3.933369	hay	-0.4766653
-3.632339	hello	-0.7780499
-3.933369	henkenchyen	-0.4480889
-4.10946	hercule	-0.2965685
-4.10946	hispanophones	-0.2844656
-3.933369	hou	-0.4768343
-2.729249	hum	-0.9629513
-4.10946	humaine	-0.3009456
-4.10946	humhum	-0.2719976
-3.933369	hélé-mwen	-0.4768174
-1.990535	i	-0.6927674
-3.20637	idantité	-0.6507358
-3.933369	idanté	-0.4663911
-4.10946	idé	-0.2999147
-3.933369	idée	-0.4766991
-4.10946	ifo	-0.2965685
-3.933369	ika	-0.4770706
-3.565392	il	-0.2981123
-4.10946	ilitizé	-0.2719976
-4.10946	ils	-0.3009625
-4.10946	imaj	-0.2868784
-4.10946	in	-0.29486
-4.10946	indiens	-0.3001346
-4.10946	indépendants	-0.2932995
-4.10946	infections	-0.2719976
-4.10946	inikman	-0.3009625
-3.933369	inosan	-0.4480889
-4.10946	intérêt	-0.2719976
-4.10946	inè	-0.3009962
-4.10946	irresponsable	-0.2719976
-3.933369	isi	-0.2695548
-3.933369	isidan	-0.4714817
-4.10946	issu	-0.3001346
-3.933369	istil	-0.4770031
-3.632339	istorik	-0.3995986
-3.369098	istwa	-0.4273567
-4.10946	itilize-y	-0.3008443
-3.632339	itilizé	-0.2988453
-4.10946	itilizé-y	-0.2996608
-4.10946	ivèr	-0.2939689
-3.80843	j'ai	-0.3978218
-2.948092	ja	-0.4065325
-3.180041	jaden	-0.4571068
-4.10946	jai	-0.3005403
-3.71152	jakob	-0.4629174
-2.757278	jan	-0.4406117
-3.933369	jan-maché	-0.4770369
-3.933369	janbé	-0.476395
-3.933369	janmayik	-0.4769862
-3.933369	janmé	-0.4764287
-3.933369	jaélia	-0.2568504
-3.71152	je	-0.3678249
-3.41049	jen	-0.4089904
-3.456248	jenn	-0.4741916
-3.933369	jenne	-0.4770706
-3.933369	jennjan	-0.4653172
-4.10946	jessica	-0.3009456
-4.10946	jet	-0.3009962
-3.80843	jin	-0.2983722
-3.296547	jis	-0.425925
-3.71152	jisak	-0.4472581
-3.933369	jisk	-0.2890698
-3.933369	jiska	-0.3005572
-4.10946	jisko	-0.3009287
-3.933369	jistan	-0.4770706
-3.933369	jiston	-0.4653172
-3.80843	jistéman	-0.2636907
-4.10946	jod	-0.2719976
-3.933369	jod-la	-0.4480889
-3.80843	jodi	-0.5945871
-3.01255	jodijou	-0.3995135
-3.20637	jodla	-0.3858063
-4.10946	jolinèt	-0.2719976
-3.933369	jone	-0.4769356
-2.767038	jou	-0.4358308
-3.933369	jou-lasa	-0.4770706
-3.933369	joudijou	-0.2915608
-3.933369	jouer	-0.4770369
-3.71152	jouné	-0.4746162
-3.933369	jous	-0.4629697
-3.933369	jouwé	-0.4714988
-4.10946	justement	-0.3009962
-3.933369	jwenn	-0.4769693
-3.180041	jwé	-0.2978115
-3.80843	jà	-0.3977712
-4.10946	jèm	-0.2986777
-3.565392	jèn	-0.2967458
-3.632339	jé	-0.2850263
-3.71152	jénéral	-0.2538318
-3.369098	jénéralman	-0.3403091
-4.10946	jénérasyon	-0.2935571
-3.933369	jéografik	-0.4766484
-3.933369	jérè	-0.4659757
-3.131737	jéwom	-0.7066498
-4.10946	k'an	-0.3007767
-3.933369	k'ay	-0.2934712
-1.426864	ka	-0.4280604
-3.456248	ka'w	-0.9533133
-3.933369	kabouya-la	-0.4766147
-3.71152	kabrit	-0.4710026
-4.10946	kabwa	-0.298542
-3.71152	kadans	-0.6878244
-3.131737	kado	-0.3288822
-4.10946	kadré-y	-0.3000162
-4.10946	kadè	-0.3008443
-3.933369	kagou	-0.4480889
-3.933369	kajou	-0.4770369
-3.933369	kaka	-0.4770369
-3.933369	kakwè	-0.4629697
-3.933369	kal	-0.4659757
-4.10946	kalaja	-0.2902998
-3.933369	kalipso	-0.4709513
-3.507401	kalité	-0.2782749
-3.933369	kalkilé	-0.4753286
-4.10946	kan	-0.2892259
-4.10946	kanalizé	-0.29486
-3.632339	kanaval	-0.4085267
-4.10946	kanavalèks	-0.2719976
-3.933369	kanklo	-0.4768005
-3.933369	kanmem	-0.3004896
-4.10946	kanmen	-0.29486
-4.10946	kanmèm	-0.300236
-3.565392	kann	-0.3861186
-3.933369	kannal-la	-0.4770369
-3.933369	kanpèch	-0.4480889
-3.933369	kanta	-0.4770706
-3.933369	kantik	-0.4754134
-4.10946	kantil	-0.2960908
-4.10946	kapab	-0.2970286
-3.71152	kapasité	-0.3114411
-4.10946	kapestè	-0.3006416
-4.10946	kapital	-0.3008105
-3.933369	kapsil	-0.4770706
-3.80843	karant	-0.397653
-3.71152	karapat	-0.4725915
-3.71152	karapat-la	-0.4716697
-3.933369	karata3	-0.4714988
-3.234399	karayib	-0.5532162
-3.933369	karayib-ia	-0.4768343
-3.933369	karayib-la	-0.4629697
-3.933369	karibéyenn-la	-0.4762428
-3.933369	karisti	-0.4659757
-3.933369	karo-fè	-0.4659757
-4.10946	karot	-0.2902998
-4.10946	karèm	-0.2957322
-4.10946	karé	-0.2987456
-3.71152	karésol	-0.45145
-3.933369	karésé	-0.4700602
-3.933369	karésé-w	-0.4768343
-3.933369	kas	-0.4770706
-3.71152	kasav	-0.3457297
-4.10946	kasavri	-0.2954075
-3.71152	kaskod	-0.447475
-3.180041	kat	-0.4254994
-4.10946	katégori	-0.298542
-3.933369	kaw	-0.4730348
-3.456248	kawtyé-la	-0.4598725
-3.048763	kay	-0.2986248
-3.933369	kayi	-0.4718235
-4.10946	kayou	-0.3008443
-2.919129	kaz	-0.5612878
-4.10946	ke	-0.2932995
-4.10946	ken	-0.3008949
-3.933369	kenbé	-0.4770369
-1.850584	ki	-0.3613669
-3.71152	kiba	-0.4769524
-3.933369	kidonk	-0.4653172
-3.234399	kifè	-0.4939005
-3.71152	kijan	-0.4717038
-3.933369	kikoté	-0.4768005
-3.933369	kilibibi	-0.4629697
-4.10946	kilinè	-0.2868784
-3.933369	kilomèt	-0.4629697
-3.264363	kilti	-0.3035336
-3.296547	kiltirèl	-0.4926289
-3.933369	kiltivé	-0.2703525
-4.10946	kilè	-0.2957322
-3.933369	kimbè-w	-0.4659757
-3.80843	kimbé	-0.3968754
-3.131737	kimoun	-0.5113818
-4.10946	king	-0.2719976
-3.71152	kisé	-0.6988181
-3.933369	kitan	-0.4663911
-3.632339	kitty	-0.3867863
-3.933369	ki’y	-0.4721821
-4.10946	klan	-0.3009625
-3.933369	klassik	-0.4696484
-3.80843	klima	-0.3961813
-4.10946	klux	-0.3009962
-3.565392	klè	-0.5832455
-3.41049	ko	-0.4689538
-3.80843	kochon	-0.2786585
-3.80843	kod	-0.3757817
-3.933369	kodé	-0.4681692
-3.80843	kok	-0.3574257
-3.933369	kok-genm	-0.4629697
-3.565392	koko	-0.4662354
-3.933369	kokozyé	-0.4659757
-3.331309	kolombo	-0.4613253
-3.933369	kolon	-0.4770031
-3.933369	kolonaj	-0.4681692
-3.71152	kolonbi	-0.6882398
-3.933369	kolonbo	-0.4659757
-4.10946	koloni	-0.2965685
-3.933369	kolonyal	-0.4770706
-3.933369	kolyé	-0.4480889
-3.068068	kom	-0.2853414
-4.10946	koman	-0.2868784
-3.71152	komantasyon	-0.4678073
-3.41049	komin	-0.3945263
-3.933369	komin-	-0.4696484
-3.933369	komin-lasa	-0.4714817
-4.10946	kominiké	-0.2719976
-4.10946	kominotaris	-0.2719976
-4.10946	komun	-0.2954075
-4.10946	komunoté	-0.2719976
-3.933369	komè-	-0.4480889
-4.10946	komèsyal	-0.2902998
-4.10946	komèsé	-0.2939689
-2.397653	kon	-0.4566734
-3.80843	konba	-0.3609133
-4.10946	konbat	-0.3005065
-3.933369	konbyen	-0.2987117
-4.10946	kondi	-0.3009625
-4.10946	kondisyon	-0.3009962
-4.10946	kondisyoné	-0.3009287
-4.10946	konet	-0.3009118
-4.10946	konfimé	-0.2932995
-3.632339	konfyans	-0.369433
-3.933369	kongné	-0.4765978
-3.71152	kongo	-0.2621799
-3.933369	konkonm	-0.4763104
-4.10946	konkonsa	-0.3002191
-3.933369	konmansman	-0.4659757
-3.933369	konmès	-0.4663911
-3.933369	konngo	-0.4770706
-3.456248	konnèt	-0.3275366
-4.10946	konolyalis	-0.2990678
-4.10946	konplètman	-0.3003206
-3.933369	konplé	-0.4726598
-3.933369	konpran	-0.4768005
-3.632339	konprann	-0.3067681
-3.933369	konpwann	-0.4770369
-3.71152	konpwanndi	-0.4661142
-3.456248	konpè	-0.4570713
-4.10946	konpétiti-	-0.2719976
-3.933369	konpétivité	-0.2935227
-3.131737	konsa	-0.3973692
-3.632339	konsi	-0.4103325
-3.933369	konsidiré	-0.4629697
-3.933369	konsidérasyon	-0.4748369
-3.632339	konsidéré	-0.4059541
-3.80843	konsomasyon	-0.2821274
-3.41049	konsomé	-0.2878254
-3.80843	konsomé-y	-0.3569808
-3.933369	konstaté	-0.3008949
-3.933369	konstitisyon	-0.4663911
-4.10946	konstrui	-0.3009962
-3.933369	konstwi	-0.4768511
-3.933369	konsui	-0.4714988
-3.933369	konsyans	-0.4663911
-3.71152	konsèvé	-0.3550614
-4.10946	konsèvé-y	-0.3009793
-4.10946	konsèvéé	-0.2719976
-3.933369	konséyé’y	-0.4767329
-3.030279	kont	-0.433954
-4.10946	konti	-0.2719976
-3.80843	kontinan	-0.3978556
-4.10946	kontinyé	-0.3003882
-3.933369	kontribann	-0.4480889
-4.10946	kontrolé	-0.2719976
-4.10946	kontrèman	-0.300236
-3.71152	kontré	-0.476547
-3.933369	kontèdmanti	-0.4681692
-3.933369	kontèl	-0.4770706
-3.369098	konté	-0.4215754
-3.933369	konvwa	-0.4659757
-3.933369	konvwa-la	-0.4653172
-3.41049	konwa	-0.2745175
-3.933369	konyenla	-0.4629697
-4.10946	konyè	-0.2935571
-4.10946	konyé	-0.2844656
-3.933369	konèt	-0.3002867
-3.933369	kostarika	-0.4663911
-4.10946	kostim	-0.2719976
-3.933369	kosyè	-0.4770369
-3.933369	koton	-0.4663911
-3.933369	koton-la	-0.4663911
-3.933369	kott-soulvan	-0.4653172
-3.234399	koté	-0.3782946
-3.933369	kotésit	-0.4766822
-3.456248	kou	-0.3715965
-3.933369	kouché	-0.4629697
-4.10946	koujèt	-0.292078
-3.71152	koulè	-0.4767667
-3.632339	koulé	-0.5240888
-3.80843	koumansé	-0.3966047
-3.71152	koupé	-0.4769524
-4.10946	kouran	-0.2719976
-3.71152	kouri	-0.36083
-3.632339	kout	-0.4090886
-3.71152	kouté	-0.4329417
-4.10946	kouw	-0.3009287
-3.933369	kouzen	-0.2849387
-3.80843	kouzin	-0.3961813
-3.933369	kouzyé	-0.4663911
-3.933369	kowosol	-0.4770706
-3.565392	kra	-0.5729012
-3.933369	kraché	-0.4629697
-3.933369	kravat	-0.4770031
-3.933369	krenkwennè	-0.4763442
-3.933369	krentt	-0.4629697
-3.933369	kri	-0.4770706
-3.234399	krikett	-0.472906
-3.933369	kristof	-0.4770706
-3.933369	kritik	-0.4754472
-2.995517	kriyé	-0.3545626
-3.71152	kriyé-mwen	-0.4769862
-4.10946	kriyé-y	-0.2719976
-4.10946	krèm	-0.3001007
-4.10946	krèp	-0.2970286
-3.933369	krèy	-0.4659757
-3.030279	kréol	-0.4471171
-4.10946	kréyativé	-0.2898844
-3.632339	kréyol	-0.409965
-3.71152	kréyé	-0.2788895
-4.10946	ku	-0.3009962
-3.933369	kui	-0.4629697
-3.80843	kuit	-0.2844305
-3.234399	kuizin	-0.3451634
-3.933369	kuiziné	-0.267226
-3.80843	kultur	-0.2616998
-3.41049	kwa	-0.4772394
-3.933369	kwen	-0.4659757
-3.71152	kwi	-0.6986999
-3.71152	kwi-la	-0.4663391
-3.296547	kwè	-0.5104735
-3.933369	kyakya	-0.4754472
-3.933369	kyolé	-0.4761413
-3.933369	kyonkyon	-0.4765302
-3.933369	kyé	-0.4770369
-2.738393	kè	-0.343963
-3.933369	kèk	-0.4770706
-3.933369	kès	-0.2716005
-3.933369	kèsyon-lasa	-0.4653172
-2.037578	ké	-0.2766241
-4.10946	kéki	-0.2969435
-3.933369	késtyon	-0.2961249
-3.234399	k’ay	-0.4605919
-4.10946	l	-0.3009962
-3.933369	l'agent	-0.4769018
-4.10946	l'air	-0.3009287
-4.10946	l'amener	-0.300422
-3.933369	l'anmou	-0.4754134
-3.933369	l'année	-0.4770706
-3.71152	l'extérieur	-0.2675907
-4.10946	l'histoire	-0.3008105
-4.10946	l'historique	-0.3001346
-4.10946	l'homme	-0.3009625
-4.10946	l'inra	-0.2939689
-4.10946	l'état	-0.2994915
-1.768026	la	-0.4389198
-3.933369	labastiy	-0.4629697
-4.10946	labaz	-0.2719976
-3.456248	labitid	-0.4653171
-3.933369	labon	-0.4770706
-3.933369	labowdèlèz	-0.4605569
-3.71152	ladja	-0.4596441
-3.71152	ladominik	-0.350113
-4.10946	ladézirad	-0.2719976
-4.10946	lafan	-0.2719976
-4.10946	lafanmi	-0.2902998
-3.80843	lafen	-0.3688715
-3.933369	lafimé	-0.4659757
-3.933369	laflimé	-0.4659757
-3.80843	lafrans	-0.2716005
-3.933369	lafrik	-0.4629697
-4.10946	laguadeloup	-0.2719976
-4.10946	lagwadloup	-0.3009456
-3.933369	lagwadloupéyèn	-0.4753286
-3.933369	lagé	-0.4769356
-4.10946	lagé-y	-0.3009793
-3.71152	laide	-0.4769187
-4.10946	laise	-0.2991526
-4.10946	laissent	-0.3009793
-3.71152	laj	-0.4765977
-3.632339	lajan	-0.5074822
-3.933369	lajol	-0.271781
-3.933369	lajouné	-0.4766653
-4.10946	lakanaval	-0.292078
-3.933369	lakanpay	-0.4653172
-3.456248	lakat	-0.4179632
-4.10946	lakaz	-0.3001007
-4.10946	lakilti	-0.3009625
-3.933369	lakontantman	-0.4480889
-3.933369	lakrent	-0.4709513
-3.933369	lalin	-0.4605569
-3.933369	lalit	-0.4480889
-3.933369	lalitérati	-0.4754472
-3.933369	laliwonnaj	-0.4659757
-3.933369	laliwonnaj-lasa	-0.4768849
-3.933369	lalé	-0.4770706
-4.10946	lamen	-0.2719976
-3.632339	lanbi	-0.3145121
-3.933369	lanbéli	-0.4480889
-4.10946	landémen	-0.2719976
-3.369098	lang	-0.4198158
-3.933369	langaj	-0.2946374
-3.565392	langoust	-0.296802
-3.933369	langues	-0.2716366
-3.933369	lankan	-0.4753794
-3.933369	lanm	-0.476395
-4.10946	lanmen	-0.29486
-3.71152	lanmo	-0.4489721
-3.565392	lanmou	-0.4489182
-3.41049	lanmè	-0.3500451
-4.10946	lanmèd	-0.2997285
-3.933369	lanmès	-0.4770369
-3.71152	lanméri	-0.4729836
-3.933369	lanmérik	-0.4770706
-3.369098	lanné	-0.5247069
-3.933369	lanprèsman	-0.4770031
-3.933369	lansbètran	-0.4769018
-4.10946	lansrokèt	-0.2992882
-3.933369	lantiy	-0.4629697
-3.80843	lantman	-0.2924224
-3.71152	lantou	-0.4766653
-3.933369	lantèman	-0.4696484
-4.10946	lanvironman	-0.2719976
-3.933369	lapansé	-0.3009287
-3.933369	laparizyèn	-0.4605569
-4.10946	laparèt	-0.3001515
-3.933369	lapenn	-0.4770706
-3.71152	lapenti	-0.471208
-3.933369	laplas	-0.4659757
-3.369098	lapli	-0.5333552
-3.933369	laplipa	-0.3003375
-4.10946	lapolis	-0.2892259
-3.933369	laprizon	-0.2960396
-3.933369	lapèldéchanpyon	-0.4480889
-3.80843	lari	-0.3760658
-3.933369	larichès	-0.4709513
-3.565392	larèl	-0.8339525
-4.10946	larézistanlarezistan	-0.292078
-3.507401	las	-0.409578
-3.456248	lasa	-0.4500152
-4.10946	lasé	-0.3008949
-3.933369	latannyé	-0.4480889
-3.933369	latannyé4madanm-la	-0.4653172
-4.10946	latravèsé	-0.3009962
-3.933369	lavalyè-la	-0.4765302
-3.933369	lavan	-0.4681692
-4.10946	lavantaj	-0.300878
-3.264363	lavi	-0.4529336
-3.933369	lavwa	-0.4480889
-4.10946	lavé	-0.2868784
-3.933369	lavéyé	-0.4653172
-3.369098	le	-0.3518111
-4.10946	lekstériyè	-0.2939689
-4.10946	lekszitwa	-0.2969435
-3.565392	len	-0.4648488
-3.933369	lenbé	-0.4629697
-3.933369	lend	-0.4653172
-3.80843	lendi	-0.5730276
-4.10946	lendistri	-0.2957322
-3.933369	lenflyans	-0.4663911
-3.234399	lenj	-0.2767501
-4.10946	lenprézyon	-0.2970286
-4.10946	lenstan	-0.2935571
-4.10946	lentènèt	-0.2902998
-3.369098	les	-0.3850639
-4.10946	lesklavaj	-0.2719976
-3.933369	lespotasyon	-0.2701713
-4.10946	lestomak	-0.2719976
-3.01255	li	-0.3099418
-3.933369	libanè-la	-0.4709513
-3.71152	libèté	-0.6928
-4.10946	libéré	-0.2719976
-4.10946	lidik	-0.3008612
-3.933369	lidé	-0.4770706
-3.933369	lidé-lasa	-0.4766653
-4.10946	lil	-0.2935571
-3.456248	lilèt	-0.4522013
-3.933369	lilèt-la	-0.4605569
-3.71152	limenm	-0.4761243
-4.10946	limit	-0.2719976
-3.71152	lis	-0.4609599
-3.933369	lison	-0.4753286
-3.933369	lisé	-0.4700602
-3.80843	lité	-0.2671895
-4.10946	livèr	-0.2939689
-3.933369	lizin	-0.2771277
-3.933369	lizyè	-0.4769862
-3.507401	lo	-0.3169424
-3.933369	lod	-0.4659757
-3.71152	lodè	-0.47702
-3.71152	lodè-la	-0.4433172
-4.10946	loganizasyon	-0.2970286
-4.10946	lojé	-0.2982533
-3.933369	lokans	-0.4659757
-4.10946	lokasyon	-0.2996608
-3.565392	lokazyon	-0.4725234
-3.565392	lontan	-0.2947727
-3.933369	lopilans	-0.4763104
-3.068068	lot	-0.4215136
-2.979127	lot-la	-0.5091795
-4.10946	lou	-0.2965685
-3.933369	louragan	-0.4709513
-3.71152	luil	-0.4769524
-3.933369	lwa	-0.4770706
-3.507401	lwen	-0.4767141
-4.10946	lwil	-0.3008949
-3.933369	lyanné	-0.4754134
-3.632339	là	-0.4253438
-2.195647	lè	-0.4985812
-3.933369	lèd	-0.4480889
-3.933369	lèren	-0.4629697
-3.933369	lèsplikasyon	-0.4753286
-3.71152	lèspri	-0.6878244
-3.71152	lèstonmak	-0.4612051
-3.933369	lèstravay	-0.4752439
-3.933369	lèsé	-0.4770031
-3.456248	lèwvwè	-0.4580952
-2.995517	lé	-0.3588687
-4.10946	léana	-0.2719976
-4.10946	léfiji	-0.2719976
-3.933369	léhou	-0.4770706
-3.933369	lékilib	-0.4753286
-3.933369	lékol	-0.2947402
-4.10946	lékomès	-0.3009962
-3.933369	lékouz	-0.4770706
-3.933369	lélanné	-0.4770706
-3.933369	lématématik	-0.4754472
-3.507401	lépok	-0.3454027
-4.10946	lérélasyon	-0.298542
-3.933369	lésent	-0.4770369
-3.933369	lésott	-0.4730348
-3.80843	lésé	-0.3901579
-4.10946	lésé-y	-0.3009962
-3.71152	léta	-0.6988856
-4.10946	lété	-0.2939689
-3.80843	lévolisyon	-0.2418333
-3.933369	lévwa	-0.4653172
-3.933369	lévwaz	-0.4770706
-3.180041	lévé	-0.4017543
-4.10946	lévé-y	-0.3008274
-4.10946	léwop	-0.2719976
-3.632339	léwoz	-0.3243574
-3.933369	lézanmi	-0.4766653
-3.369098	lézot	-0.4739707
-3.565392	m	-0.5729013
-3.71152	ma	-0.271474
-3.234399	macaque	-0.7451847
-3.933369	machann	-0.4770706
-3.933369	maché	-0.4770369
-3.507401	madanm	-0.4246752
-3.933369	madanm-la	-0.4653172
-3.933369	madi	-0.2912502
-3.71152	madras	-0.4663391
-3.933369	madè	-0.3007092
-3.933369	mafi	-0.4770031
-3.71152	magré	-0.4764794
-3.565392	main	-0.4764288
-3.71152	mais	-0.3007599
-3.933369	maison	-0.2716908
-3.80843	maji	-0.3961135
-3.71152	mak	-0.4767498
-3.933369	makak	-0.4763442
-3.71152	maké	-0.46117
-3.933369	maké’w	-0.4730348
-3.80843	mal	-0.2913882
-3.933369	malad	-0.4769693
-3.933369	maladi	-0.4770706
-4.10946	malcom	-0.3009962
-3.933369	malè	-0.4653172
-4.10946	malélivé	-0.3006248
-3.20637	maléré	-0.5407888
-3.632339	man	-0.5332513
-3.80843	manch	-0.3867078
-3.331309	mandé	-0.4324598
-3.933369	mandé-i	-0.47702
-3.933369	mandé-mwen	-0.4769693
-3.933369	mandé-nou	-0.4768005
-4.10946	mandé-w	-0.2960908
-3.71152	mandé’y	-0.476716
-3.933369	manfou	-0.4629697
-3.933369	mangn	-0.4770706
-3.933369	mangnok	-0.4770706
-2.797707	manjé	-0.3080097
-3.71152	manjé-y	-0.3328024
-3.71152	manké	-0.4731029
-3.155218	manman	-0.6149432
-3.80843	manman-y	-0.2897632
-3.933369	manmbo	-0.4770706
-3.933369	manni	-0.4763273
-4.10946	manno	-0.3006416
-3.71152	mannyok	-0.2676636
-3.456248	mannyè	-0.3074047
-3.933369	mansousyan	-0.4770706
-4.10946	mantal	-0.3001007
-3.933369	manti	-0.4709513
-3.80843	manyok	-0.2523052
-3.456248	manzè	-0.6985647
-3.632339	mardi	-0.7780331
-3.933369	mardigras	-0.4730348
-3.933369	mari	-0.4709513
-4.10946	marie-	-0.2719976
-3.80843	marie-galantais	-0.2716185
-4.10946	marie-galantaise	-0.3009793
-3.296547	marie-galante	-0.2538826
-4.10946	marie-galantè	-0.292078
-3.71152	marigalant	-0.4661661
-3.565392	marigalantè	-0.2930743
-4.10946	marigalentèz	-0.3009793
-3.933369	marinad	-0.4663911
-4.10946	maron	-0.2892259
-4.10946	martin	-0.3009962
-3.234399	maré	-0.5016253
-4.10946	masalé	-0.2719976
-3.933369	mask	-0.2600708
-4.10946	maské	-0.2957322
-4.10946	maskéw	-0.3001515
-3.933369	maso	-0.4659757
-3.933369	maten	-0.4480889
-4.10946	matinik	-0.3008949
-4.10946	matinikgwadloup	-0.3008949
-4.10946	matiné	-0.2719976
-4.10946	matière	-0.3001346
-3.933369	matnik	-0.4769693
-4.10946	matriyarkal	-0.292078
-3.933369	matyè	-0.3009624
-3.71152	matété	-0.454963
-3.933369	mawon	-0.4765978
-3.933369	may	-0.4659757
-3.71152	mayok	-0.29144
-4.10946	mayori	-0.2719976
-3.71152	mayé	-0.457866
-3.933369	mayémen	-0.4663911
-4.10946	me	-0.3009962
-3.933369	mem	-0.2936429
-3.933369	memm	-0.4770369
-3.933369	memsi	-0.284448
-2.747733	men	-0.4550537
-4.10946	mendé	-0.2969435
-2.80843	menm	-0.4396614
-3.933369	menmditan	-0.4763611
-3.933369	menmjan	-0.4709513
-3.933369	menndé	-0.2719615
-4.10946	menndéséou	-0.2844656
-3.933369	mens	-0.4766653
-4.10946	mentalité	-0.2935571
-4.10946	mesaj	-0.2719976
-3.296547	mesmin	-0.6007416
-3.369098	mesure	-0.7738773
-4.10946	metropol	-0.2960908
-3.71152	metter	-0.6984803
-3.71152	mhm	-0.6699376
-3.456248	mi	-0.4018841
-3.369098	michel	-0.4462082
-3.933369	michelin	-0.4696484
-3.565392	midi	-0.2833948
-3.933369	mign	-0.4629697
-3.933369	mil	-0.4769693
-3.71152	milat	-0.4618698
-3.369098	milflè	-0.6295037
-4.10946	milyé	-0.2719976
-3.933369	minit	-0.2710041
-3.933369	miss	-0.4480889
-3.296547	missié	-1.113724
-3.933369	misyé	-0.4709513
-4.10946	mit	-0.3006923
-3.933369	mitan	-0.4770369
-3.933369	mizi-anmizi	-0.4768005
-3.456248	mizik	-0.3022911
-3.456248	mizè	-0.5346612
-3.933369	mizé	-0.4770706
-3.933369	mizérab	-0.4763442
-4.10946	mizéreu	-0.2719976
-3.456248	mo	-0.5399945
-3.565392	mo-la	-0.8160657
-4.10946	mod	-0.2719976
-3.933369	moderne	-0.4765133
-4.10946	modernisme	-0.2902998
-4.10946	modes	-0.3001346
-4.10946	modènité	-0.2960908
-3.71152	mofwazé	-0.4761582
-3.565392	moin	-0.6008939
-3.933369	moins	-0.2719615
-3.80843	moli	-0.2584543
-4.10946	molière	-0.3008443
-3.933369	molokoy	-0.4605569
-3.456248	moman	-0.355854
-3.933369	moman-la	-0.4681692
-3.933369	moman-lasa	-0.4770369
-4.10946	mon	-0.3009962
-3.565392	monchè	-0.4626034
-4.10946	mond	-0.2935571
-4.10946	moniman	-0.3003713
-3.71152	monpti	-0.4769524
-3.933369	monsérat	-0.4766991
-3.80843	montré	-0.3959439
-4.10946	montserrat	-0.29486
-3.933369	monté	-0.4770369
-4.10946	moralité	-0.3008274
-3.331309	mori	-0.3165829
-4.10946	morue	-0.2994915
-3.456248	moso	-0.5526234
-4.10946	motivé	-0.2974713
-3.71152	mouchwè	-0.4769524
-2.280157	moun	-0.4227336
-3.933369	moun-bitasyon	-0.4770369
-3.933369	moun-bitasyon-la	-0.4762428
-3.933369	moun-dèwo	-0.4480889
-3.933369	moun-la	-0.4653172
-4.10946	mounfanm	-0.2969435
-3.933369	mounla	-0.4769862
-4.10946	mounsé	-0.2999823
-4.10946	mounté	-0.2969435
-3.80843	mouvman	-0.3955708
-3.80843	mové	-0.3974503
-3.933369	movétan	-0.4480889
-4.10946	musique	-0.3008443
-3.507401	mwa	-0.3600906
-3.80843	mwayen	-0.38835
-2.088271	mwen	-0.2930697
-4.10946	mwenmem	-0.2974713
-3.933369	mwenmenm	-0.4629697
-3.71152	myé	-0.4329417
-2.590946	mè	-0.3157778
-4.10946	mèg	-0.2939689
-3.933369	mèkrédi	-0.269337
-3.933369	mèksik	-0.4770706
-2.787241	mèm	-0.3342963
-3.933369	mèmsi	-0.296773
-3.933369	mènasé-y	-0.4762428
-4.10946	mèné	-0.2954075
-4.10946	mèr-	-0.2719976
-4.10946	mère	-0.3008105
-3.565392	mès	-0.5821514
-3.933369	mèsi	-0.4770031
-2.995517	mèt	-0.3203307
-3.933369	mèt-a-mangnok	-0.4480889
-3.933369	mèt-gason	-0.4659757
-3.933369	mèwè	-0.4770706
-3.933369	mèyè	-0.4770706
-3.131737	mé	-0.4122398
-3.933369	méchansté	-0.4480889
-3.933369	méchè	-0.4480889
-3.80843	médikaman	-0.2987626
-4.10946	mékontantman	-0.300878
-3.71152	mékrédi	-0.2702076
-3.632339	mélanj	-0.3132217
-4.10946	mélanjé	-0.3009118
-3.456248	mélon	-0.4214881
-3.80843	mélé	-0.388695
-3.933369	ménage	-0.4770706
-3.41049	méné	-0.3515876
-4.10946	méné-y	-0.3009625
-3.933369	méprizé	-0.4770706
-3.933369	mérendyen	-0.4709513
-3.933369	mérité	-0.3004896
-3.71152	mésyé	-0.320534
-4.10946	mét	-0.3009118
-3.933369	métier	-0.4770706
-3.264363	mété	-0.280279
-4.10946	mété-y	-0.2957322
-4.10946	mévèy	-0.3009962
-3.933369	méyiken	-0.4653172
-3.933369	méyiken-la	-0.4770031
-3.933369	méyè	-0.4480889
-3.933369	mézanmi	-0.476868
-3.933369	même	-0.2944318
-3.933369	n'homme	-0.4769018
-3.71152	nanbouk	-0.4739197
-4.10946	nanpèch	-0.2970286
-4.10946	nap	-0.3009287
-3.80843	nasyon	-0.3828808
-4.10946	natif	-0.2719976
-4.10946	nature	-0.3009962
-4.10946	natyon	-0.292078
-3.933369	naté	-0.4714988
-3.71152	ne	-0.3659638
-4.10946	neg	-0.2719976
-3.632339	nenpot	-0.4195076
-4.10946	neskzitwa	-0.3009793
-2.028473	ni	-0.3489158
-4.10946	niau	-0.3009287
-3.933369	nich	-0.4659757
-3.933369	nikaragwa	-0.4770706
-4.10946	nini	-0.3005065
-3.71152	nirmal	-0.47702
-3.933369	nitali	-0.4770369
-4.10946	nitout	-0.2960908
-4.10946	nitrisyonèl	-0.2898844
-4.10946	nité	-0.2969435
-3.632339	niveau	-0.3221204
-3.264363	nivo	-0.4238394
-4.10946	niyès	-0.2898844
-3.507401	no	-0.4741539
-3.933369	nobèl	-0.4754472
-3.71152	nom	-0.2479789
-4.10946	nomal	-0.3009962
-3.71152	nomalman	-0.3539124
-3.01255	non	-0.4361053
-3.234399	nonm	-0.6308766
-3.933369	nonm-konsa-pou-yé-lasa	-0.4700602
-3.565392	nonm-la	-0.4530942
-3.933369	nonm-obou-	-0.4769693
-4.10946	nord	-0.2868784
-4.10946	normalement	-0.2932995
-3.71152	notab	-0.3411402
-3.71152	notamman	-0.2784097
-1.753435	nou	-0.469373
-4.10946	nou-y	-0.2957322
-4.10946	nouri	-0.2719976
-4.10946	nous	-0.3001346
-4.10946	nous-mêmes	-0.2902998
-3.71152	noutout	-0.4647966
-3.933369	nouveaux	-0.4770369
-3.80843	nouvo	-0.2945689
-4.10946	nouvèl	-0.3007936
-4.10946	nowmal	-0.2719976
-3.264363	nowèl	-0.2697231
-4.10946	nuit	-0.298542
-4.10946	nwa	-0.292078
-3.20637	nwè	-0.4579206
-3.933369	nwè-la	-0.4709513
-3.933369	nwèl	-0.4681692
-3.80843	nyès	-0.3810248
-3.80843	nèf	-0.3968754
-2.414855	nèg	-0.6178492
-3.933369	nèy	-0.4629697
-3.565392	né	-0.4748539
-4.10946	négosyé	-0.292078
-3.933369	négro	-0.4770706
-4.10946	nésans	-0.2719976
-4.10946	nésésè	-0.2974713
-3.933369	nétwayé	-0.4770369
-2.738393	o	-0.453826
-3.933369	obama	-0.3004896
-3.088271	oben	-0.5002246
-3.933369	oblijé	-0.3004727
-3.933369	oblijé’y	-0.4767329
-3.71152	obliyé	-0.4480347
-3.933369	occasion	-0.4766991
-4.10946	odinatè	-0.2719976
-3.80843	oganizé	-0.3974503
-4.10946	ogmanté	-0.2932995
-3.933369	oh	-0.4769693
-4.10946	okin	-0.3006079
-3.71152	okontrè	-0.3668784
-3.933369	oksèvasyon	-0.4753286
-3.933369	oktob	-0.4770706
-3.933369	oké	-0.271474
-3.088271	ola	-0.5218739
-4.10946	olala	-0.2719976
-3.80843	olyé	-0.5967622
-4.10946	omwen	-0.2957322
-1.890662	on	-0.4473136
-4.10946	oncle	-0.2965685
-3.933369	ondiras	-0.4770706
-4.10946	onivo	-0.3009287
-3.456248	onlo	-0.4655252
-3.933369	onon	-0.2998977
-4.10946	onoré	-0.2844656
-3.71152	onsèl	-0.47702
-4.10946	ont	-0.3009287
-4.10946	onzè	-0.2719976
-4.10946	onèt	-0.3009962
-4.10946	oo	-0.2719976
-3.933369	opipirit-chantan	-0.4754472
-3.933369	opwal	-0.476716
-4.10946	orgies	-0.3009456
-2.502006	osi	-0.3051471
-3.71152	oswè	-0.6914971
-3.80843	ot	-0.3928813
-3.632339	otan	-0.3939307
-3.933369	otila	-0.4629697
-3.933369	otomatikman	-0.2624198
-4.10946	otonom	-0.2719976
-1.916336	ou	-0.5461992
-3.565392	oubliyé	-0.3778017
-4.10946	oubliyé-y	-0.2719976
-4.10946	oublié	-0.2960908
-3.331309	oubyen	-0.3407454
-4.10946	ouverture	-0.3009962
-3.369098	owa	-0.3813325
-3.369098	où	-0.2772904
-3.456248	p'on	-0.4762258
-1.889352	pa	-0.4907354
-3.933369	pa-asi	-0.4769525
-3.933369	pace	-0.4764118
-3.71152	padavwa	-0.4722845
-3.933369	pakoté	-0.4770369
-3.80843	pakèt	-0.3977712
-3.71152	pal	-0.4748369
-4.10946	pala	-0.2719976
-4.10946	pale	-0.3002529
-2.830707	palé	-0.4433948
-4.10946	palé-w	-0.3001346
-4.10946	pan	-0.3009625
-3.933369	pandan	-0.2981344
-3.933369	pangné	-0.4653172
-4.10946	pani	-0.3008443
-3.565392	pann	-0.4624987
-3.933369	pannama	-0.4730348
-3.933369	pannan	-0.4768511
-3.71152	pannanma	-0.4601885
-3.933369	pannyol	-0.4770706
-3.933369	pannyé	-0.476868
-3.264363	pansé	-0.3389263
-3.71152	pantalon	-0.4642232
-4.10946	panten	-0.3003713
-4.10946	pap	-0.2902998
-3.264363	papa	-0.6181601
-3.80843	papa-y	-0.2840621
-3.933369	papay	-0.4770031
-3.933369	papa’y	-0.4653172
-4.10946	papi	-0.3009962
-3.933369	papiyot	-0.4767667
-3.933369	papyé	-0.4659757
-3.933369	pap’an	-0.4735626
-3.41049	par	-0.3973489
-3.80843	paralèlman	-0.2870702
-3.933369	parapolo	-0.4754472
-3.456248	parapot	-0.9430969
-3.71152	parce	-0.6988181
-3.80843	paris	-0.29551
-3.933369	paris8	-0.271781
-4.10946	parisyen	-0.2970286
-4.10946	park	-0.2719976
-4.10946	part	-0.2932995
-3.632339	parèt	-0.4139912
-3.933369	parèy	-0.4714988
-3.048763	paré	-0.4107446
-3.068068	pas	-0.4171795
-4.10946	pasad	-0.2970286
-4.10946	pascal	-0.3008274
-4.10946	pasi	-0.3007092
-3.933369	paskal	-0.271781
-3.71152	paskè	-0.2908185
-2.670128	paské	-0.3529836
-4.10946	pastèk	-0.3008443
-2.995517	pasé	-0.3768688
-3.933369	pasé’y	-0.4629697
-3.80843	pat	-0.3569808
-4.10946	pataj	-0.2953904
-4.10946	patajé	-0.3009287
-3.456248	patat	-0.5237015
-3.20637	pati	-0.3162388
-4.10946	patikilyè	-0.300236
-3.933369	patikilyé	-0.2965173
-3.933369	patrimwan	-0.4480889
-4.10946	pavané	-0.2990678
-3.565392	pawol	-0.5867211
-3.933369	pawol-lasa	-0.4709513
-3.933369	pawtikilyé	-0.4659757
-3.80843	pays	-0.271203
-3.71152	ped	-0.4764625
-3.71152	pen	-0.2546025
-3.71152	pengné	-0.691909
-4.10946	pensée	-0.3009962
-4.10946	personnellement	-0.2898844
-3.80843	petit	-0.2988134
-4.10946	petite	-0.3009962
-4.10946	peu	-0.2939689
-4.10946	peut	-0.3009962
-3.933369	peynier	-0.4770369
-4.10946	photo	-0.292078
-3.41049	pi	-0.350516
-3.933369	pignon	-0.4765978
-3.933369	pik	-0.2934712
-3.933369	pikan	-0.4659757
-3.933369	piké	-0.4629697
-3.933369	pil	-0.4763273
-3.933369	pilipo	-0.4754472
-3.933369	pilo	-0.4748369
-3.933369	pip	-0.4754134
-3.933369	pipigné	-0.4721821
-3.933369	pisimyé	-0.4714988
-3.80843	pisin	-0.5945871
-3.933369	piskè	-0.4770706
-3.296547	piské	-0.2591425
-3.933369	pistach	-0.4726598
-3.933369	pistache	-0.4770706
-3.933369	pisyèt	-0.4767836
-3.933369	pit	-0.4480889
-2.979127	piti	-0.3006736
-3.71152	piti-bannzil	-0.4768173
-3.369098	pitit	-0.7652532
-3.933369	pitit-a-bondyé	-0.4763442
-4.10946	pito	-0.2954075
-3.80843	pla	-0.3606375
-3.933369	place	-0.4770369
-4.10946	placées	-0.2990678
-3.933369	plaisi	-0.4766316
-3.80843	plan	-0.3903469
-3.80843	planté	-0.3977712
-3.456248	plas	-0.3169424
-3.71152	plat	-0.4657678
-4.10946	play	-0.3009962
-3.933369	plein	-0.4770369
-3.565392	plen	-0.3869502
-4.10946	plent	-0.3009287
-2.777022	pli	-0.4698434
-4.10946	plibiten	-0.2935571
-3.71152	pliplis	-0.4766653
-2.948092	plis	-0.3320112
-3.933369	plisse	-0.4770706
-3.632339	plito	-0.42178
-3.933369	pliyé	-0.4753794
-3.369098	plizyè	-0.4765639
-4.10946	plui	-0.2994915
-3.80843	plupart	-0.3974165
-3.71152	plus	-0.3617212
-3.933369	plutot	-0.4770706
-3.933369	pléré	-0.4766316
-3.933369	plési	-0.4629697
-3.632339	plézi	-0.4127576
-2.979127	po	-0.5910313
-3.933369	poban	-0.4709513
-3.933369	poblèm	-0.4659757
-4.10946	poch	-0.2898844
-3.933369	pointe	-0.4696484
-3.80843	poko	-0.3938024
-2.979127	polin	-0.7628357
-3.933369	polis	-0.2999992
-3.933369	polisyé	-0.2766995
-3.80843	politik	-0.3848681
-4.10946	politique	-0.3009962
-3.71152	pom	-0.4722674
-3.632339	pon	-0.349151
-3.933369	ponch	-0.4769018
-3.933369	ponmlé	-0.4629697
-3.71152	ponmoun	-0.6933304
-3.71152	popilasyon	-0.3527429
-4.10946	populations	-0.3009962
-3.933369	posib	-0.2710041
-3.71152	posibilité	-0.3378424
-3.80843	possibilité	-0.3978556
-4.10946	post	-0.2999147
-3.933369	pot	-0.2600708
-4.10946	potansyèl	-0.3003713
-3.933369	poter	-0.4770706
-3.933369	potoriko	-0.4766822
-3.933369	potré	-0.4659757
-3.296547	poté	-0.357627
-3.933369	poté’y	-0.4770706
-2.028473	pou	-0.3997493
-3.933369	pou-i	-0.4770706
-3.933369	pou-y	-0.2708051
-3.71152	pouki	-0.4433172
-3.632339	poukwa	-0.3911419
-4.10946	poukwapremyé	-0.2997285
-3.933369	poul	-0.4768849
-4.10946	poulè	-0.3000838
-3.71152	poulèt	-0.4550517
-3.933369	poupé	-0.2716727
-3.41049	pour	-0.3975685
-3.933369	pousa	-0.4629697
-3.933369	pousuivasyon	-0.4770706
-3.71152	pousé	-0.4741407
-3.80843	poutan	-0.2444942
-4.10946	poutourist	-0.2935571
-3.933369	pouvoir	-0.2710583
-4.10946	povrété	-0.2992373
-3.933369	pozisyonné	-0.4748369
-3.933369	pozé	-0.4663911
-2.787241	pran	-0.3720524
-4.10946	pran-y	-0.3006416
-3.80843	pratikman	-0.2810331
-4.10946	premyè	-0.2969435
-4.10946	premyé	-0.3008443
-3.80843	pren	-0.3003206
-3.71152	pri	-0.330895
-3.933369	pripri	-0.4770706
-4.10946	prizon	-0.2939689
-4.10946	prizé	-0.3009962
-4.10946	problèm	-0.2898844
-4.10946	producteur	-0.3001346
-2.647063	produi	-0.4002695
-3.933369	produit	-0.4762259
-3.71152	produits	-0.2697181
-3.80843	profité	-0.3645372
-4.10946	promèt	-0.3006923
-3.80843	prop	-0.3569808
-4.10946	propozé-y	-0.2719976
-3.933369	proprement	-0.4770706
-4.10946	protéjé	-0.2932995
-3.369098	prèmyé	-0.4238539
-3.933369	près	-0.4770706
-4.10946	prèsk	-0.298542
-3.71152	prèstans	-0.4764456
-3.933369	prèstans-la	-0.4653172
-4.10946	pré	-0.2719976
-3.933369	préféré	-0.2998639
-3.933369	prémyé	-0.2994745
-3.456248	préparé	-0.30425
-4.10946	préparé-y	-0.2982533
-3.933369	préparéw	-0.4730348
-4.10946	présidan	-0.3001007
-3.933369	présizé	-0.4767667
-4.10946	prété-y	-0.2957322
-3.933369	prévwa	-0.4730348
-3.80843	prézan	-0.3537605
-3.933369	prézans	-0.4659757
-4.10946	prézanté	-0.2982533
-4.10946	psychologie	-0.3009962
-4.10946	puisans	-0.2719976
-3.933369	puissance	-0.2712391
-4.10946	punch	-0.2970286
-3.933369	pur	-0.4770706
-3.507401	pwa	-0.6241441
-3.933369	pwa-di-bwa	-0.4480889
-3.180041	pwan	-0.4677901
-4.10946	pwason	-0.2898844
-3.933369	pwayé	-0.4770369
-3.80843	pwen	-0.368673
-3.933369	pwent	-0.4726598
-3.933369	pwenti	-0.4770706
-3.71152	pwop	-0.4641885
-3.80843	pwèl	-0.3813581
-3.71152	pwès	-0.4768511
-3.933369	pyès-bannann	-0.4659757
-3.933369	pyès-bannann-la	-0.4681692
-3.933369	pyès-fanm	-0.4480889
-3.933369	pyèskann-la	-0.4726598
-3.565392	pyé	-0.4205856
-3.933369	pyé-la	-0.4693907
-3.933369	pyébwa	-0.4480889
-3.933369	pyété	-0.4770369
-3.71152	pè	-0.3388542
-3.20637	pèd	-0.5429527
-3.632339	pèmèt	-0.4069074
-3.507401	pèp	-0.3383981
-3.933369	pèsi	-0.47702
-3.933369	pèsonèlman	-0.2667149
-3.933369	pèsouvwè	-0.47702
-3.80843	pèsé	-0.3976192
-3.933369	pèwsonaj	-0.4653172
-2.353585	pé	-0.4365359
-3.80843	péchè	-0.2734567
-3.933369	péché	-0.47702
-3.933369	pélé-lanmou	-0.4659757
-3.933369	périod	-0.47702
-4.10946	pétrol	-0.2969435
-3.10946	pétèt	-0.2658471
-4.10946	pétét	-0.2996608
-2.670128	péyi	-0.4874444
-3.933369	péyi-la	-0.4605569
-3.71152	péyi-lasa	-0.4679107
-4.10946	péyé	-0.300591
-4.10946	péyé-y	-0.300878
-3.933369	p’on	-0.4764964
-3.234399	qu'a	-0.4758028
-3.933369	qu'est	-0.476192
-4.10946	qualité	-0.3008105
-3.456248	que	-0.3725466
-4.10946	quel	-0.3009962
-3.933369	quelle	-0.3009624
-3.296547	qui	-0.5719074
-3.933369	quoi	-0.47702
-4.10946	rakonté-w	-0.2960908
-3.369098	rakoun	-0.4589584
-3.933369	ranjé	-0.4770706
-3.933369	rankontré	-0.2979135
-3.933369	ranmé	-0.4770369
-3.01255	rann	-0.5362123
-3.933369	rann-li	-0.4714988
-3.933369	rann-mwen	-0.4770706
-4.10946	ranpli	-0.3009962
-3.131737	rantré	-0.4266661
-4.10946	rapidman	-0.2902998
-3.632339	rapo	-0.5321079
-4.10946	raport	-0.3009456
-3.71152	rapport	-0.4764287
-4.10946	rasazié	-0.3000162
-4.10946	rasist	-0.2844656
-3.933369	ratt	-0.4770031
-3.933369	ravin-la	-0.4480889
-3.933369	rawman	-0.4700602
-4.10946	rebelot	-0.3004558
-4.10946	recherche	-0.300422
-4.10946	reconnaissance	-0.3006923
-4.10946	reconnu	-0.2969435
-3.933369	reine	-0.4770706
-4.10946	rekonséyé	-0.2932995
-3.456248	ren	-0.5483027
-3.933369	renne	-0.4769356
-4.10946	rentes	-0.3006248
-4.10946	reprann	-0.2902998
-4.10946	repren-y	-0.2719976
-4.10946	respiré	-0.3006248
-4.10946	responsab	-0.2719976
-4.10946	respè	-0.3002698
-4.10946	respékté	-0.3007261
-4.10946	retou	-0.2935571
-4.10946	retrouvé	-0.2932995
-4.10946	reviré	-0.3008105
-4.10946	reztan	-0.2898844
-3.933369	rhumes	-0.2719434
-3.048763	ri	-0.4365093
-3.632339	rich	-0.4998885
-3.933369	richplèn	-0.4770706
-4.10946	richès	-0.3001007
-4.10946	rio	-0.3008274
-3.41049	ritm	-0.295842
-3.933369	rityé	-0.4764457
-4.10946	rité	-0.292078
-3.933369	river	-0.4480889
-3.933369	rivyè	-0.4605569
-2.777022	rivé	-0.3850989
-3.933369	rivé-mwen	-0.4770706
-3.933369	rivé-yo	-0.4757521
-4.10946	ronkontré	-0.2939689
-4.10946	rosa	-0.3009962
-4.10946	rouj	-0.3009962
-3.933369	rousi	-0.2605157
-4.10946	rsa	-0.2987456
-3.933369	rythmes	-0.3001007
-3.369098	rèd	-0.3312879
-3.933369	rèlasyon	-0.4770706
-3.933369	rèligieuz	-0.2711487
-3.933369	rèlijyon	-0.4770706
-3.933369	rèmakab	-0.4663911
-3.933369	rèpasé	-0.4766653
-3.933369	rèpwoché’y	-0.4769693
-4.10946	rès-	-0.2719976
-4.10946	rèspè	-0.2719976
-3.933369	rèspèté’y	-0.4726598
-3.369098	rèsté	-0.277531
-3.80843	rèviré	-0.2794574
-4.10946	réaji	-0.2719976
-3.933369	récho	-0.4770369
-4.10946	réchèché	-0.3006923
-4.10946	rédistribiyé	-0.3009118
-4.10946	réfléchi	-0.2719976
-3.80843	réflété	-0.3953671
-4.10946	réfom	-0.3009962
-4.10946	référans	-0.2990678
-3.71152	réglé	-0.3530225
-4.10946	régléments	-0.3001346
-3.933369	réjyon	-0.4659757
-3.71152	rékolté	-0.4629174
-4.10946	rékoni	-0.3009793
-4.10946	rékonèt	-0.2932995
-3.933369	rékonésans	-0.3009456
-3.933369	répité	-0.4769525
-3.933369	répondè	-0.4653172
-3.456248	réponn	-0.4668751
-3.933369	réponne	-0.4480889
-4.10946	répèrkité-y	-0.2953904
-3.71152	répété	-0.4762596
-4.10946	résaman	-0.2960908
-3.933369	résisté	-0.2719434
-4.10946	résous	-0.3009625
-3.933369	résté	-0.2848511
-3.565392	résèt	-0.2986726
-4.10946	résèvé	-0.3009793
-3.933369	rétouné	-0.4480889
-4.10946	rétèni	-0.2719976
-3.048763	rété	-0.4670927
-4.10946	révandiké	-0.2719976
-3.933369	réviré	-0.2719434
-4.10946	révolisyion	-0.2987456
-4.10946	révolisyon	-0.3009118
-4.10946	réyinyon	-0.3009962
-3.632339	réyisi	-0.2755557
-3.933369	rézilta	-0.2983722
-4.10946	rézisté	-0.3009962
-3.71152	rézon	-0.2478263
-3.71152	s	-0.34918
-1.946597	sa	-0.4292105
-3.933369	sab	-0.4653172
-3.933369	sajès	-0.4653172
-3.933369	sak	-0.2867563
-4.10946	saksofon	-0.29486
-4.10946	sal	-0.3009962
-3.933369	salvado	-0.4770706
-4.10946	salé	-0.2902998
-3.933369	salézon	-0.2898498
-4.10946	sam	-0.2868784
-3.369098	samdi	-0.3538576
-2.729249	san	-0.4220579
-3.933369	san-	-0.4696484
-3.933369	san-la	-0.4629697
-3.933369	sanblaj	-0.4770706
-3.933369	sanblanni	-0.4730348
-3.507401	sanblé	-0.4314475
-3.933369	sanglé	-0.4730348
-2.879012	sanm	-0.5461389
-3.71152	sann	-0.4489721
-3.632339	sans	-0.4150309
-3.71152	sans-	-0.6914971
-3.933369	sans-lasa	-0.476868
-3.933369	sanséman	-0.4700602
-3.565392	santi	-0.4686342
-4.10946	santiw	-0.3004389
-3.933369	santralkarayib	-0.4605569
-4.10946	santé	-0.3003375
-3.933369	sapoti	-0.4770706
-4.10946	sasa	-0.29486
-2.70292	sav	-0.4086944
-3.933369	savann	-0.4769693
-3.933369	save	-0.4769018
-3.71152	savoir	-0.3672167
-3.264363	savé	-0.5307745
-4.10946	scientifiquement	-0.3009962
-4.10946	scolaire	-0.3008105
-3.80843	se	-0.3922833
-3.933369	sek	-0.4769356
-4.10946	sela	-0.2719976
-3.933369	senbat	-0.4730348
-4.10946	senbioz	-0.2993221
-3.71152	sendomeng	-0.6882398
-3.632339	senk	-0.3369136
-3.933369	senkan	-0.4766653
-3.80843	senkant	-0.3687091
-3.933369	senkè	-0.2644441
-3.933369	senmawten	-0.4770706
-3.933369	senné	-0.4753794
-3.565392	senp	-0.377731
-4.10946	sent	-0.3000162
-3.933369	sentann	-0.4754134
-3.507401	senten	-0.3241094
-3.71152	senti	-0.6988856
-4.10946	sentimantal	-0.2953904
-3.933369	sentkwa	-0.4770706
-4.10946	sentèn	-0.3009793
-3.933369	sept	-0.4770706
-4.10946	sesi	-0.3009287
-3.933369	sexuelle	-0.4764118
-4.10946	sexuelles	-0.3003375
-2.385185	si	-0.4873044
-4.10946	sibi	-0.2954075
-3.933369	sicrée	-0.4770706
-3.71152	sid	-0.4765639
-4.10946	sifi	-0.2970286
-4.10946	signification	-0.3009962
-4.10946	sijè	-0.2868784
-3.933369	sik	-0.4659757
-3.933369	sikdoj	-0.4663911
-3.565392	siklon	-0.4657679
-3.933369	siklon-la	-0.4721821
-4.10946	sikré	-0.2719976
-3.565392	sila	-0.4423128
-3.933369	silon	-0.4770706
-4.10946	similak	-0.2994915
-3.933369	simplement	-0.3006247
-4.10946	simulacres	-0.2719976
-3.933369	simé	-0.2969094
-3.80843	sin	-0.2666783
-3.933369	sino	-0.4770706
-3.933369	sipoté	-0.4770706
-4.10946	siprimé-y	-0.2994915
-3.933369	sipé	-0.4770369
-3.71152	siren	-0.6699376
-3.933369	siriyen-la	-0.4767667
-4.10946	sis	-0.3008949
-4.10946	sisi	-0.3004558
-3.933369	sispann	-0.4768343
-3.632339	sistèm	-0.3888868
-4.10946	sistématikman	-0.3009118
-3.71152	sisé	-0.4729495
-4.10946	sitiyasyon	-0.3008612
-3.80843	sitou	-0.2862677
-4.10946	situation	-0.3008443
-4.10946	sitwayen	-0.2719976
-4.10946	sityasyon	-0.2719976
-3.933369	sitèlman	-0.4769356
-3.933369	siv	-0.4770706
-3.71152	sivil	-0.454963
-3.933369	sivilizasyon	-0.4770706
-3.933369	siwvwè	-0.4714988
-3.933369	sizer	-0.4769356
-3.71152	sizè	-0.3273699
-4.10946	ski	-0.2868784
-4.10946	sklérozé	-0.3008105
-4.10946	skérosé	-0.2994915
-4.10946	société	-0.3009962
-4.10946	sodom	-0.2902998
-4.10946	sof	-0.3009962
-3.933369	soirées	-0.3001853
-4.10946	sojé	-0.2960908
-3.933369	sol	-0.2822155
-3.933369	solid	-0.4769693
-4.10946	solida	-0.2719976
-3.933369	solidarité	-0.2963297
-4.10946	solisyon	-0.3008274
-3.933369	solisyonné	-0.4770706
-4.10946	solution	-0.2939689
-3.456248	solèy	-0.3560087
-3.933369	solèy-la	-0.4753794
-3.565392	son	-0.380375
-3.296547	sonjé	-0.2407453
-3.933369	sonmèy	-0.4629697
-3.933369	sonné	-0.476716
-4.10946	sorte	-0.3001346
-3.565392	sos	-0.3432458
-4.10946	sosolida	-0.2719976
-4.10946	sosyal	-0.3009118
-3.71152	sosyété	-0.4692017
-3.565392	sosyété-la	-0.591174
-3.933369	sot	-0.2945175
-3.030279	soti	-0.406157
-3.80843	sou	-0.3885398
-3.933369	soubarou	-0.4769693
-3.933369	soubarou-la	-0.4726598
-3.933369	souch	-0.4629697
-3.933369	souf	-0.4480889
-3.71152	soufwans	-0.6699376
-3.933369	soukwé	-0.4762259
-3.933369	soulajman	-0.4480889
-4.10946	soulyé	-0.2719976
-3.933369	sounon	-0.4770706
-3.565392	soup	-0.463771
-3.933369	soupen	-0.4754134
-3.71152	sous	-0.3520431
-3.80843	soutou	-0.299
-3.933369	soutyenn	-0.4770369
-3.71152	souvan	-0.3515
-3.933369	souvantfwa	-0.4766822
-4.10946	souveni	-0.2970286
-4.10946	souvéni	-0.2898844
-3.933369	souè	-0.4726598
-4.10946	sponsorizé	-0.2939689
-3.933369	sport	-0.300878
-4.10946	sportif	-0.3003206
-3.933369	sportifs	-0.2715282
-4.10946	spèktak	-0.2932995
-4.10946	spécifique	-0.2970286
-4.10946	ss	-0.2990678
-4.10946	station	-0.2932995
-4.10946	stratéjik	-0.3003206
-4.10946	string	-0.3009962
-3.933369	subsisté	-0.4663911
-4.10946	sucre	-0.3009962
-4.10946	suit	-0.2957322
-3.71152	suiv	-0.4768004
-3.80843	sujet	-0.3972813
-3.933369	surtout	-0.4769356
-3.331309	swa	-0.3881406
-4.10946	swaré	-0.2719976
-4.10946	swasant	-0.3009962
-4.10946	swèf	-0.298542
-3.933369	swé	-0.4605569
-3.933369	syal	-0.2717449
-4.10946	syans	-0.3006585
-3.80843	syantifik	-0.3774126
-3.71152	syèk	-0.4678073
-3.933369	syèl	-0.4605569
-3.71152	syèl-la	-0.6699376
-3.565392	sè	-0.2962103
-3.71152	sèk	-0.4366069
-3.933369	sèksyon	-0.4770706
-2.995517	sèl	-0.4044848
-4.10946	sèlman	-0.2965685
-4.10946	sèn	-0.2902998
-3.933369	sèt	-0.4769525
-3.933369	sètadi	-0.2969775
-3.933369	sèten	-0.4681692
-4.10946	sètèn	-0.3009962
-3.71152	sèvi	-0.4658371
-3.933369	sèvi-yo	-0.4770706
-3.933369	sèwkèy	-0.4764964
-3.933369	sèy	-0.4629697
-4.10946	sèz	-0.2939689
-1.690331	sé	-0.3663113
-3.933369	sé'y	-0.4605569
-3.933369	sé-y	-0.4709513
-3.933369	séchress	-0.4605569
-3.80843	séché	-0.2659654
-4.10946	sél	-0.3006248
-3.565392	séla	-0.4689095
-3.71152	séparé	-0.4764456
-3.933369	sériz	-0.2710041
-3.933369	séré	-0.4480889
-3.933369	sérémoni	-0.4770369
-3.933369	sérémoni-lasa	-0.4768005
-4.10946	sézon	-0.2719976
-4.10946	séé	-0.2719976
-2.738393	t'ai	-0.60619
-3.155218	ta	-0.4082134
-3.933369	ta-ou	-0.4480889
-3.933369	ta-w	-0.475193
-3.933369	tabak	-0.4769693
-3.933369	taktak	-0.4480889
-3.456248	tala	-0.4361991
-4.10946	talè	-0.2898844
-3.933369	tamprissouplé	-0.4480889
-2.933369	tan	-0.3875687
-3.933369	tan-lasa	-0.4653172
-3.048763	tanbou	-0.3961507
-3.71152	tanboudibrèz	-0.6699376
-4.10946	tandis	-0.2970286
-3.565392	tann	-0.3484971
-3.933369	tann-yo	-0.4605569
-3.933369	tanngo	-0.4754472
-4.10946	tante	-0.3000838
-3.933369	tanté	-0.4739878
-4.10946	tap	-0.2992882
-3.933369	taza	-0.4480889
-3.933369	taïna	-0.2863725
-3.933369	ta’y	-0.4753794
-4.10946	tchou	-0.3009456
-4.10946	tchouyé	-0.2987456
-3.331309	temps	-0.3568844
-3.632339	ten	-0.3824053
-3.933369	tenne	-0.47702
-3.933369	terre	-0.4762259
-4.10946	territoriale	-0.2957322
-4.10946	théâtre	-0.2902998
-2.618099	ti	-0.4048959
-3.933369	ti-manman	-0.4770706
-3.933369	tibo	-0.4769356
-3.565392	tibou	-0.4536646
-3.180041	tibwen	-0.4374215
-3.71152	tifi	-0.4635621
-3.933369	tikrikett	-0.4480889
-3.933369	tikrikèt	-0.4766991
-3.933369	tima	-0.4663911
-3.933369	timafi	-0.4480889
-2.647063	timoun	-0.5407025
-3.71152	timoun-la	-0.4652652
-2.933369	tini	-0.3384905
-4.10946	tinyé	-0.300236
-3.71152	tipawol	-0.4541452
-3.933369	tipla	-0.4770706
-3.933369	tipyébwa	-0.4770706
-3.456248	tit	-0.5513213
-3.933369	tit-lasa	-0.4480889
-3.933369	tizonné-yo	-0.4480889
-3.933369	tobago"	-0.4763442
-3.933369	toch	-0.4629697
-3.456248	tombé	-0.6573055
-4.10946	tonik	-0.2982533
-2.632339	tou	-0.5178577
-3.933369	tou-lasa	-0.4766991
-4.10946	touché	-0.3008612
-3.933369	touf	-0.4770706
-3.933369	toujis	-0.4770538
-2.694487	toujou	-0.3340479
-4.10946	toujours	-0.3009287
-3.933369	toulongalé	-0.4763781
-3.933369	touloulou	-0.4753286
-3.933369	toulédé	-0.4714988
-3.933369	touléjou	-0.4659757
-3.933369	toumblak	-0.4754472
-3.80843	touné	-0.3977712
-3.71152	toupannan	-0.6945085
-4.10946	toupatou	-0.3005065
-3.71152	toupiti	-0.4764625
-3.933369	toupré	-0.4770706
-3.80843	tourist	-0.2456461
-3.933369	tous	-0.4769356
-3.71152	tousa	-0.457142
-3.933369	tousèl	-0.4693907
-2.365167	tout	-0.3579571
-3.933369	toutalè	-0.2918194
-3.456248	toute	-0.4072256
-3.933369	toutes	-0.300422
-3.933369	toutmoun	-0.4766316
-3.933369	toutt	-0.4743446
-3.71152	toutwèl	-0.4605042
-3.234399	touvé	-0.4686685
-3.933369	touvé'y	-0.4769693
-3.933369	traces	-0.4770706
-3.80843	tradisyon	-0.2600337
-3.933369	tralala	-0.4730348
-3.933369	tranblanntè	-0.4663911
-4.10946	trankil	-0.2719976
-4.10946	trankilité	-0.2987456
-4.10946	trans	-0.2719976
-3.80843	transfomasyon	-0.3623079
-3.80843	transfomé	-0.2935227
-3.632339	transmèt	-0.2616074
-4.10946	trant	-0.3005403
-3.507401	trapé	-0.42791
-4.10946	travail	-0.3009456
-2.738393	travay	-0.3350449
-3.632339	travayè	-0.394548
-4.10946	travo	-0.2965685
-3.71152	travèsé	-0.3265723
-4.10946	tren	-0.2868784
-3.933369	trenné	-0.4770706
-3.933369	trent	-0.4770706
-4.10946	trente	-0.3009962
-3.933369	tribi	-0.4663911
-3.933369	tribiché	-0.4629697
-4.10946	tribinal	-0.2719976
-3.933369	trimé	-0.4753794
-3.80843	tro	-0.3975179
-4.10946	trodui	-0.3009625
-3.264363	trouvé	-0.3668404
-3.632339	trouvé-y	-0.2515115
-3.933369	trwa	-0.4769525
-2.995517	trè	-0.4322916
-3.71152	très	-0.266587
-4.10946	trèzan	-0.30005
-4.10946	tréné	-0.2719976
-3.565392	tu	-0.8449799
-4.10946	turbulenscene	-0.3009962
-4.10946	ture	-0.2902998
-4.10946	tué	-0.2935571
-3.20637	twa	-0.3926571
-3.933369	twazyèm	-0.4681692
-3.933369	twazé	-0.4762259
-3.71152	two	-0.4762935
-3.933369	twonbon	-0.4754472
-3.933369	twop	-0.4770369
-3.933369	twopikal	-0.4766484
-3.933369	twèl	-0.4766653
-4.10946	tyen	-0.2974713
-3.068068	tè	-0.382563
-3.933369	tèks	-0.269337
-4.10946	tèl	-0.3006585
-3.369098	tèlman	-0.390538
-3.632339	tèm	-0.3228794
-4.10946	tèren	-0.3002022
-3.180041	tèt	-0.6710909
-3.933369	tèt-	-0.4762935
-1.571641	té	-0.5896024
-3.933369	tékla	-0.4770706
-4.10946	téknolojik	-0.2719976
-3.933369	télé	-0.2863725
-3.71152	témwen	-0.4759552
-4.10946	tépou	-0.3002022
-3.933369	térèz	-0.4770031
-4.10946	téré	-0.3009793
-3.71152	tété	-0.4769018
-3.507401	téyat	-0.388526
-4.10946	ue	-0.3005403
-3.933369	uit	-0.4761413
-3.933369	uitan	-0.4700602
-4.10946	ultra-marain	-0.2992882
-3.632339	un	-0.3377519
-3.632339	une	-0.3519462
-3.933369	untel	-0.2663311
-3.933369	vach	-0.4709513
-3.933369	valiwa	-0.4754472
-4.10946	valiz	-0.292078
-4.10946	valorisé	-0.3001007
-3.933369	valorizé	-0.2667149
-3.632339	valè	-0.4194562
-3.41049	vann	-0.445484
-3.933369	vanniy	-0.4629697
-3.565392	vansé	-0.5664278
-3.71152	vant	-0.4642232
-3.933369	vaval	-0.4480889
-4.10946	ven	-0.3009962
-3.933369	venn	-0.4659757
-3.933369	vennsenk	-0.4769356
-3.80843	veut	-0.6019588
-3.933369	veux	-0.4767498
-3.369098	vi	-0.6036562
-4.10946	vidé	-0.2868784
-3.933369	vie	-0.4770706
-2.720294	vin	-0.323342
-3.456248	vine	-0.4603639
-2.979127	vini	-0.3164409
-3.933369	viré	-0.4770706
-3.71152	vis	-0.4756166
-3.71152	vit	-0.3476617
-3.632339	vitamin	-0.3213783
-3.933369	vitman-présé	-0.4770031
-3.933369	vité	-0.4770369
-3.068068	viv	-0.4211567
-3.565392	vivasyon	-0.8339525
-3.933369	vivre	-0.2880972
-4.10946	vizavi	-0.2898844
-3.933369	vizit	-0.4480889
-3.933369	vizou	-0.4743446
-3.933369	vièj	-0.4681692
-2.670128	vlé	-0.5488822
-3.933369	voilà	-0.3008443
-3.565392	vois	-0.3600118
-3.71152	volkan	-0.4654905
-3.933369	volé	-0.4726598
-2.919129	vou	-0.4257388
-3.933369	voukoum	-0.4480889
-3.933369	voumtak	-0.4770369
-3.80843	vraiment	-0.3978556
-3.234399	vrè	-0.5362015
-3.369098	vrèman	-0.2434164
-3.80843	vré	-0.266861
-3.933369	vréman	-0.2894513
-2.995517	vwala	-0.2990977
-3.933369	vwayajé	-0.4663911
-4.10946	vwazinaj	-0.2719976
-3.933369	vwazinaj-la	-0.4653172
-2.625161	vwè	-0.2864201
-4.10946	vwè'w	-0.2719976
-3.80843	vwè-y	-0.256757
-4.10946	vwèkom	-0.2939689
-4.10946	vwèvwè	-0.2868784
-3.264363	vyann	-0.305826
-3.933369	vyolans	-0.4663911
-3.71152	vyé	-0.697296
-3.933369	vyéfo	-0.4480889
-3.933369	vyéko	-0.4769862
-3.71152	vè	-0.3656076
-3.933369	vèrden	-0.4769525
-3.933369	vès	-0.4754134
-4.10946	vé	-0.3009793
-3.71152	véjétal	-0.4753625
-3.933369	vénéré	-0.4769693
-3.565392	vénézyéla	-0.4621669
-3.933369	véyé	-0.4743446
-4.10946	w	-0.3009793
-3.80843	wa	-0.3813405
-3.933369	wacha	-0.4480889
-3.71152	wap	-0.446172
-3.933369	wari	-0.4754472
-3.234399	wi	-0.387196
-3.565392	wikenn	-0.4687546
-3.933369	wob-a-ko	-0.4770031
-3.933369	wob-di-chanm	-0.4714988
-4.10946	woch	-0.2932995
-3.933369	wokinwolmwen	-0.4770369
-4.10946	wol	-0.2969435
-4.10946	woma	-0.2719976
-3.933369	won	-0.4767667
-3.71152	wonm	-0.4746672
-3.933369	wop	-0.4480889
-3.933369	woté	-0.4770031
-4.10946	wouj	-0.2868784
-3.933369	wouklé	-0.4730348
-3.933369	woulouanjé’y	-0.4726598
-3.71152	woulé	-0.6699376
-3.933369	wouparèt	-0.4770538
-3.933369	woupran	-0.4763273
-3.933369	woutouné	-0.4766653
-4.10946	wouvin	-0.3007936
-3.565392	wouvè	-0.4767499
-4.10946	woy	-0.2953904
-4.10946	woz	-0.2719976
-3.41049	wè	-0.4153925
-4.10946	wènon	-0.3006923
-4.10946	x	-0.3009962
-3.71152	y	-0.3365017
-4.10946	ya	-0.3006585
-3.565392	yen	-0.8389281
-3.71152	yenki	-0.4716526
-1.792442	yo	-0.4403464
-3.933369	yo-menm	-0.4766822
-3.71152	yochak	-0.6871659
-2.948092	yonn	-0.5252424
-4.10946	yonou	-0.3000162
-3.71152	yotout	-0.4651437
-3.933369	youniti	-0.2930932
-3.264363	yè	-1.138655
-2.919129	yé	-0.3657721
-3.933369	z'abymes	-0.4696484
-3.71152	zabwiko	-0.4675658
-3.933369	zaffai	-0.4765133
-3.41049	zafè	-0.4051591
-3.71152	zan	-0.2627517
-3.80843	zanana	-0.2876449
-3.565392	zanmi	-0.3856501
-4.10946	zannanan	-0.2932995
-3.933369	zanno	-0.4480889
-4.10946	zansyen	-0.3008443
-3.933369	zansèt	-0.4770706
-3.71152	zantiy	-0.2612746
-3.933369	zantray	-0.4629697
-4.10946	zataché	-0.2898844
-3.369098	zeb	-0.5143495
-3.632339	zendyen	-0.4181179
-3.933369	zenk	-0.4629697
-4.10946	zil	-0.2719976
-3.933369	zil-	-0.4770706
-3.565392	ziyanm	-0.4301864
-3.933369	zié	-0.4659757
-4.10946	zoji	-0.2902998
-3.933369	zon	-0.3009624
-4.10946	zoranj	-0.2719976
-2.879012	zot	-0.3988171
-3.933369	zotout	-0.475193
-3.933369	zouté	-0.4681692
-3.234399	zyé	-0.5521024
-3.71152	zèb	-0.4641885
-3.71152	zèl	-0.4612051
-3.71152	zéfé	-0.6878244
-4.10946	zéklav	-0.2939689
-3.933369	zéklè	-0.4629697
-4.10946	zépis	-0.2898844
-3.71152	zépol	-0.4642232
-3.933369	zépon	-0.4480889
-4.10946	zéro	-0.2957322
-3.565392	zétazini	-0.3510616
-3.933369	zétwal	-0.4659757
-3.933369	zévan	-0.4766484
-2.854188	à	-0.4564025
-3.933369	à-i	-0.4726598
-3.10946	ça	-0.4302691
-4.10946	è	-0.2719976
-3.565392	èché	-0.4712423
-3.80843	èmé	-0.2997793
-3.456248	ès	-0.4521835
-3.933369	èspès	-0.4770706
-3.933369	èstèbèkwè	-0.4768343
-3.933369	ètnik	-0.4753794
-3.933369	ève-w	-0.2676271
-2.406169	èvè	-0.3730773
-3.71152	èvè-i	-0.4725404
-4.10946	èvè-w	-0.3009625
-3.507401	èvè-y	-0.2944433
-1.612531	é	-0.2681229
-4.10946	ében	-0.2987456
-3.933369	édikasyon	-0.2640033
-4.10946	édikatif	-0.2719976
-4.10946	édiké	-0.2939689
-4.10946	édé'w	-0.2994915
-4.10946	édé-y	-0.2994915
-3.933369	éfasé	-0.4770706
-3.71152	éfektiman	-0.2639481
-3.565392	éfektivman	-0.3566469
-3.933369	éfèktivman	-0.4743446
-4.10946	éfèvèsans	-0.3001007
-4.10946	éfèvésans	-0.2719976
-3.933369	éféktivman	-0.2862328
-4.10946	égoistéman	-0.300591
-4.10946	égzisté	-0.2719976
-3.933369	éi	-0.4770706
-4.10946	ékitab	-0.2902998
-3.933369	ékonomi	-0.2868435
-3.933369	ékonomik	-0.2822155
-4.10946	ékta	-0.2719976
-4.10946	ékzanp	-0.2719976
-4.10946	ékzisté	-0.2719976
-3.80843	élvé	-0.3872617
-4.10946	élwanyé	-0.2868784
-3.456248	émil	-0.5475492
-3.933369	émé	-0.4764795
-4.10946	éoubyen	-0.3008443
-3.01255	épi	-0.3449842
-3.933369	épis	-0.2822155
-3.933369	épok	-0.2910257
-3.71152	épé	-0.4680831
-4.10946	éro	-0.2982533
-4.10946	érésman	-0.292078
-3.933369	ésa	-0.4709513
-4.10946	éspès	-0.3003713
-3.565392	éséyé	-0.3373981
-3.933369	éta	-0.4746332
-4.10946	étalman	-0.3003713
-4.10946	étapes	-0.2898844
-3.933369	étazini	-0.2653978
-4.10946	étid	-0.3009793
-4.10946	étrangère	-0.3009962
-3.933369	étranj	-0.4769693
-4.10946	étud	-0.3006585
-3.933369	été	-0.2830606
-4.10946	étéroklit	-0.2719976
-4.10946	évakyé	-0.2719976
-3.933369	évidamman	-0.288271
-4.10946	évité	-0.2970286
-3.933369	évoliyé	-0.476868
-3.80843	évolyé	-0.2982193
-3.80843	évè	-0.294089
-4.10946	éwopéyèn	-0.2719976
-3.565392	éé	-0.8160657
-3.632339	être	-0.4243116
-3.933369	îles	-0.4770369
-3.933369	–	-0.4663911
-2.686215	‘w	-0.5509503
-3.933369	‘y	-0.4480889

\2-grams:
-0.1760913	"sézèv" o	-0.450387
-0.1760913	"trinidad and	0
-1.176091	- </s>
-1.176091	- anman	0
-1.176091	- banglen	-0.30103
-1.176091	- disparèt	-0.4149733
-1.176091	- guy	0
-1.176091	- ja	-0.3999553
-1.176091	- sé	-0.4758606
-1.176091	- tanbou	-0.449969
-1.176091	- timoun	-0.465222
-1.176091	- tousa	-0.30103
-0.1760913	-aki tala	-0.39794
-0.1760913	-an sé	-0.4701419
-0.1760913	-ba zot	-0.4401377
-0.1760913	-ou sé	-0.4701419
-0.1760913	-syèk dèyè	-0.4436975
-0.1760913	0 sid	-0.30103
-0.30103	18 è
-0.1760913	1853 é	-0.472443
-0.1760913	1878 lasa	-0.39794
-0.30103	18h </s>
-0.30103	18h45 apéprè
-0.1760913	1920 andèwo	0.2218487
-0.1760913	1981 mwen	-0.4393327
-0.30103	2010 mwen
-0.1760913	28 i	-0.2818198
-0.1760913	4latannyé fanmi	-0.4515672
-0.30103	8 ou
-3.019947	<s> -	-0.447158
-3.320977	<s> 18h45
-1.687508	<s> a	-0.137418
-3.320977	<s> aba
-2.090528	<s> adan	-0.04514397
-3.320977	<s> adaptés
-3.320977	<s> agrikiltè
-3.320977	<s> aktivité
-3.320977	<s> aktyèlman
-3.320977	<s> alentou
-2.320977	<s> alo	-0.01612
-3.019947	<s> alos	-0.39794
-3.019947	<s> aloss	-0.30103
-3.019947	<s> alosss	0
-3.320977	<s> alè
-1.434486	<s> an	-0.1656688
-3.320977	<s> anba
-3.019947	<s> anbenn	0
-3.320977	<s> andidan
-3.320977	<s> anfen
-3.320977	<s> anfèt
-3.320977	<s> angrè
-3.019947	<s> anivèsè
-3.320977	<s> anko
-2.622007	<s> anlo
-3.320977	<s> anlè
-3.320977	<s> anmèm
-3.320977	<s> anplis
-3.019947	<s> ansanm	-0.4515672
-3.320977	<s> ansomur
-3.320977	<s> ansuit
-3.320977	<s> ansémoman
-3.320977	<s> antré
-3.320977	<s> aprè
-3.320977	<s> aprèzan
-2.366734	<s> apré	-0.2710668
-2.542825	<s> asi	-0.3174205
-3.019947	<s> au
-3.320977	<s> aux
-2.718917	<s> avan
-3.320977	<s> awa
-3.320977	<s> ay
-3.320977	<s> ayè
-3.019947	<s> a’y	-0.4704907
-3.019947	<s> balan-la	0
-3.320977	<s> bandé
-2.718917	<s> bat	-0.6368221
-3.320977	<s> bato
-3.019947	<s> ben
-3.019947	<s> biten
-3.320977	<s> blan
-3.320977	<s> bo
-3.320977	<s> bokit
-2.366734	<s> bon	-0.1054166
-3.019947	<s> bondyé	0
-3.320977	<s> boukit
-3.320977	<s> bwa
-2.843855	<s> c'est	-0.1856366
-3.320977	<s> canada
-3.320977	<s> chak
-3.320977	<s> charles
-3.019947	<s> chat	-0.3679768
-3.320977	<s> chimen
-3.320977	<s> chivè
-3.019947	<s> chonjé	-0.3679768
-3.019947	<s> chèché
-3.320977	<s> conténances
-3.019947	<s> couter	0
-3.019947	<s> côté	0
-3.320977	<s> d'autre
-3.320977	<s> dako
-2.718917	<s> dans	-0.01703332
-3.320977	<s> daprè
-3.320977	<s> dapré
-3.019947	<s> davwa	-0.4393327
-2.718917	<s> de
-3.320977	<s> depi
-3.320977	<s> des
-3.320977	<s> despotasyon
-3.320977	<s> difisil
-3.320977	<s> disparèt
-3.320977	<s> dlo
-2.843855	<s> donc
-1.843855	<s> donk	-0.005205654
-3.019947	<s> dot
-3.320977	<s> dou
-3.019947	<s> doubout	-0.3679768
-3.320977	<s> dè
-3.019947	<s> dègné	-0.3899711
-1.998757	<s> dé	-0.04906956
-3.320977	<s> dédu
-3.320977	<s> déja
-3.019947	<s> délè	0
-3.320977	<s> démontré
-2.718917	<s> dépi	-0.1219944
-3.320977	<s> dévlopman
-3.320977	<s> dézan
-3.320977	<s> e
-2.366734	<s> en	-0.003205143
-3.320977	<s> enki
-3.320977	<s> enpotan
-3.320977	<s> enstriman
-3.320977	<s> entre
-3.320977	<s> entérésé
-3.320977	<s> eskè
-2.843855	<s> eské
-3.019947	<s> ess	0
-3.019947	<s> euh
-3.320977	<s> faire
-3.019947	<s> fanmi	-0.4515672
-2.843855	<s> farin	-0.154902
-3.320977	<s> finalman
-3.320977	<s> fini
-3.320977	<s> fiyè
-2.475879	<s> fo	-0.2073489
-3.320977	<s> foto
-3.019947	<s> fout	-0.30103
-3.019947	<s> fwè	-0.4336556
-2.843855	<s> fè
-3.320977	<s> galante
-3.320977	<s> gato
-2.542825	<s> genbo	-0.3010301
-3.320977	<s> gran
-3.320977	<s> gras
-3.320977	<s> griy
-3.320977	<s> griyé
-2.843855	<s> gwadloup	-0.1962947
-2.542825	<s> ha	0
-3.019947	<s> henkenchyen	0
-1.889613	<s> hum	0.2108535
-3.320977	<s> humhum
-2.065704	<s> i	-0.03876956
-3.019947	<s> idantité	-0.1526102
-3.320977	<s> il
-3.320977	<s> imaj
-3.320977	<s> in
-3.320977	<s> indépendants
-3.320977	<s> inikman
-3.320977	<s> irresponsable
-3.320977	<s> istwa
-3.320977	<s> ja
-3.320977	<s> jaélia
-3.320977	<s> jis
-3.320977	<s> jiska
-3.019947	<s> jistan	0
-2.718917	<s> jodijou	-0.1213045
-2.843855	<s> jodla	-0.4164234
-3.320977	<s> justement
-3.320977	<s> jwé
-3.320977	<s> jénéralman
-3.320977	<s> jénérasyon
-2.144885	<s> ka	-0.05879577
-3.019947	<s> kado
-3.320977	<s> kadré-y
-3.320977	<s> kalité
-3.320977	<s> kan
-3.320977	<s> kantil
-3.320977	<s> kasav
-3.320977	<s> kat
-3.320977	<s> kay
-3.320977	<s> kaz
-1.741193	<s> ki	-0.05529151
-3.019947	<s> kijan	-0.30103
-3.320977	<s> kilti
-3.019947	<s> kok	-0.2552725
-3.019947	<s> kolombo
-2.843855	<s> kom
-3.320977	<s> komin
-3.320977	<s> komèsyal
-2.174849	<s> kon	-0.1005709
-3.320977	<s> konbat
-3.320977	<s> konolyalis
-3.019947	<s> konpè	-0.39794
-3.320977	<s> konpétivité
-3.320977	<s> konsa
-3.019947	<s> kont
-3.320977	<s> kontrèman
-3.320977	<s> konté
-3.019947	<s> konvwa-la	0
-3.320977	<s> kouri
-2.542825	<s> krikett	-0.3222193
-3.019947	<s> kréol	-0.4057654
-3.320977	<s> kuit
-3.019947	<s> kuizin
-3.320977	<s> kultur
-3.320977	<s> kwa
-2.843855	<s> kè
-2.116857	<s> ké	-0.07499675
-2.622007	<s> la
-3.320977	<s> ladézirad
-3.320977	<s> lafen
-3.019947	<s> lafrans
-3.320977	<s> laise
-3.320977	<s> langaj
-3.019947	<s> lanmou	-0.3679768
-3.019947	<s> lanprèsman	0
-3.320977	<s> lansrokèt
-3.019947	<s> lantou	-0.30103
-3.320977	<s> lapansé
-3.019947	<s> lapli	-0.4101745
-3.019947	<s> larèl	0.3679768
-3.320977	<s> latravèsé
-3.019947	<s> lavi	-0.4024876
-3.019947	<s> lavéyé	0
-3.320977	<s> lendi
-3.320977	<s> lenflyans
-3.320977	<s> lenj
-3.320977	<s> lespotasyon
-3.019947	<s> li
-3.019947	<s> lo
-3.320977	<s> loganizasyon
-3.320977	<s> lojé
-2.042223	<s> lè	-0.2152434
-2.843855	<s> lé	-0.1783831
-3.019947	<s> léhou	0
-3.019947	<s> lévolisyon
-3.019947	<s> lévwa	0
-2.843855	<s> m	-0.39794
-3.019947	<s> ma
-3.019947	<s> madi
-3.019947	<s> main	-0.3679768
-3.320977	<s> mal
-3.320977	<s> man
-3.320977	<s> manjé
-2.718917	<s> manzè	-0.30103
-3.019947	<s> maré	-0.4313638
-2.622007	<s> men
-3.320977	<s> mentalité
-2.718917	<s> mhm	0
-3.320977	<s> mi
-3.320977	<s> mit
-3.320977	<s> mizik
-3.019947	<s> mizè	-0.3899711
-3.320977	<s> modènité
-3.019947	<s> moin	-0.1760913
-3.320977	<s> moman
-3.019947	<s> monchè
-3.019947	<s> mouchwè	-0.30103
-2.320977	<s> moun	-0.1437178
-3.320977	<s> mouvman
-2.366734	<s> mwen	-0.04575748
-1.923037	<s> mè	-0.03612354
-3.320977	<s> mèkrédi
-2.718917	<s> mèm
-3.019947	<s> mèsi	0
-3.320977	<s> mèt
-2.241796	<s> mé	-0.1581071
-3.320977	<s> médikaman
-3.320977	<s> mélanj
-3.320977	<s> mésyé
-3.320977	<s> même
-3.320977	<s> nap
-2.241796	<s> ni	-0.2476753
-3.019947	<s> non
-1.708193	<s> nou	-0.1558312
-3.019947	<s> nowèl
-2.417887	<s> o	-0.06601979
-3.320977	<s> obama
-2.843855	<s> okontrè	-0.07572071
-3.019947	<s> ola	-0.3679768
-3.320977	<s> olala
-3.019947	<s> olyé	0.1249387
-2.090528	<s> on	-0.1365415
-3.019947	<s> onlo	-0.39794
-3.019947	<s> osi
-3.320977	<s> oswè
-3.320977	<s> otan
-1.521636	<s> ou	-0.2120681
-2.718917	<s> oubyen
-2.090528	<s> pa	-0.1125194
-3.019947	<s> pandan
-3.320977	<s> papa
-3.019947	<s> par
-3.320977	<s> paralèlman
-3.019947	<s> paré
-3.019947	<s> pas
-3.320977	<s> pasad
-3.019947	<s> paskè
-2.207033	<s> paské	-0.06258199
-3.019947	<s> pati
-3.320977	<s> pi
-2.843855	<s> piské
-3.320977	<s> piti
-2.622007	<s> pli	-0.271575
-3.019947	<s> plis
-3.019947	<s> po	-0.3928004
-3.019947	<s> pom	-0.1760913
-3.019947	<s> ponmoun	0.2218487
-3.320977	<s> pot
-1.858579	<s> pou	-0.1846653
-3.320977	<s> poupé
-3.320977	<s> pran
-3.320977	<s> pri
-2.843855	<s> produi
-3.320977	<s> protéjé
-3.320977	<s> prèmyé
-2.843855	<s> pwop	-0.04575749
-3.320977	<s> pèsé
-3.320977	<s> pé
-2.843855	<s> pétèt	-0.1657328
-3.320977	<s> pétét
-2.843855	<s> péyi	-0.1840602
-3.019947	<s> rakoun	-0.4149733
-3.320977	<s> rasist
-3.320977	<s> rekonséyé
-3.019947	<s> ren	-0.3899711
-3.320977	<s> rentes
-3.320977	<s> respiré
-3.320977	<s> reztan
-3.320977	<s> rité
-3.019947	<s> rivé	-0.463333
-3.320977	<s> rosa
-3.320977	<s> rédistribiyé
-3.320977	<s> réfom
-3.320977	<s> rékoni
-3.320977	<s> résaman
-3.019947	<s> rété	-0.4490925
-3.320977	<s> rézilta
-3.019947	<s> s
-1.959249	<s> sa	-0.1701807
-2.475879	<s> san	-0.3040777
-3.320977	<s> sanblé
-3.019947	<s> santi	-0.3679768
-3.320977	<s> scientifiquement
-3.320977	<s> senten
-3.320977	<s> sexuelle
-2.279584	<s> si	-0.1099837
-3.320977	<s> sizè
-3.320977	<s> sklérozé
-3.320977	<s> sof
-3.320977	<s> solidarité
-3.019947	<s> solèy-la	0
-3.320977	<s> sosolida
-3.320977	<s> sosyal
-2.843855	<s> soti	-0.1955198
-3.320977	<s> soutou
-3.320977	<s> sponsorizé
-3.320977	<s> sportif
-3.320977	<s> spécifique
-3.320977	<s> ss
-3.320977	<s> sujet
-3.320977	<s> surtout
-2.843855	<s> swa
-3.320977	<s> swasant
-3.019947	<s> syal
-3.320977	<s> syans
-3.320977	<s> syantifik
-3.320977	<s> sè
-3.320977	<s> sèn
-3.320977	<s> sèvi
-1.501433	<s> sé	-0.07987702
-3.019947	<s> tala	-0.39794
-3.320977	<s> tan
-2.241796	<s> tanbou	-0.2092596
-2.843855	<s> ten
-3.320977	<s> théâtre
-3.320977	<s> ti
-2.843855	<s> timoun	-0.1307683
-3.320977	<s> tini
-3.320977	<s> tinyé
-2.475879	<s> tou	-0.0980081
-2.542825	<s> toujou	-0.07033668
-3.019947	<s> toupannan	0.2218487
-2.019947	<s> tout	-0.09868772
-3.019947	<s> toutmoun	0
-3.019947	<s> toutt	0
-3.320977	<s> tradisyon
-3.320977	<s> transfomasyon
-3.320977	<s> travèsé
-3.320977	<s> tren
-3.320977	<s> tribinal
-3.320977	<s> trodui
-3.019947	<s> trè
-3.019947	<s> très
-2.718917	<s> tu	0.146128
-3.320977	<s> turbulenscene
-3.320977	<s> ture
-3.320977	<s> tè
-2.843855	<s> tèlman
-3.320977	<s> tèm
-3.019947	<s> tèt	-0.4065402
-3.019947	<s> tèt-	0
-2.279584	<s> té	-0.1757397
-3.019947	<s> téyat
-3.320977	<s> une
-3.320977	<s> vini
-3.019947	<s> vit
-3.320977	<s> vité
-3.320977	<s> viv
-3.320977	<s> voilà
-3.320977	<s> vraiment
-3.019947	<s> vrèman
-2.622007	<s> vwala	-0.06567879
-2.843855	<s> vyann
-3.320977	<s> vè
-3.019947	<s> wap	-0.30103
-2.622007	<s> wi
-3.019947	<s> wikenn
-3.019947	<s> wop	0
-3.320977	<s> wouvin
-2.718917	<s> wè	-0.1091445
-3.320977	<s> wènon
-3.320977	<s> y
-3.320977	<s> yen
-1.906003	<s> yo	-0.09640667
-2.718917	<s> yonn	-0.3444957
-2.843855	<s> zafè	-0.154902
-3.320977	<s> zan
-3.019947	<s> zeb	-0.3309932
-3.320977	<s> zon
-3.019947	<s> zot	-0.4590231
-2.843855	<s> à
-3.320977	<s> ça
-3.320977	<s> èmé
-3.019947	<s> ès	-0.39794
-2.542825	<s> èvè	-0.07541177
-1.019947	<s> é	-0.05330408
-3.320977	<s> ében
-3.320977	<s> éfektiman
-3.320977	<s> éfektivman
-3.320977	<s> égoistéman
-3.320977	<s> éi
-3.320977	<s> ékonomi
-3.019947	<s> émil	-0.3899711
-3.019947	<s> épi
-3.320977	<s> épis
-3.320977	<s> étapes
-3.320977	<s> étéroklit
-3.320977	<s> évidamman
-3.019947	<s> évè
-2.622007	<s> éé	0.06694679
-2.947924	a 18
-2.947924	a 18h
-1.868742	a </s>
-2.169772	a a	-0.1489864
-2.646894	a albè	0
-2.169772	a an	-0.08510257
-2.947924	a anivèsè
-2.947924	a balè
-2.646894	a banjo	0
-2.470802	a bannann	-0.1492981
-2.646894	a bannzil-la	0
-2.646894	a bato-la	0
-2.646894	a baz	0
-2.646894	a bitasyon	-0.30103
-2.646894	a blakboton	0
-2.947924	a bo
-2.345864	a bwa	-0.3679768
-2.646894	a bwa-koubari	0
-2.646894	a bèl	-0.4529876
-2.646894	a bèlbèbèl	0
-2.470802	a cawo
-2.646894	a chalèston	0
-2.646894	a chat	-0.3679768
-2.646894	a chenil-la	0
-2.646894	a chenn	-0.3679768
-2.646894	a chenn-lasa	0
-2.646894	a chimen	-0.4336556
-2.646894	a chou	-0.2552725
-2.947924	a david
-2.947924	a di
-2.947924	a dizè
-2.646894	a dola	0
-2.646894	a dominik	-0.3521825
-2.470802	a dot	-0.2054583
-2.646894	a dou	-0.2552725
-2.646894	a doulè	0
-2.646894	a dwèt	-0.4227636
-2.646894	a dè
-2.646894	a dé	-0.4694344
-2.646894	a dégenn	0
-2.646894	a dékouvè	-0.30103
-2.646894	a déotwa	-0.30103
-2.947924	a dévlopman
-2.646894	a déyès	0
-2.947924	a enben
-2.947924	a fanm
-2.102826	a fanmi	-0.31627
-2.646894	a fwan	0
-2.646894	a fwèt	-0.39794
-2.646894	a fèy	-0.30103
-2.646894	a gangann	0
-2.947924	a gato
-2.646894	a gaël
-2.646894	a goud	0
-2.044834	a gran	-0.3853509
-2.646894	a gran-apa	0
-2.646894	a grannonm-la	0
-2.646894	a gwadloup
-2.646894	a gwoka	-0.1346986
-2.646894	a gwoup-la	0
-2.646894	a hak	-0.3679768
-2.947924	a hum
-2.947924	a i
-2.646894	a idantité	-0.1526102
-2.646894	a idanté	0
-2.646894	a ika	0
-2.646894	a inosan	0
-2.646894	a istwa	-0.30103
-2.646894	a jan	-0.4259687
-2.646894	a jenn	-0.39794
-2.947924	a jisk
-2.646894	a jéwom	-0.4357286
-2.470802	a ka
-2.646894	a kabrit	-0.30103
-2.646894	a kaka	0
-2.646894	a kakwè	0
-2.646894	a kal	0
-2.646894	a kalipso	0
-2.646894	a kanpèch	0
-2.947924	a kapasité
-2.947924	a kapestè
-2.646894	a karata3	0
-2.646894	a kawtyé-la	-0.39794
-2.248954	a kaz	-0.009441567
-2.947924	a ki
-2.947924	a kilè
-2.345864	a kimoun	-0.4014005
-2.646894	a klima	-0.2552725
-2.470802	a kolombo
-2.947924	a komin
-2.345864	a kongo
-2.646894	a konmès	0
-2.646894	a konprann	-0.3679768
-2.947924	a konsomasyon
-2.947924	a kouran
-2.947924	a kréol
-2.470802	a kè	-0.2092596
-2.646894	a kèk	0
-2.947924	a l'air
-2.248954	a la	-0.2978425
-2.947924	a labaz
-2.345864	a ladja	0
-2.947924	a lakanaval
-2.646894	a lalin	0
-2.646894	a lalit	0
-2.947924	a lanbi
-2.646894	a lankan	0
-2.646894	a lanmou	-0.3679768
-2.646894	a lanméri	-0.30103
-2.646894	a lanmérik	0
-2.646894	a larichès	0
-2.947924	a lavantaj
-2.947924	a lekstériyè
-2.646894	a lenbé	0
-2.947924	a lenflyans
-2.646894	a libèté	0.2218487
-2.646894	a lot-la	-0.4522977
-1.993681	a lè	-0.1507854
-2.646894	a lèstravay	0
-2.947924	a léana
-2.947924	a léfiji
-2.646894	a lélanné	0
-2.169772	a lépok	-0.007968931
-2.646894	a lésott	0
-2.646894	a léta	0.2218487
-2.345864	a lézot	-0.3424227
-2.044834	a maléré	-0.7323937
-2.646894	a mandé-mwen	0
-2.646894	a manmbo	0
-2.947924	a mannyok
-2.646894	a manyok
-2.646894	a marie-galante
-2.646894	a matnik	0
-2.646894	a matété	-0.30103
-2.646894	a men	-0.463333
-2.947924	a mi
-2.646894	a midi
-2.646894	a mizè	-0.3899711
-2.169772	a mo-la	0
-2.646894	a molokoy	0
-2.947924	a mori
-2.248954	a moun	-0.2757732
-2.470802	a mwen	-0.2173011
-2.947924	a mè
-2.345864	a mès	0.1249387
-2.345864	a nou	-0.123933
-2.345864	a nèg	-0.2808266
-2.646894	a né	-0.3679768
-1.743804	a on	-0.5843602
-2.044834	a pa	-0.05802156
-2.947924	a palé
-2.646894	a papa’y	0
-2.646894	a pap’an	0
-2.646894	a pasé	-0.4542584
-2.947924	a pati
-2.646894	a pen
-2.646894	a pik
-2.646894	a pip	0
-2.646894	a pistach	0
-2.646894	a piti	-0.4569179
-2.345864	a piti-bannzil	0
-2.646894	a pitit	-0.1760913
-2.646894	a po	-0.3928004
-2.646894	a poulèt	-0.30103
-2.646894	a pri	-0.3309932
-2.646894	a prèmyé	-0.4191293
-2.646894	a pwayé	0
-2.947924	a pwèl
-2.646894	a pè	-0.3309932
-2.646894	a pèd	-0.4336556
-2.947924	a péchè
-1.771832	a péyi	-0.1706962
-2.646894	a rantré	-0.4449366
-2.947924	a retou
-2.947924	a réglé
-2.248954	a sa	-0.08848882
-2.646894	a sajès	0
-2.646894	a sanblaj	0
-2.947924	a sav
-2.947924	a savé
-2.947924	a senten
-2.646894	a sid	-0.30103
-2.345864	a siklon	-0.2218487
-2.646894	a siklon-la	0
-2.646894	a sila	-0.3679768
-2.947924	a sin
-2.646894	a siriyen-la	0
-2.947924	a sizè
-2.947924	a sol
-2.646894	a souch	0
-2.646894	a sèl	-0.4548449
-2.169772	a sé	-0.08588952
-2.646894	a taktak	0
-2.646894	a tanbou	-0.449969
-2.646894	a ti-manman	0
-2.646894	a tima	0
-2.345864	a timoun	-0.2099495
-2.646894	a tit	-0.2808266
-2.646894	a touf	0
-2.646894	a touloulou	0
-2.646894	a touléjou	0
-2.646894	a toumblak	0
-2.947924	a tourist
-2.102826	a tout	-0.1239132
-2.646894	a tranblanntè	0
-2.947924	a transfomé
-2.345864	a travay	-0.6663009
-2.646894	a trouvé	-0.4101745
-2.947924	a trèzan
-2.947924	a twa
-2.646894	a twonbon	0
-2.947924	a tèm
-2.947924	a tèt
-2.947924	a té
-2.646894	a tékla	0
-2.947924	a untel
-2.646894	a vach	0
-2.470802	a vi	-0.1492981
-2.345864	a volkan	0
-2.947924	a vou
-2.470802	a vyann
-2.646894	a vèrden	0
-2.646894	a wokinwolmwen	0
-2.646894	a wonm	-0.30103
-2.646894	a wè	-0.2852357
-1.072862	a yo	-0.2446321
-2.345864	a yonn	-0.4288166
-2.646894	a zansèt	0
-2.646894	a zendyen	-0.3521825
-2.646894	a zot	-0.4401377
-2.646894	a zèl	-0.30103
-2.947924	a zéro
-2.947924	a ékonomik
-2.646894	a émil	-0.2808266
-1.53295	a ‘w	-0.6617702
-2.646894	a ‘y	0
-0.30103	a'w lizin
-0.9542425	a'y ka	-0.4753623
-0.9542425	a'y ki	-0.4688312
-0.9542425	a'y komin	-0.3309932
-0.9542425	a'y si	-0.4614411
-0.9542425	a'y té	-0.4760659
-0.9542425	a'y yonn	-0.4536402
-0.1760913	a-i ka	-0.4718228
-0.1760913	a-ou pa	-0.4740302
-0.1760913	a-w èvè	-0.4712917
-1.124939	a-y </s>
-1.30103	a-y a	-0.4761409
-1.30103	a-y antig	0
-1.30103	a-y asi	-0.4542584
-1.60206	a-y byento
-1.30103	a-y i	-0.436285
-1.60206	a-y jis
-1.30103	a-y ka	-0.4760667
-1.30103	a-y nou	-0.4532966
-1	a-y sé	-0.4299628
-1.60206	a-y twa
-1.30103	a-y wouvè	-0.3679768
-1.124939	a-y é	-0.216124
-0.30103	aa </s>
-0.1760913	aaa fout	-0.30103
-0.30103	aba é
-0.30103	abitiyé yo
-0.30103	abityèlman nou
-0.1760913	abityé vwè	-0.4628808
-0.90309	abiyé an
-0.60206	abiyé koulè	-0.30103
-0.60206	abiyé èvè	-0.4345689
-0.7781513	abo ba	-0.463333
-0.7781513	abo fè	-0.4703879
-0.7781513	abo grésé	0
-0.7781513	abo kraché	0
-0.30103	abon an
-0.60206	abîmes fait
-0.60206	abîmes on
-0.30103	accord avec
-1.267172	achté </s>
-0.9661418	achté an	-0.1420231
-1.568202	achté ansanm
-1.568202	achté ayen
-1.568202	achté ba
-1.568202	achté dé
-1.568202	achté gratuitman
-1.568202	achté kè
-1.568202	achté langoust
-1.267172	achté on
-1.568202	achté pou-y
-1.568202	achté produi
-1.568202	achté ti
-1.09108	achté tout	-0.2107833
-1.568202	achté woy
-0.30103	actes à
-0.60206	action </s>
-0.60206	action sexuelle
-0.30103	actions à
-0.4771213	adad ki	-0.4734563
-0.4771213	adad té	-0.4728842
-1.507856	adan </s>
-2.206826	adan adan
-1.604766	adan an
-2.206826	adan anfèt
-1.604766	adan anivèsè	0.01659927
-2.206826	adan apré
-2.206826	adan asezonman
-1.905796	adan bokantaj-palé	0
-1.905796	adan chivé	-0.4149733
-2.206826	adan direksyon
-2.206826	adan donk
-1.905796	adan dot	-0.4607309
-2.206826	adan dè
-2.206826	adan déjéné
-1.905796	adan gwo	-0.4436975
-1.729705	adan gwoka	0.1205739
-1.905796	adan idantité	-0.4288166
-1.905796	adan istwa	-0.30103
-1.905796	adan jaden	-0.4393327
-2.206826	adan komin
-1.905796	adan kuizin	-0.394147
-1.905796	adan kè	-0.4515672
-2.206826	adan la
-2.206826	adan lavi
-2.206826	adan lil
-1.905796	adan lopilans	0
-1.905796	adan léwoz	-0.3679768
-1.905796	adan lézot	-0.4149733
-1.905796	adan mové	-0.2552725
-2.206826	adan mèm
-1.905796	adan nenpot	-0.3521825
-1.604766	adan nou	-0.4391921
-0.845098	adan on	-0.2645698
-1.905796	adan p'on	-0.39794
-1.729705	adan péyi	-0.4259687
-2.206826	adan résèt
-1.905796	adan sistèm	-0.3521825
-1.905796	adan sosyété-la	-0.1760913
-1.905796	adan syèl-la	0.2218487
-1.428675	adan sé	-0.467576
-1.905796	adan ta-ou	0
-1.905796	adan ti	-0.4678806
-1.905796	adan vivasyon	0.3679768
-1.905796	adan yo	-0.4449366
-1.604766	adan zyé	-0.2397603
-2.206826	adan étazini
-0.30103	adanadan </s>
-0.1760913	adans on	-0.4752573
-0.7781513	adapté </s>
-0.7781513	adapté kuizin
-0.7781513	adapté à
-0.30103	adapté-y a
-0.30103	adaptés aussi
-0.30103	admettons kè
-0.30103	adopté-y é
-0.30103	adoré giscard
-0.1760913	adoumanman èvè	-0.4712917
-0.1760913	adyé a	-0.4387537
-0.1760913	adélya té	-0.3047038
-0.90309	afrik </s>
-0.60206	afrik mwen	-0.4695152
-0.60206	afrik yo	-0.3818848
-0.30103	afrikèn é
-0.30103	afè a
-0.60206	agrikilti </s>
-0.60206	agrikilti transfomasyon
-0.30103	agrikiltè ki
-0.30103	agrèr yo
-0.30103	aides de
-0.1760913	aimer jouer	0
-0.1760913	ajouté dézirad	-0.30103
-0.9542425	aka dantis
-0.9542425	aka entèl
-0.9542425	aka paskal
-0.6532125	aka sin
-0.30103	ako </s>
-0.30103	aksantyé osi
-0.60206	aksèpté </s>
-0.60206	aksèpté sitou
-0.30103	aksé ékonomi
-0.30103	aksépté nenpot
-0.544068	aktivité </s>
-0.845098	aktivité kiltirèl
-0.845098	aktivité kultur
-0.30103	aktyal ni
-0.90309	aktyèlman adan
-0.90309	aktyèlman an
-0.90309	aktyèlman nou
-0.90309	aktyèlman osi
-0.09691001	alantou a	-0.4751583
-0.1760913	alarètrèt hélé-mwen	0
-0.1760913	albè yo	-0.4449366
-0.30103	ale trè
-0.1249387	alentou a
-0.30103	aliman rich
-0.30103	aller des
-1.623249	alo </s>
-1.322219	alo an
-1.623249	alo avan
-1.623249	alo fo
-1.623249	alo jodla
-1.623249	alo ka
-1.623249	alo kè
-1.623249	alo ké
-1.623249	alo li
-1.623249	alo lè
-1.146128	alo mwen
-1.623249	alo mè
-1.623249	alo o
-1.623249	alo rantré
-1.623249	alo sa
-1.623249	alo sèl
-1.322219	alo sé
-1.623249	alo tou
-1.623249	alo é
-0.30103	alokasyon </s>
-0.7781513	alos an	-0.4540485
-0.7781513	alos i	-0.4743284
-0.7781513	alos ki	-0.4752927
-0.7781513	alos kimoun	-0.4409091
-0.4771213	aloss kifè	-0.4313638
-0.4771213	aloss mafi	0
-0.1760913	alosse moin	-0.1760913
-0.1760913	alosss foumi	-0.39794
-0.1760913	alyansman a	-0.4736803
-0.69897	alè </s>
-0.69897	alè la
-1	alè sa
-1	alè yo
-0.1760913	alèkilé yo	-0.3818848
-0.1760913	alèz lè	-0.4452516
-1.041393	alé i
-1.041393	alé kwa
-1.041393	alé mèm
-1.041393	alé paské
-0.7403627	alé touvé	-0.4336556
-0.1760913	alélouya </s>
-0.30103	amisman tout
-0.30103	amizman dansé
-0.60206	amizé nou
-0.60206	amizé yo
-0.1760913	amoni èvè
-0.1760913	amoué douvant	-0.30103
-0.30103	amé yo
-0.1760913	amérendyen té	-0.3047038
-2.725503	an 1853	0
-2.725503	an 1981	0
-2.248382	an </s>
-2.327563	an afrik	0
-3.026533	an ako
-2.725503	an amoni	0
-2.549412	an an	-0.2131832
-3.026533	an anvlop
-3.026533	an aprè
-2.725503	an atandan	0
-2.424473	an ay	-0.1286373
-3.026533	an ayiti
-3.026533	an bato
-3.026533	an bi
-3.026533	an bibliotèk
-3.026533	an bibliotèt
-1.985141	an biten	-0.08277792
-3.026533	an bizwen
-3.026533	an blan
-2.725503	an bobi	0
-3.026533	an bokit
-2.725503	an bol-a-men	0
-3.026533	an bon
-3.026533	an bouch
-2.725503	an bout	-0.1249387
-3.026533	an boutèy
-2.725503	an bwa	-0.4259687
-2.725503	an bè	-0.30103
-2.549412	an chimen	-0.1783831
-2.549412	an di
-3.026533	an direksyon
-3.026533	an diskou
-3.026533	an dominik
-3.026533	an dot
-2.725503	an dènyé	0
-3.026533	an désen
-2.725503	an déviré	0
-3.026533	an ekzamp
-3.026533	an fanm
-2.725503	an fenfon	-0.2552725
-3.026533	an fonksyon
-2.327563	an fos	-0.07378622
-2.725503	an four
-2.248382	an frans	0
-3.026533	an fransé
-3.026533	an fri
-2.725503	an fyè
-2.424473	an fèt	-0.39794
-2.725503	an gonflé	-0.30103
-2.549412	an gran	-0.207838
-3.026533	an granmoun
-3.026533	an gwadeloup
-2.072291	an gwadloup	-0.02802872
-2.725503	an gwatémala	0
-3.026533	an gwo
-2.725503	an gèl	0
-3.026533	an il
-3.026533	an ivèr
-2.549412	an ja	-0.2011642
-2.123443	an jaden	-0.3010299
-2.725503	an jan	-0.4412087
-3.026533	an jet
-3.026533	an jwé
-2.549412	an jénéral
-1.286171	an ka	-0.3108215
-2.424473	an kadans	0
-2.549412	an kado
-3.026533	an kapital
-2.725503	an kawtyé-la	-0.39794
-3.026533	an kayou
-1.822413	an kaz	-0.2082759
-2.549412	an ko	-0.1492981
-3.026533	an kolombo
-2.725503	an kolonaj	0
-2.725503	an kolonbi	0.2218487
-3.026533	an kom
-2.725503	an komin-lasa	0
-3.026533	an komun
-3.026533	an kon
-2.725503	an konmansman	0
-3.026533	an konstaté
-2.725503	an kontribann	0
-2.725503	an kou	-0.4045706
-3.026533	an krèm
-3.026533	an kréol
-2.424473	an kè	-0.6320232
-1.470231	an ké	-0.1689378
-2.248382	an k’ay	-0.3309933
-2.725503	an la	-0.4755304
-2.725503	an laliwonnaj	0
-2.725503	an laliwonnaj-lasa	0
-3.026533	an lang
-3.026533	an langaj
-3.026533	an lanmen
-3.026533	an lari
-2.725503	an latannyé4madanm-la	0
-3.026533	an lekszitwa
-3.026533	an lendistri
-2.725503	an lizyè	0
-2.725503	an lo
-3.026533	an lokasyon
-2.123443	an lot	-0.08613011
-2.725503	an lèspri	0.2218487
-2.725503	an lékilib	0
-2.725503	an lévé
-3.026533	an mandé-w
-2.725503	an manjé	-0.4628808
-3.026533	an manman
-2.424473	an mannyè
-2.725503	an memm	0
-2.327563	an men	-0.7428233
-2.026533	an menm	-0.3840042
-2.725503	an menmditan	0
-3.026533	an menndé
-2.725503	an mitan	0
-2.725503	an mizik
-2.725503	an moman
-3.026533	an moralité
-2.725503	an moun
-3.026533	an mwayen
-1.383081	an mwen	-0.2161895
-2.725503	an mèm	-0.463333
-3.026533	an méchansté
-3.026533	an médikaman
-3.026533	an mélanj
-3.026533	an mévèy
-3.026533	an nasyon
-3.026533	an natyon
-2.123443	an ni
-2.725503	an nitali	0
-3.026533	an nom
-1.270658	an nou	-0.1558086
-3.026533	an nous
-3.026533	an nyès
-3.026533	an ot
-1.470231	an pa	-0.257769
-3.026533	an pakèt
-3.026533	an pale
-3.026533	an paris8
-2.725503	an paré	-0.4227636
-3.026533	an patrimwan
-2.725503	an pawtikilyé	0
-2.725503	an pi	-0.4149733
-2.549412	an pisin	0
-2.725503	an pit	0
-3.026533	an pla
-2.248382	an plas	-0.02020338
-2.725503	an plat	-0.30103
-3.026533	an plis
-2.725503	an plézi	-0.3521825
-2.072291	an po	-0.5513064
-2.725503	an poko	-0.2552725
-3.026533	an popilasyon
-3.026533	an post
-3.026533	an pou
-2.424473	an pran	-0.1325552
-3.026533	an prizon
-1.880405	an produi	-0.2250539
-3.026533	an prèmyé
